svm_type c_svc
kernel_type rbf
gamma 0.20000000000000001
nr_class 2
total_sv 43
rho 0.14846750872254622
label 1 100
nr_sv 21 22
SV
1 1:0.21743 2:0.80635 3:-0.90698 4:0.72805 5:0.30803 
1 1:-1 2:0.86377 3:0.67593 4:0.97854 5:0.37376 
1 1:0.33333 2:0.96574 3:-0.86316 4:0.9884 5:0.2634 
1 1:0.54839 2:0.82645 3:-0.45349 4:0.66628 5:0.081319 
0.68339278036039697 1:0.48825 2:0.97767 3:-0.66667 4:0.99307 5:0.13899 
1 1:1 2:0.86706 3:0.17333 4:0.81052 5:0.27117 
1 1:0.56802 2:0.98425 3:0.0047393 4:0.94548 5:0.81081 
1 1:-1 2:0.96237 3:0.47436 4:0.95753 5:0.64956 
1 1:0.45029 2:0.8958 3:-1 4:0.88502 5:-0.28472 
1 1:0.14286 2:0.78295 3:0.16129 4:0.7542 5:0.80952 
1 1:0.31034 2:0.77013 3:-0.68421 4:0.92384 5:0.038229 
1 1:0.50758 2:0.97574 3:-0.51613 4:0.89322 5:0.23509 
1 1:0.66562 2:0.87223 3:0.25683 4:0.93601 5:0.42242 
1 1:-0.16935 2:0.99208 3:-0.91515 4:0.98378 5:0.24683 
0.4170559384356044 1:1 2:0.94683 3:0.080745 4:0.92829 5:0.13841 
1 1:0.55592 2:0.7891 3:-0.97436 4:0.94965 5:0.47374 
1 1:-1 2:0.99592 3:0.29808 4:0.98602 5:0.56125 
1 1:0.066667 2:0.96994 3:-0.54167 4:0.96066 5:0.14514 
1 1:0.97354 2:0.93228 3:0.30178 4:0.94634 5:0.24211 
1 1:0.30435 2:0.71327 3:-0.10559 4:0.57813 5:0.45784 
1 1:0.39685 2:0.97307 3:-0.51471 4:0.98356 5:0.0035703 
-1 1:0.50501 2:0.7226 3:0.37255 4:0.45463 5:0.70052 
-1 1:0.61839 2:0.96995 3:-0.015228 4:0.98874 5:0.27937 
-1 1:-0.030303 2:0.81869 3:-0.80392 4:0.86916 5:-0.0065574 
-1 1:0.50522 2:0.48376 3:-0.6 4:0.54756 5:0.0067476 
-0.040033163959066274 1:-0.016667 2:-0.049482 3:-0.91061 4:-0.15534 5:0.18065 
-1 1:0.69991 2:0.93333 3:0.49462 4:0.9875 5:0.44956 
-1 1:1 2:0.9956 3:-0.47826 4:0.99516 5:0.28303 
-1 1:-1 2:0.916 3:-0.56 4:0.92003 5:0.75163 
-1 1:-0.33333 2:0.90876 3:-0.88571 4:0.79532 5:1 
-1 1:0.047619 2:0.97958 3:-0.22989 4:0.97762 5:0.087264 
-1 1:1 2:0.82567 3:-0.23188 4:0.91644 5:0.10317 
-1 1:0.50448 2:0.46273 3:0.053892 4:0.056376 5:0.35925 
-0.060415554836935045 1:-1 2:0.98853 3:-0.9207 4:0.89211 5:0.60915 
-1 1:0.39282 2:0.30706 3:-0.20896 4:0.35392 5:-0.013333 
-1 1:-1 2:0.97061 3:-0.76963 4:0.93278 5:0.57433 
-1 1:0.50571 2:0.3079 3:0.052632 4:0.46692 5:0.3481 
-1 1:-0.013543 2:0.68473 3:-0.64789 4:0.70726 5:-0.24754 
-1 1:-1 2:0.97758 3:-0.4086 4:0.92981 5:0.67273 
-1 1:-1 2:0.96601 3:-0.14706 4:0.96783 5:0.44275 
-1 1:0.55333 2:0.48948 3:-0.74324 4:0.7935 5:0.01379 
-1 1:0.49754 2:0.82445 3:-0.31298 4:0.91659 5:0.19837 
-1 1:-1 2:0.99712 3:0.14706 4:0.90796 5:0.3087 
