svm_type c_svc
kernel_type rbf
gamma 0.03125
nr_class 3
total_sv 126
rho -0.53197100906489925 -0.66598474052966594 -0.41280894493774684
label 1 100 10000
nr_sv 79 24 23
SV
0.31556103061422608 2 1:-0.964389 2:0.74468 3:-0.82979 4:-0.177732 5:0.987441 6:0.49021 7:-1 8:0.910425 9:1 10:1 11:0.0743325 12:0.273935 13:1 14:0.189866 15:0.080077 16:0.83172 17:-0.59574 18:-0.82979 19:0.72222 20:0.46809 21:-0.860819 22:0.107444 23:0.57437 24:-0.51768 25:-0.951161 26:1 27:0.68784 28:0.943908 29:-0.298303 30:1 31:-0.468528 32:-0.361895 33:0.95006 34:0.540145 35:-0.999208 36:-0.0662846 37:0.97121 38:-1 39:-0.464801 40:0.476302 41:0.426975 42:0.49053 43:0.990042 44:0.602967 45:0.59166 46:-0.57786 47:-0.326482 48:0.89069 49:-0.70251 50:-1 51:-0.4512 52:0.70505 53:0.763711 
0.080650750979430141 0.046862540628269805 1:0.258821 2:0.63636 3:0.75758 4:-0.615554 5:0.7085 6:-0.45504 7:-1 8:0.478209 9:0.659798 10:-1 11:0.324545 12:-0.378722 13:0.419411 14:-0.153069 15:0.840215 16:0.86699 17:-0.84848 18:0.66667 19:-0.63158 20:0.78788 21:0.274131 22:-0.434597 23:-0.9919 24:-0.2779 25:-0.797676 26:0.82456 27:0.56392 28:-0.0201975 29:-0.576166 30:1 31:-1 32:-0.358757 33:0.81449 34:-0.498743 35:-0.903049 36:0.129 37:0.64788 38:-1 39:-0.555336 40:0.082074 41:-0.924801 42:1 43:0.962682 44:-0.862473 45:0.54097 46:-0.99457 47:-0.405278 48:-1 49:-0.811757 50:-1 51:-0.7112 52:0.60915 53:0.571541 
0.2700575312627817 0 1:-0.829966 2:1 3:1 4:-0.662608 5:0.466347 6:-0.66999 7:0.70776 8:0.653297 9:0.523709 10:-0.23333 11:-0.833771 12:0.40287 13:0.90476 14:0.0772403 15:1 16:0.97002 17:1 18:-0.6 19:-0.30233 20:-0.23333 21:0.487711 22:0.166149 23:-0.21765 24:-0.31935 25:-0.991841 26:0.41555 27:-1 28:-0.479142 29:-0.564476 30:0.501146 31:0.152112 32:-0.764508 33:0.71492 34:-0.291437 35:-0.506441 36:0.170949 37:0.6518 38:-1 39:0.523632 40:-0.548711 41:-0.0505889 42:0.32208 43:0.932645 44:-0.313129 45:0.62137 46:0.063283 47:0.0246323 48:0.75154 49:-1 50:0.424157 51:-0.10056 52:0.58153 53:0.22119 
0 2 1:0.524766 2:0.60606 3:1 4:0.188732 5:0.58952 6:-0.49857 7:0.69749 8:0.874749 9:0.597938 10:0.72727 11:-0.343754 12:0.387781 13:0.918628 14:0.208269 15:0.584572 16:0.96477 17:1 18:0.39394 19:0.26667 20:0.36364 21:0.848436 22:0.39615 23:0.40209 24:-0.43503 25:-0.998286 26:0.18261 27:0.78667 28:0.528864 29:0.876319 30:1 31:0.750951 32:-0.549942 33:0.75913 34:-0.0231772 35:-0.99999 36:0.725583 37:0.77149 38:-0.548324 39:0.688199 40:0.832168 41:-0.333201 42:0.37431 43:0.72686 44:-0.40327 45:0.61905 46:-0.48661 47:-0.579864 48:0.67243 49:-0.885251 50:0.140305 51:-0.2393 52:0.64639 53:0.96316 
0.82263283886881267 1.4937931298953484 1:0.0981642 2:1 3:-0.83333 4:-0.99999 5:0.916747 6:0.55361 7:0.82062 8:-0.898806 9:1 10:-0.9375 11:0.669014 12:-0.271993 13:0.97607 14:0.867936 15:1 16:0.98485 17:-0.9375 18:1 19:-0.89573 20:1 21:-0.271426 22:-0.397911 23:-0.99224 24:-0.49189 25:-0.907875 26:0.42917 27:0.54113 28:0.693777 29:-0.646646 30:1 31:0.001055 32:-0.724205 34:0.875468 35:-0.979385 36:0.989193 37:0.64405 38:-1 39:0.278481 40:-0.642067 41:-0.438906 42:-0.2 43:0.980716 44:-0.16588 45:0.38462 46:-0.99894 47:-0.382274 48:1 49:-1 50:-0.509616 51:-0.42924 52:0.81871 53:-0.824325 
0 1.1549827569427222 1:0.920485 2:-0.20792 3:-0.069307 4:0.940454 5:0.961031 6:-0.5924 7:0.62632 8:0.926907 9:0.757481 10:0.48515 11:0.978052 12:0.638277 13:0.910408 14:-0.929544 15:-0.378218 16:0.92769 17:-0.80198 18:1 19:0.66667 20:0.42574 21:0.779003 22:0.58972 23:0.94227 24:-0.65649 25:-0.846529 26:0.70013 27:0.11879 28:0.430501 29:-0.167662 30:0.745993 31:0.675418 32:-0.890654 33:0.84363 34:0.603097 35:0.765335 36:-0.450472 37:0.90286 38:0.208944 39:0.547001 40:0.882727 41:-0.214911 42:0.61832 43:0.945001 44:-0.901623 45:0.81187 46:-0.9836 47:0.127353 48:0.12121 49:-0.814321 50:-0.512689 51:-0.46894 52:0.54571 53:0.782048 
0.14270321343036618 0 1:-0.138936 2:1 3:1 4:-0.719059 5:0.889226 6:-0.43297 7:0.6159 8:0.787735 9:0.872423 10:0.75 11:-0.226772 12:0.301071 13:0.938112 14:-0.759042 15:1 16:0.95214 17:-0.70833 18:0.20833 19:0.45806 20:0.625 21:0.236253 22:-0.529067 23:0.12166 24:0.088582 25:-0.68946 26:0.077361 27:-1 28:-0.784659 29:0.105491 30:-0.380749 31:0.492179 32:-0.967584 33:0.75405 34:-0.802336 35:-0.299337 36:-0.7588 37:0.50053 38:-0.872225 39:0.0993078 40:-0.458606 41:0.185232 42:-0.084633 43:0.901653 44:-0.588223 45:0.54855 46:0.27901 47:-0.186129 48:0.61552 49:-0.84374 50:-0.209821 51:-0.26991 52:0.52967 53:-0.574867 
1.3169688759077289 0 1:0.432169 2:1 3:1 4:-0.575522 5:0.82727 6:-0.79175 7:0.62963 8:0.662103 9:0.52226 10:-0.74468 11:-0.361566 12:0.0163929 13:0.907344 14:-0.955009 15:0.865377 16:0.97759 17:-0.61702 18:0.44681 19:-0.63743 20:1 21:0.202468 22:-0.408494 23:-0.71603 24:-0.013665 25:-0.54028 26:0.024024 27:0.18454 28:-0.52321 29:-0.881809 30:0.727072 31:-0.153409 32:-0.285795 33:0.77273 34:-0.0970896 35:-0.822478 36:0.379768 37:0.66808 38:-0.996155 39:-0.452337 40:-0.582875 41:-0.737385 42:-0.0020202 43:0.93925 44:-0.744431 45:0.4583 46:-0.86537 47:0.088094 48:0.51647 49:-0.342297 50:-0.543086 51:-0.14939 52:0.39031 53:-0.735067 
0.57824231988013453 0 1:1 2:0.16923 3:1 4:-0.960299 5:-0.401328 6:-0.81188 7:0.19048 8:-0.269106 9:1 10:0.44615 11:-0.840281 12:0.29306 13:0.780204 14:-0.982531 15:-0.525032 16:0.96236 17:-0.96923 18:0.84615 19:0.60215 20:0.38462 21:-0.645071 22:-0.850455 23:-0.96396 24:-0.28882 25:-0.996402 26:-1 27:0.21882 28:-0.812886 29:-0.397264 30:-0.480109 31:0.0166063 32:-0.80746 33:0.76253 34:-0.662493 35:-0.979852 36:0.0559127 37:0.57629 38:-0.918454 39:0.258479 40:0.669298 41:-0.539079 42:0.058721 43:0.551082 44:0.548038 45:0.49131 46:-0.9235 47:-0.227514 48:0.71111 49:-0.576922 50:0.192073 51:0.0065359 52:0.50394 53:-0.479647 
0.34989684327213416 0.91064329264110022 1:-0.987259 2:1 3:0.83133 4:-0.974945 5:0.97342 6:-0.91741 7:-1 8:0.920922 9:-0.205062 10:-0.87952 11:-0.444031 12:0.465073 13:0.934187 14:-0.139236 15:-0.245124 16:0.96064 17:-0.87952 18:-0.18072 19:0.081967 20:-0.18072 21:0.393137 22:-0.389719 23:0.80116 24:-0.61469 25:-0.901827 27:0.33588 28:-0.0261206 29:-0.9906 30:1 31:-0.654308 32:-0.965838 33:1 34:-0.0460505 35:-0.987225 36:-0.876409 37:0.84286 38:-0.416791 39:-0.759898 40:-0.518511 41:-0.587293 42:0.49916 43:0.746953 44:0.038026 45:0.68241 46:-0.61539 47:-0.399674 48:0.81587 49:-0.694023 50:-0.0768597 51:-0.59913 52:0.55421 53:0.192793 
0.52934396313705534 1.9254859794078734 1:-0.671036 2:1 3:1 4:-0.965088 5:0.976792 6:0.19271 7:0.60317 8:-1 9:1 10:0.27869 11:1 12:-0.618186 13:0.964445 14:-0.917735 15:1 16:0.97524 17:0.86885 18:1 19:-0.50303 20:1 21:0.478844 22:0.183123 23:-0.97223 24:-0.078714 25:0.0792711 26:0.28024 27:0.10135 28:-0.248193 29:-0.941989 30:0.158843 31:0.161324 32:0.621598 33:0.52075 34:-0.113077 35:-0.754297 36:0.589312 37:0.54736 38:-0.989688 39:-0.354017 40:-0.0972638 41:-0.839171 42:0.39726 43:0.993425 44:-0.90549 45:0.57364 46:-0.014987 47:0.0982739 48:0.75617 49:-0.0671552 50:-0.820824 51:-0.038429 52:0.55945 53:0.485155 
0.067010540468449439 0 1:0.158443 2:1 3:1 4:-0.999289 5:0.61593 6:-0.70328 7:0.67496 8:0.764248 9:0.22972 10:0.96226 11:-0.809857 12:0.0303523 13:0.989667 14:-0.61006 15:1 16:0.80947 17:0.50943 18:0.96226 19:0.63975 20:-0.13208 21:0.775882 22:-0.513873 23:-0.92554 24:-0.095238 25:-0.600295 26:0.43673 27:0.50739 28:-0.229041 29:0.196092 30:0.959657 31:0.421801 32:-0.874013 33:0.54815 34:-0.46938 35:-0.329732 36:0.613494 37:0.62666 38:-0.98392 39:0.88346 40:-0.700305 41:0.305879 42:0.05116 43:0.927953 44:-0.219493 45:0.6605 46:-0.12569 47:-0.0974432 48:0.69738 49:-0.856687 50:0.613268 51:-0.27532 52:0.49625 53:-0.667451 
0.93039700491430011 0.60264216921833258 1:-0.559534 2:-0.32353 3:0.91176 4:0.313935 5:0.798658 6:-0.15417 7:0.63725 8:0.510283 9:-0.3208 10:1 11:-0.457975 12:0.115024 13:0.975389 14:0.284614 15:1 16:0.92385 17:-0.23529 18:0.85294 19:-0.36364 20:0.67647 21:0.403645 22:-0.836523 23:0.64239 24:-0.22069 25:-0.976841 26:0.21688 27:0.40168 28:-0.886575 29:0.246522 30:1 31:-0.22499 32:-0.714572 33:0.63118 34:-0.468171 35:-0.356744 36:0.512524 37:0.5004 38:-0.999989 39:0.810988 40:0.525749 41:-0.525771 42:0.32008 43:0.988659 44:-0.537684 45:0.60249 46:-0.66982 47:0.0118078 48:0.67725 49:-0.906019 50:-0.850694 51:-0.38458 52:0.51271 53:0.102429 
0 2 1:0.53855 2:0.73737 3:1 4:0.642822 5:-1 6:0.25354 7:0.78984 8:-1 9:0.0515483 10:1 11:-0.630682 12:0.827124 13:0.931724 14:0.859617 15:0.808262 16:0.93547 17:-0.9596 18:-0.13131 19:0.052174 20:0.11111 21:0.475186 22:0.30565 23:0.45726 24:-0.77949 25:-0.584091 26:0.35883 27:0.33333 28:0.745417 29:0.0332623 30:1 31:0.382884 32:-0.991344 33:0.91954 34:0.569345 35:-0.124233 36:0.364146 37:0.68589 38:-0.820304 39:-0.639319 40:0.459403 41:0.561982 42:0.62305 43:0.939603 44:0.314023 45:0.61944 46:-1 47:-0.1671 48:-1 49:-0.995961 50:-0.981639 51:-0.38133 52:0.86336 53:-0.677685 
0.6819275222370601 0.33021045888194461 1:0.686969 2:-0.42169 3:0.95181 4:-0.840085 5:-0.992614 6:-0.98157 7:0.90706 8:-0.950614 9:-0.401806 10:0.95181 11:-1 12:-0.298524 13:0.938923 14:0.461295 15:1 16:0.98109 17:-0.9759 18:-0.3012 19:0.87255 20:0.036145 21:-0.351013 22:-0.684077 23:-0.39714 24:-0.50659 25:-1 26:0.27804 27:-1 28:1 29:0.149891 30:-0.13336 31:0.791478 32:0.406288 33:0.63155 34:1 35:-0.985763 36:0.473013 37:0.78224 38:-1 39:0.554259 40:-0.341837 41:0.310788 42:0.61915 43:0.963035 44:0.338228 45:0.63739 46:-0.7669 47:-0.231973 48:0.84762 49:-0.604409 50:-0.668752 51:-0.29768 52:0.87273 53:0.483879 
0.22613861148369227 0 1:0.963064 2:-0.32283 3:-0.85827 4:0.397975 5:0.512562 6:-0.1473 7:0.75362 8:-0.994996 9:0.983925 10:-0.84252 11:-1 12:0.398915 13:0.898132 14:0.614525 15:1 16:0.98802 17:-0.9685 18:-0.92126 19:0.775 20:-0.68504 21:0.574594 22:0.342245 23:0.69669 24:-0.71111 25:-1 26:0.58786 27:-1 28:0.907453 29:0.754268 30:1 31:0.193413 32:-0.762457 33:0.81855 34:0.825186 35:-0.99999 36:0.88785 37:0.76527 38:-1 39:0.630782 40:-0.440564 41:-0.795877 42:0.41887 43:0.97798 44:-0.523854 45:0.82094 46:-1 47:-0.515291 48:-1 49:-0.765036 50:0.398985 51:-0.62885 52:0.86884 53:-1 
2 1.0240290576670465 1:0.86373 2:-0.29524 3:-0.29524 4:0.901875 5:-1 6:-0.776 7:0.8673 8:-0.83538 9:-0.283058 10:0.2381 11:-1 12:0.445208 13:0.752359 14:0.243518 15:0.919654 16:0.88348 17:-0.92381 18:-0.61905 19:0.64758 20:-0.29524 21:0.551895 22:0.352482 23:0.68364 24:-0.77939 25:-1 26:0.24378 27:-1 28:0.964423 29:0.610316 30:0.979636 31:0.718225 32:-0.976668 33:0.78475 34:0.822991 35:-1 36:0.752556 37:0.8314 38:-1 39:0.376679 40:0.552634 41:0.465728 42:0.55789 43:0.827591 44:-0.027882 45:0.8063 46:-0.9864 47:-0.390166 48:0.56667 49:-0.942286 50:0.0139761 51:-0.44496 52:0.85976 53:-0.700636 
0.91490781191385384 0 1:0.272385 2:-0.61224 3:0.7551 4:-0.320076 5:0.961161 6:-0.83302 7:0.80796 8:0.634263 9:0.291815 10:-0.77551 11:-1 12:0.772245 13:0.977071 14:0.834338 15:-0.764752 16:0.95135 17:-0.91837 18:-0.40816 19:0.55046 20:-0.69388 21:0.414244 22:-0.289957 23:0.94259 24:-0.63428 25:-1 26:0.35509 27:0.36264 28:0.490581 29:0.686557 30:0.0619304 31:0.567043 32:-0.763262 33:0.72457 34:0.218304 35:-0.941222 36:0.646258 37:0.75139 38:-1 39:0.394842 40:-0.846025 41:-0.990641 42:0.2508 43:0.995484 44:-0.109254 45:0.62358 46:-0.93336 47:-0.325338 48:0.86111 49:-0.842674 50:-0.467235 51:-0.51866 52:0.90909 53:-0.905542 
0.94744774551002653 0.10008571906110363 1:0.884412 2:-0.37374 3:-0.11111 4:0.26072 5:0.930808 6:-0.28818 7:-1 8:-0.909504 9:-1 10:-0.91919 11:-1 12:0.522735 13:0.981226 14:0.238304 15:-0.193019 16:-1 17:-1 18:0.39394 19:0.46919 20:0.090909 21:0.679788 22:-0.712623 23:0.29537 24:-1 25:-1 26:0.29649 27:-1 28:0.846889 29:0.808448 30:0.805641 31:0.628545 32:-0.697198 33:0.94075 34:0.490249 35:-0.992638 36:0.228439 37:0.75764 38:-1 39:0.272087 40:0.193117 41:-0.825862 42:0.075918 43:0.720697 44:0.343641 45:0.62557 46:-1 47:-0.259402 48:-1 49:-0.18359 50:0.281017 51:-0.69937 52:0.33333 53:-0.980478 
0 0.18377816536741373 1:0.678395 2:-0.51579 3:0.53684 4:0.565424 5:0.937943 6:-0.85032 7:1 8:-0.926066 9:-0.396632 10:1 11:-1 12:0.560277 13:0.988586 14:-1 15:-0.598471 16:0.88253 17:-1 18:-0.76842 19:0.87 20:-0.97895 21:0.175473 22:-0.250055 23:-0.036714 24:-0.62594 25:-1 26:0.40794 27:0.2381 28:0.979809 29:-0.0936329 30:1 31:0.521706 32:-0.926805 33:0.70721 34:0.887843 35:-0.994821 36:-0.147955 37:0.65858 38:-1 39:0.598461 40:-0.234267 41:0.388038 42:0.50558 43:0.974891 44:0.373732 45:0.81176 46:-0.97879 47:-0.0859127 48:0.66667 49:-0.446755 50:0.689341 51:-0.54588 52:0.85714 53:0.173775 
1.0358854533593818 1.2812544478389307 1:0.937703 2:-0.30769 3:-0.71154 4:-0.98305 5:-0.0135112 6:-0.91518 7:0.015873 8:-0.0694077 9:-0.33465 10:-0.30769 11:0.453743 12:0.393841 13:0.0556038 14:0.705899 15:0.0265725 16:0.81247 17:1 18:1 19:-0.58049 20:-0.30769 21:0.454717 22:0.29244 23:-0.49989 24:0.34769 25:-0.790721 26:0.56607 27:0.34835 28:0.448431 29:0.721927 30:1 31:-0.376286 32:-0.416299 33:0.79026 34:0.484661 35:0.531209 36:0.0182028 37:0.85687 38:-0.991611 39:-0.303084 40:0.627151 41:-0.422484 42:-0.02728 43:0.0560945 44:-0.979441 45:0.42183 46:-0.99961 47:-0.367474 48:-1 49:-0.808725 50:0.411223 51:0.40168 52:0.68095 53:-0.387248 
0 0.53989339612454923 1:0.405874 2:1 3:-0.32203 4:-0.750294 5:0.637516 6:0.57819 7:0.62326 8:0.176129 9:1 10:0.38983 11:-0.187054 12:-0.317177 13:-0.308883 14:-0.936139 15:1 16:0.76646 17:0.38983 18:1 19:0.60714 20:1 21:-0.315222 22:-0.224389 23:-0.73272 24:-0.29139 25:-0.951204 26:0.69957 27:0.97762 28:-0.00957073 29:0.0197002 30:1 31:-0.0976683 32:-0.575752 33:0.66542 34:-0.129129 35:-0.999147 36:0.299505 37:0.7194 38:-0.347807 39:0.739334 40:0.585906 41:-0.878496 42:0.30565 43:0.72964 44:-0.0296989 45:0.68061 46:-0.94994 47:-0.0885007 48:0.51663 49:0.6619 50:-0.836599 51:0.075375 52:0.61109 53:-0.558733 
0.8551992919083321 1.1334999091356823 1:0.949691 2:-0.61905 3:-0.71429 4:0.790807 5:1 6:0.83068 7:0.88891 8:0.999089 9:1 10:0.74603 11:-0.147756 12:0.0591378 13:0.764875 14:-0.0408282 15:1 16:0.88804 17:1 18:-0.69841 19:-0.93548 20:-0.69841 21:0.65489 22:1 23:0.58572 24:-0.2437 25:-0.418084 26:0.58824 27:-0.022222 28:0.730162 29:0.795858 30:1 31:-0.641269 32:-0.917978 33:0.84824 34:0.860736 35:-0.999675 36:0.921339 37:0.88328 38:1 39:-0.921402 40:-0.274924 41:-0.191029 42:-0.064327 43:0.949738 44:-0.999277 45:0.79298 46:-0.99991 47:-0.528428 48:0.12121 49:-1 50:0.732155 51:-0.35507 52:0.64049 53:-0.819692 
0.21452519668905884 0 1:-0.164517 2:1 3:1 4:-0.143752 5:0.950403 6:-0.4303 7:-1 8:0.967456 9:0.403327 10:-0.076923 11:0.648731 12:-0.59941 13:0.974588 14:-0.929544 15:0.286156 16:0.99753 17:0.53846 18:0.41538 19:0.55952 20:1 21:-0.816628 22:-0.0315261 23:-0.98391 24:-0.35835 25:-0.706287 26:0.20724 27:-0.013395 28:-0.430229 29:0.407244 30:-0.381433 31:-0.296006 32:-0.968549 33:0.53799 34:0.366774 35:-0.948889 36:-0.564747 37:0.5609 38:-0.99279 39:-0.864265 40:0.685808 41:0.142121 42:0.19063 43:0.990615 44:0.386266 45:0.666 46:0.62036 47:0.192631 48:0.66671 49:-0.694901 50:-0.97486 51:0.15238 52:0.62915 53:0.617988 
0 0.3277093036900362 1:-0.932874 2:1 3:1 4:0.073926 5:0.9338 6:-0.38103 7:0.89091 8:0.786114 9:0.916687 10:-0.46939 11:0.0334435 12:0.760875 13:0.943799 14:0.0135066 15:0.913917 16:0.94854 17:1 18:1 19:-0.13208 20:-0.46939 21:-0.13267 22:-0.0935892 23:0.7663 24:-0.53214 25:-0.677845 26:0.25799 27:0.0057851 28:-0.549277 29:-0.558416 30:0.432797 31:-0.687882 32:-0.53639 33:0.61149 34:-0.385874 35:0.434299 36:0.0351607 37:0.63889 38:-0.578725 39:-0.0356541 40:-0.0632044 41:0.116901 42:-0.16768 43:0.99241 44:-0.876193 45:0.42817 46:-0.84549 47:0.229775 48:0.55678 49:-0.956182 50:-0.760937 51:-0.45476 52:0.44507 53:-0.184072 
0.70826230167553772 0 1:0.748774 2:-0.77419 3:-0.64516 4:-0.267442 5:0.679798 6:0.62495 7:1 8:0.874258 9:0.901235 10:-0.93548 11:0.0705974 12:0.856952 13:0.61774 14:0.82443 15:-0.717888 16:0.98548 17:1 18:0.3871 19:0.042735 20:-0.22581 21:0.662794 22:-0.672313 23:-0.19715 24:-0.37201 25:-0.88109 26:0.63282 27:0.547 28:-0.837934 29:-0.458895 30:-1 31:0.641499 32:-0.685025 33:0.85779 34:0.689935 35:0.120465 36:0.950527 37:0.68314 38:0.600725 39:0.759258 40:0.936518 41:-0.938937 42:0.554 43:0.986497 44:-1 45:0.74921 46:0.74407 47:-0.583943 48:0.783 49:-0.905539 50:-0.828542 51:-0.63671 52:0.70762 53:0.760045 
0.71879858228926452 0 1:0.865999 2:-0.62667 3:-1 4:-0.59105 5:0.964833 6:0.053646 7:0.82768 8:0.970559 9:0.591753 10:1 11:-0.98685 12:-0.545733 13:0.967539 14:-0.95638 15:-0.406058 16:0.72075 17:-0.92 18:-0.44 19:0.59615 20:0.54667 21:0.0694739 22:-0.120283 23:-0.90554 24:1 25:-1 26:0.63158 27:-1 28:0.0875035 29:0.555126 30:1 31:0.362463 32:-0.65018 33:-1 34:0.189531 35:0.343725 36:0.424235 37:0.80399 38:-1 39:-0.755511 40:0.280924 41:0.383721 42:0.44136 43:0.965183 44:-0.964516 45:0.73244 46:-1 47:-0.581644 48:-1 49:-0.928788 50:-0.796952 51:-1 52:0.58999 53:0.821648 
0.65413098170829242 0.19711145051562889 1:-0.583087 2:-0.30303 3:0.39394 4:-0.973092 5:0.609705 6:-0.98496 7:0.56513 8:-1 9:0.0103113 10:-0.21212 11:0.463809 12:0.267012 13:0.712549 14:-0.940812 15:0.169144 16:0.84427 17:-0.69697 18:1 19:-0.036145 20:0.93939 21:-0.0823807 22:-0.308906 23:-0.87812 24:-0.63743 25:-0.734616 26:0.69935 27:0.35739 28:-0.885343 29:-0.469855 30:-0.263323 31:-0.329339 32:-0.817862 33:-1 34:-0.0817703 35:-0.479042 36:-0.322016 37:0.64559 38:-0.973914 39:0.12713 40:0.187966 41:-0.557328 42:0.17119 43:0.986203 44:-0.988068 45:0.35531 46:-0.80678 47:0.269628 48:0.6295 49:-1 50:-0.453002 51:0.41053 52:0.58677 53:-0.131643 
0 0.55894449971622651 1:-0.0972496 2:0.54098 3:1 4:-0.986826 5:0.453367 6:-0.24028 7:0.67285 8:-1 9:0.531517 10:0.83607 11:-0.606424 12:0.0129706 13:0.893136 14:-0.371386 15:0.965421 16:0.94044 17:-0.63934 18:-0.83607 19:0.29245 20:-0.57377 21:0.080271 22:-0.789303 23:-0.55076 24:-0.47647 25:-0.980666 26:0.17305 27:0.45946 28:-0.733413 29:-0.615636 30:0.824765 31:0.14609 32:0.0756608 33:0.64835 34:-0.829971 35:-0.5398 36:0.117075 37:0.68861 38:-0.999967 39:0.0686808 40:0.11822 41:-0.480067 42:0.17385 43:0.982466 44:-0.739861 45:0.46017 46:-0.48188 47:-1 48:0.82181 49:-1 50:-0.472081 51:-0.23496 52:0.58515 53:0.019914 
1.6582758319714157 0 1:0.591671 2:1 3:0.52542 4:-0.985133 5:0.923362 6:0.79924 7:0.77273 8:0.708387 9:1 10:0.22034 11:0.95027 12:0.0585904 13:0.672769 14:-0.36556 15:0.821265 16:0.99497 17:0.45763 18:1 19:0.069444 20:1 21:-0.278458 22:0.200037 23:-0.9114 24:-0.028504 25:0.156368 26:-0.058275 27:0.20737 28:-0.14979 29:-0.469105 30:0.818821 31:-0.4383 32:-0.628606 33:0.65632 34:0.0321394 35:-0.943152 36:0.871554 37:0.52055 38:-0.906285 39:-0.115016 40:0.704542 41:-0.673974 42:0.20657 43:0.993028 44:-0.973224 45:0.61709 46:-0.38957 47:-0.160919 48:0.49525 49:-0.890929 50:-0.750706 51:0.047619 52:0.53262 53:0.201236 
0.30370466473531765 0 1:0.821472 2:0.97561 3:0.02439 4:-0.96051 5:0.978614 6:0.80324 7:0.8378 8:0.895644 9:1 10:1 11:-0.0844251 12:0.542713 13:0.833401 14:-0.693519 15:0.511313 16:0.82703 17:0.29268 18:-0.29268 19:0.035294 20:0.4878 21:-1 22:0.546143 23:-0.99027 24:0.37986 25:-0.981374 26:0.58621 27:0.38419 28:0.774331 29:0.694337 30:1 31:-0.725157 32:-0.75043 33:0.66757 34:0.0756346 35:0.0123517 36:0.822948 37:0.52813 38:0.421903 39:-0.360815 40:0.900444 41:0.548939 42:0.53216 43:0.777784 44:-0.995109 45:0.74618 46:-0.98849 47:0.0450395 48:0.49502 49:-0.926822 50:-0.863364 51:-0.14203 52:0.20843 53:-0.636603 
1.3554672836357298 1.5693748420863556 1:-0.519374 2:0.51282 3:1 4:-0.0204425 5:-1 6:-0.988 7:0.75532 8:0.727631 9:-0.544009 10:-0.10256 11:-0.169103 12:-0.0374829 13:0.602351 14:-0.995721 15:-0.703493 16:0.98764 17:-0.61538 18:1 19:0.77401 20:-0.41026 21:0.37134 22:0.153662 23:-0.86619 24:-0.60275 25:-0.719658 26:0.13333 27:-0.028986 28:-0.699733 29:0.515935 30:-0.61715 31:0.567116 32:0.00459068 33:0.72826 34:-0.713598 35:-0.99998 36:-0.545127 37:0.68366 38:-0.994014 39:-0.749341 40:0.931965 41:0.257032 42:0.16553 43:0.997176 44:-0.897465 45:0.59712 46:0.11916 47:0.177723 48:0.74449 49:-0.959027 50:-0.391552 51:-0.30564 52:0.69554 53:0.78003 
1.5387381077517677 0 1:0.965533 2:-0.11111 3:-0.11111 4:0.90459 5:0.958028 6:-0.95812 7:0.88719 8:1 9:-0.134017 10:-1 11:0.384976 12:0.728623 13:0.855729 14:0.772658 15:-0.171717 16:0.82714 17:-0.69231 18:-0.042735 19:0.54839 20:-0.11111 21:0.213119 22:0.574098 23:0.51028 24:-0.49194 25:-0.189357 26:0.39456 27:0.68707 28:0.837166 29:0.852959 30:-0.900383 31:-0.128503 32:-0.902668 33:0.79101 34:0.943449 35:0.679941 36:-0.967438 37:0.78422 38:-0.624889 39:0.304812 40:-0.154075 41:-0.714666 42:0.18373 43:0.932557 44:-0.903672 45:0.79667 46:0.79769 47:-0.474877 48:0.89874 49:-0.872936 50:0.0104253 51:-0.13846 52:0.62472 53:-0.955716 
0 2 1:0.283308 2:-1 3:1 4:-0.64171 5:0.762451 6:-0.99674 7:-1 8:-1 9:-0.664391 10:0.81538 11:-0.43347 12:0.226451 13:0.790767 14:-0.350667 15:0.837758 16:0.9748 17:0.87692 18:0.87692 19:0.41969 20:0.81538 21:0.152613 22:0.527388 23:-0.648 24:-0.46907 25:-0.887577 26:0.30669 27:0.90476 28:-0.0671112 29:0.593276 30:1 31:0.00101631 32:0.199628 33:0.77974 34:-0.517244 35:-1 36:0.0658616 37:0.63852 38:-0.978294 39:-0.0556032 40:-0.0434454 41:-0.53464 42:0.24398 43:0.90127 44:-0.862353 45:0.63196 46:-0.16782 47:-0.792162 48:0.79193 49:-0.942825 50:-1 51:-0.43305 52:0.69028 53:0.29104 
0 0.20649191463385091 1:0.527727 2:-1 3:0.7284 4:0.826831 5:0.912654 6:-1 7:-1 8:0.94572 9:-0.537222 10:0.30864 11:-1 12:0.864255 13:0.767038 14:-0.927788 15:0.323002 16:0.72829 17:1 18:-0.7284 19:0.86603 20:-0.77778 21:0.204809 22:0.707677 23:-0.1335 24:-1 25:-1 26:0.44464 27:1 28:-0.0337227 29:0.246462 30:1 31:1 32:-0.793492 33:0.7512 34:0.990754 35:-1 36:-0.785883 37:0.76354 38:0.604723 39:0.210137 40:-0.126708 41:0.416167 42:0.3327 43:0.803349 44:0.89395 45:0.62342 46:-1 47:-0.101949 48:-1 49:-0.846678 50:-0.828236 51:-0.84677 52:-1 53:0.330145 
0 0.11172217182367418 1:0.191705 2:-0.83051 3:1 4:0.143762 5:0.873414 6:-0.76193 7:0.88739 8:-1 9:-0.2109 10:1 11:-0.852378 12:-0.183414 13:0.758237 14:-0.992283 15:-0.0366729 16:0.95768 17:-0.9661 18:-0.22034 19:0.87129 20:0.35593 21:-0.995085 22:0.266215 23:-0.91111 24:0.025681 25:-0.987691 26:0.32211 27:-0.33333 28:-0.369422 29:-0.318433 30:-0.594392 31:0.423107 32:0.536524 33:0.60093 34:-0.519175 35:-1 36:-0.197075 37:0.52818 38:0.244643 39:-0.71168 40:-0.252236 41:-0.969688 42:0.3299 43:0.901564 44:0.722255 45:0.69763 46:-1 47:-0.0604716 48:-1 49:-0.55263 50:-0.299589 51:-0.33793 52:0.59306 53:0.529151 
0.85098068703498919 0.31980599284233707 1:-0.0295692 2:-0.2987 3:0.74026 4:0.746077 5:0.90764 6:-0.98555 7:0.68275 8:0.841885 9:-0.696612 10:1 11:-0.540128 12:-0.185232 13:-1 14:-0.300338 15:-0.53389 16:0.93006 17:-0.97403 18:-0.58442 19:0.9061 20:-0.48052 21:0.00126869 22:0.260191 23:-0.32398 24:-0.47733 25:-0.539232 26:0.37434 27:-1 28:0.649255 29:0.733037 30:0.944467 31:0.508982 32:-0.59757 33:0.57239 34:0.686023 35:-0.722156 36:0.521005 37:0.68378 38:-0.626134 39:-0.233887 40:-0.596176 41:0.00624107 42:0.40828 43:0.960623 44:0.359761 45:0.57508 46:-0.36971 47:-0.0996961 48:0.88283 49:-0.534473 50:-0.196972 51:-0.6136 52:0.84201 53:-0.593946 
1.0851558366481457 0 1:0.69235 2:1 3:0.32258 4:-0.856614 5:-1 6:-0.61669 7:0.659 8:-1 9:0.67077 10:0.096774 11:-0.941289 12:0.623281 13:-1 14:-0.855193 15:0.659824 16:0.96435 17:-0.96774 18:-0.74194 19:0.80645 20:-0.90323 21:-0.549585 22:-0.800213 23:-0.8732 24:-0.51795 25:-1 26:0.27087 27:-1 28:0.153263 29:0.337493 30:1 31:-0.777363 32:-0.900568 33:0.72381 34:0.342582 35:-1 36:0.989425 37:0.78989 38:-1 39:0.375478 40:0.0151122 41:-0.989028 42:0.12991 43:0.862937 44:-0.941536 45:0.67378 46:-0.84469 47:-0.040842 48:0.71429 49:-0.181096 50:-0.579935 51:-0.53569 52:0.62222 53:-0.800716 
0.57709389701914793 0 1:0.998594 2:-0.58416 3:0.56436 4:-0.334332 5:-1 6:-0.91541 7:0.97368 8:-0.836871 9:1 10:1 11:-0.134757 12:0.28135 13:0.725015 14:0.285881 15:0.540597 16:0.92784 17:-0.9802 18:-0.58416 19:0.58252 20:-0.76238 21:0.380845 22:-1 23:-0.97347 24:-0.6172 25:-0.992705 26:0.48814 27:-1 28:0.892178 29:0.872779 30:1 31:-0.112578 32:-0.755168 33:0.80487 34:0.891694 35:-0.753616 36:0.536626 37:0.74074 38:-1 39:0.528052 40:0.425753 41:-0.336099 42:0.51262 43:0.779844 44:-0.937418 45:0.84592 46:-0.57003 47:-0.29598 48:0.98862 49:-0.997436 50:-0.528463 51:-0.32245 52:0.93089 53:-0.250266 
0.24587038284332505 0 1:0.902805 2:0.34884 3:0.069767 4:-0.136959 5:0.988691 6:0.0030365 7:0.82387 8:0.727741 9:0.335415 10:-0.11628 11:-0.770376 12:0.547386 13:0.980786 14:-0.819726 15:0.386887 16:0.93419 17:-0.18605 18:0.13953 19:-0.45729 20:-0.97674 21:0.325122 22:0.252975 23:-0.5798 24:-0.3331 25:-0.998244 26:0.32358 27:0.78182 28:0.57385 29:0.488555 30:0.0801884 31:0.715234 32:-0.582712 33:0.71454 34:0.703377 35:0.553947 36:0.955533 37:0.60717 38:-1 39:-0.747927 40:-0.631022 41:0.312952 42:0.21848 43:0.988983 44:-0.11298 45:0.70335 46:-0.98864 47:0.402274 48:0.44444 49:-0.572356 50:0.167261 51:0.49517 52:0.77326 53:-0.254941 
0.074414720777758611 0 1:0.826251 2:-0.69892 3:0.93548 4:0.688604 5:0.740254 6:-0.8515 7:0.96732 8:0.225194 9:0.341539 10:-0.95699 11:-0.871351 12:0.382296 13:0.96809 14:0.603028 15:0.228937 16:0.91134 17:-0.91398 18:0.65591 19:-0.019231 20:-0.89247 21:0.0878081 22:-0.483516 23:0.089483 24:-1 25:-0.999887 26:0.22059 27:-1 28:-0.252251 29:0.99948 30:1 31:0.51605 32:-0.943007 33:0.91289 34:0.619383 35:-1 36:0.421415 37:0.85877 38:-1 39:-0.680458 40:-0.273802 41:-1 42:0.34224 43:0.401075 44:-1 45:0.62881 46:-1 47:-0.396751 48:-1 49:-0.996968 50:0.421316 51:-0.71316 52:0.78723 53:-0.990095 
0.2435921397577436 0 1:0.678977 2:-1 3:-0.89655 4:0.830367 5:0.98722 6:-0.96189 7:0.68528 8:-0.994526 9:-0.93565 10:-0.10345 11:-0.936411 12:1 13:0.941126 14:0.98843 15:-1 16:0.89222 17:-0.91379 18:-0.98276 19:0.86111 20:-0.98276 21:-0.789096 22:0.782963 23:0.95073 24:-0.56313 25:-1 26:0.4558 27:-1 28:0.785002 29:0.97296 30:1 31:0.88991 32:-0.940968 33:0.78335 34:0.51192 35:-0.858072 36:-0.514438 37:0.76846 38:-0.993282 39:0.526381 40:-0.815458 41:-0.026634 42:0.47541 43:0.986129 44:-0.939226 45:0.59157 46:-0.94347 47:-0.431169 48:0.28889 49:-0.857717 50:0.368683 51:-0.68179 52:0.73849 53:0.344241 
0.067810056307635536 0 1:0.718765 2:1 3:-0.061224 4:-0.526675 5:0.875376 6:0.34882 7:1 8:0.892401 9:1 10:-0.89796 11:-0.254124 12:0.610051 13:0.978924 14:0.146776 15:1 16:0.99619 17:-0.73469 18:1 19:-1 20:-0.4898 21:0.334607 22:-0.448438 23:-0.68148 24:-0.54158 25:-0.930807 26:-1 27:0.30553 28:-0.303618 29:-0.99131 30:1 31:-0.261826 32:-0.631598 33:-1 34:0.171609 35:-0.999848 36:0.254918 37:0.79516 38:-0.972319 39:-0.905393 40:0.568336 41:-0.910819 42:-1 43:0.996617 44:-0.998976 45:0.63319 46:-1 47:-0.343108 48:-1 49:-0.996523 50:-0.989748 51:-0.89724 52:0.73415 53:-0.250266 
0.82632057099733791 0 1:0.868479 2:1 3:1 4:-1 5:0.521439 6:-0.85862 7:0.99301 8:0.947442 9:0.968841 10:-0.98473 11:-0.00404265 12:-0.417753 13:0.63386 14:-0.788745 15:0.146703 16:0.99975 17:-0.98473 18:1 19:0.58621 20:0.48092 21:-0.998814 22:-0.870665 23:0.54191 24:-0.61509 25:-0.536838 26:0.62839 27:0.52023 28:-0.949511 29:-0.258023 30:1 31:-0.99793 32:-0.413381 33:0.93869 34:0.59951 35:0.175821 36:0.773868 37:0.79768 38:-1 39:0.361118 40:-0.611165 41:-0.296122 42:0.64271 43:0.998 44:0.740323 45:0.74628 46:-0.35314 47:-0.542858 48:0.96156 49:-0.848855 50:-1 51:-0.81196 52:0.75237 53:-0.920111 
0.54753061931216973 1.2301709844144135 1:0.518129 2:1 3:1 4:0.0257229 5:0.971819 6:0.58667 7:-1 8:0.980336 9:1 10:-0.50617 11:0.253189 12:-0.198205 13:0.972596 14:-0.999273 15:1 16:0.98125 17:-0.28395 18:-0.33333 19:-0.5157 20:1 21:-0.735875 22:0.0882821 23:-0.41524 24:-0.20923 25:-0.715324 26:0.42112 27:0.12334 28:-0.937649 29:-0.627016 30:-0.742016 31:-0.85528 32:-0.516098 33:0.7406 34:0.400292 35:-0.797101 36:0.714867 37:0.61832 38:0.485108 39:-0.785577 40:0.683962 41:0.217422 42:0.1156 43:0.995264 44:-0.556164 45:0.5807 46:-0.59376 47:-0.595623 48:0.80085 49:0.627506 50:-0.8769 51:-0.60606 52:0.534 53:0.486731 
0.77671520073549993 0 1:0.522828 2:0.88235 3:1 4:-0.930396 5:0.849276 6:0.34467 7:-1 8:0.788636 9:1 10:-0.64706 11:0.69497 12:-0.387648 13:0.721801 14:-0.587917 15:0.875933 16:0.93968 17:-0.098039 18:0.88235 19:-0.30769 20:0.88235 21:-0.10033 22:-0.293784 23:-0.059704 24:-0.19841 25:0.0605741 26:0.28308 27:0.0018018 28:-0.486623 29:-0.698197 30:0.496956 31:-0.282946 32:-0.93407 33:0.90769 34:0.082071 35:-0.688654 36:0.0786357 37:0.62537 38:-0.988694 39:0.175931 40:-0.308386 41:-0.495295 42:-0.013169 43:0.993131 44:0.533164 45:0.43507 46:0.26908 47:0.245928 48:0.66037 49:-0.594236 50:-0.895578 51:0.3101 52:0.65894 53:-0.456902 
0.9806003943716266 0 1:0.342272 2:1 3:0.75 4:-0.689826 5:0.858473 6:0.65556 7:-1 8:0.691975 9:1 10:-0.15625 11:-0.404324 12:-0.716626 13:0.938693 14:-0.854964 15:1 16:0.99866 17:-0.625 18:1 19:-0.1694 20:1 21:-0.831959 22:-0.107959 23:-0.79125 24:-0.33333 25:-0.993385 26:0.10317 27:0.61319 28:0.680027 29:-0.750378 30:1 31:-0.23257 32:-0.240144 33:0.7316 34:-0.0460505 35:-0.626972 36:0.596815 37:0.67273 38:-0.999978 39:-0.202799 40:-0.747791 41:-0.364207 42:0.17212 43:0.986026 44:-0.998313 45:0.44984 46:-0.97518 47:-0.0752371 48:0.88889 49:-0.685946 50:-0.723054 51:0.079365 52:0.65601 53:-0.729929 
1.1151744403136028 0 1:0.889683 2:0.50943 3:0.62264 4:0.265058 5:0.993735 6:-0.56353 7:0.74365 8:0.981747 9:0.499316 10:1 11:0.169998 12:0.32754 13:0.967649 14:0.913799 15:0.52247 16:0.93932 17:1 18:1 19:0.11594 20:0.35849 21:0.00446676 22:-0.243847 23:-0.5864 24:0.0038341 25:-0.375534 26:0.5181 27:0.36154 28:0.253796 29:-0.104321 30:0.717633 31:-0.557162 32:0.388059 33:0.61616 34:-0.0255333 35:0.60393 36:-0.595667 37:0.55104 38:-0.973881 39:0.405028 40:0.383396 41:-0.275219 42:0.28889 43:0.877367 44:0.552297 45:0.40224 46:0.47403 47:0.695539 48:0.7244 49:-0.839783 50:-0.495035 51:-0.040028 52:0.37604 53:-0.656794 
0.43319391199621526 0 1:0.261552 2:1 3:1 4:-0.82651 5:0.768375 6:0.85273 7:-1 8:0.518599 9:1 10:-0.4375 11:0.683131 12:-0.17418 13:0.941897 14:0.0152669 15:1 16:0.99111 17:-0.875 18:1 19:0.016216 20:-0.34375 21:-0.813821 22:-0.597454 23:-0.84212 24:-0.14701 25:-0.201722 26:-0.0095238 27:0.66999 28:0.0613718 29:-0.767648 30:0.699354 31:-0.898787 32:-0.416202 33:0.76202 34:-0.660603 35:-0.965594 36:0.698833 37:0.875 38:-1 39:-0.0243412 40:0.38348 41:-0.249704 42:0.24638 43:0.975391 44:-0.11987 45:0.5576 46:-0.77192 47:0.0035123 48:0.65907 49:0.428668 50:-0.965759 51:-0.23351 52:0.56445 53:0.825499 
0.54472259276071511 0 1:0.428725 2:1 3:1 4:-0.942157 5:0.742526 6:-0.51392 7:-1 8:0.73952 9:1 10:-0.63636 11:-0.419472 12:-0.342331 13:0.906753 14:-0.907671 15:0.808262 16:0.99236 17:0.56364 18:1 19:-0.46835 20:1 21:0.0925728 22:0.28435 23:0.3886 24:0.2 25:-0.680168 26:0.25899 27:0.13531 28:-0.124581 29:0.124871 30:1 31:-0.822637 32:0.26313 33:0.67809 34:-0.600547 35:-0.0129803 36:-0.285083 37:0.67682 38:-0.975454 39:-0.402504 40:-0.229882 41:-0.883731 43:0.994175 44:-0.953739 45:0.55161 46:-0.04567 47:0.199093 48:0.75723 49:-0.978331 50:-0.358483 51:-0.46052 52:0.4848 53:-0.0746428 
0.61572532799301893 0.18732456469089351 1:0.0644375 2:0.65 3:-0.95 4:-0.999609 5:0.981126 6:0.71538 7:0.84476 8:-1 9:0.106961 10:0.35 11:0.247829 12:-0.55321 13:0.965206 14:0.031448 15:1 16:0.95826 17:-1 18:1 19:0.65657 20:1 21:0.42379 22:-0.95277 23:-0.89055 24:-0.65102 25:-0.915368 26:0.33824 27:0.87102 28:-0.325698 29:-0.698467 30:-0.817239 31:0.765872 32:-1 33:-1 34:-0.76579 35:-0.989195 36:0.772135 37:0.66179 38:-0.86626 39:0.699889 40:-1 41:0.505154 42:0.47414 43:0.982275 44:-1 45:0.75732 46:-0.99888 47:-0.227895 48:-1 49:-0.829692 50:-0.648058 51:-0.46154 52:0.59539 53:-0.927195 
0.69181199693360917 1.3456254547783941 1:-0.996285 2:1 3:1 4:-1 5:-1 6:-0.0062847 7:-1 8:-0.920162 9:0.202643 10:-0.71875 11:-0.305025 12:-0.0820777 13:-1 14:0.0763949 15:-0.252274 16:0.99574 17:-0.84375 18:1 19:-1 20:0.71875 21:0.118909 22:-1 23:0.67583 24:-0.25616 25:-0.991487 26:1 27:0.52381 28:0.294391 29:-0.200372 30:1 31:-0.278053 32:-0.65764 33:-1 34:0.222409 35:-1 36:0.0447128 37:-0.33333 38:-1 39:-0.928728 40:-0.0412835 41:-0.923178 42:-0.1 43:0.953518 44:-0.906534 45:0.72886 46:-1 47:-0.307072 48:-1 49:-0.883882 50:0.40778 51:-0.56364 52:0.62929 53:-0.889284 
1.02443050789051 0.48434836961528555 1:-0.759296 2:-0.21311 3:0.081967 4:-0.849271 5:0.414888 6:0.64788 7:1 8:0.850791 9:0.966534 10:-0.40984 11:0.248774 12:0.13743 13:0.998208 14:0.172127 15:0.861696 16:0.76725 17:-0.77049 18:1 19:-0.34857 20:-0.27869 21:-0.454089 22:-0.350498 23:-0.64203 24:-0.25004 25:-0.755324 26:0.37781 27:0.52274 28:0.457719 29:-0.887219 30:0.263997 31:-0.201119 32:-0.944997 33:0.58556 34:-0.768249 35:0.168885 36:-0.232095 37:0.61053 38:-0.999006 39:-0.0992551 40:-0.616389 41:0.586334 42:0.057057 43:0.867615 44:0.775646 45:0.59508 46:-0.98084 47:-0.27188 48:0.6 49:-0.840672 50:-0.951738 51:0.044574 52:0.43817 53:0.341461 
0.86880637221293178 0.0069953398437105976 1:-0.678445 2:1 3:1 4:-0.986396 5:0.924073 6:0.88979 7:-1 8:0.982207 9:1 10:-0.93333 11:-0.670164 12:0.452244 13:0.963775 14:-0.582018 15:1 16:0.91681 17:-0.62222 18:1 19:-0.19192 20:1 21:-0.768474 22:-0.858138 23:-0.078445 24:-0.42857 25:-0.995906 26:0.36925 27:0.60364 28:-0.927361 29:-1 30:-0.710343 31:0.0837683 32:-0.76104 33:0.88333 34:-0.82736 35:1 36:-0.0103753 37:0.66 38:-0.138552 39:0.535098 40:0.907178 41:1 42:-1 43:0.992675 44:0.156449 45:-1 46:-0.88375 47:-0.314697 48:0.93333 49:-0.991267 50:-1 51:-0.28354 52:1 53:-0.979202 
0.51777905458951856 0.21951723173778753 1:0.537075 2:1 3:0.42529 4:-0.999179 5:-0.993275 6:0.67577 7:1 8:0.717144 9:1 10:-0.86207 11:0.129914 12:0.863166 13:0.755273 14:-0.982822 15:1 16:0.91528 17:-0.93103 18:0.88506 19:-0.88462 20:1 21:0.401183 22:-0.222619 23:-0.91307 24:-0.38718 25:-0.957748 26:-0.07957 27:0.6835 28:0.660239 29:0.324773 30:0.410231 31:0.0579998 32:-0.756901 33:0.65269 34:0.179767 35:-0.667867 36:0.746301 37:0.70654 38:-1 39:-0.339881 40:-0.39484 41:-0.784099 42:-0.030303 43:0.999794 44:-0.944459 45:0.57817 46:-0.98591 47:-0.784722 48:0.85714 49:-1 50:1 51:0.073084 52:0.61021 53:-0.9802 
1.1848990957510381 0 1:-0.936137 2:1 3:-0.090909 4:-0.973713 5:0.448504 6:0.88256 7:0.50635 8:0.598317 9:1 10:-0.2 11:0.646153 12:-0.194137 13:0.355541 14:-0.531222 15:1 16:0.80305 17:-0.34545 18:1 19:-0.44361 20:1 21:-0.127097 22:-0.317831 23:-0.78087 24:0.54522 25:-0.707137 26:0.023682 27:0.53611 28:0.696372 29:-0.403374 30:1 31:0.0500209 32:-0.317905 33:0.43099 34:-0.553739 35:-0.567179 36:0.941221 37:0.4369 38:-0.572739 39:0.124729 40:-0.321728 41:-0.72374 42:0.12204 43:0.971831 44:-0.968654 45:0.61518 46:-0.7619 47:1 48:0.43226 49:-0.124213 50:-0.53956 51:0.65322 52:0.39033 53:0.362516 
0.34704568579698003 1.1298222331362677 1:-0.176023 2:1 3:1 4:-0.751597 5:0.985209 6:-0.49386 7:-1 8:0.818267 9:1 10:1 11:0.49895 12:0.313161 13:0.975599 14:-0.911047 15:1 16:0.90495 17:1 18:0.30233 19:-0.031746 20:0.48837 21:-0.0212646 22:0.192882 23:-0.34473 24:0.39427 25:-0.476328 26:-0.027609 27:0.034205 28:-0.0416206 29:-0.695707 30:1 31:-0.442963 32:-0.504719 33:-1 34:0.971542 35:0.38789 36:-0.75733 37:0.73551 38:-0.913429 39:0.0784747 40:-0.483854 41:0.360819 42:-0.082116 43:0.878618 44:-0.878131 45:0.55113 46:-0.96598 47:0.896919 48:1 49:-0.914436 50:-0.413419 51:0.24866 52:0.41327 53:-0.37896 
0.10945345039395957 1.7553977277623061 1:0.611239 2:0.77273 3:0.84091 4:-0.278582 5:0.948011 6:0.47131 7:0.89611 8:0.965945 9:0.768044 10:0.84091 11:0.649966 12:0.568401 13:0.996165 14:-0.995846 15:0.760333 16:0.96157 17:0.84091 18:0.77273 19:0.28834 20:1 21:-0.0984248 22:0.304896 23:-0.97937 24:-0.73061 25:0.243748 26:0.6784 27:0.64619 28:0.51689 29:-0.675237 30:1 31:0.0576453 32:0.140161 33:0.8708 34:0.72073 35:-0.0492046 36:0.918479 37:0.89995 38:-0.209458 39:0.833403 40:-0.832682 41:0.653021 42:0.68825 43:0.969787 44:-0.366862 45:0.71685 46:-0.70028 47:-0.0748674 48:0.88537 49:-0.935063 50:0.347323 51:-0.38462 52:0.7575 53:0.0612114 
0.33385797623846175 0.90751567086809293 1:0.5158 2:0.20755 3:0.96226 4:-0.0265824 5:-0.0210489 6:-0.66215 7:1 8:-0.135019 9:0.191212 10:1 11:-0.404453 12:-0.0466408 13:0.0961437 14:-0.940594 15:1 16:0.10779 17:-0.056604 18:1 19:-0.51899 20:0.88679 21:-0.567815 22:-0.467855 23:-0.69887 24:0.072246 25:-0.757548 26:0.46156 27:0.052532 28:-0.277935 29:0.97632 30:0.0722246 31:-0.83279 32:-0.365069 33:0.71859 34:0.582655 35:-0.95943 36:-0.979171 37:0.7071 38:-0.319799 39:0.294311 40:-0.30955 41:-0.444478 42:0.066346 43:0.76103 44:0.517928 45:0.37306 46:-0.99216 47:0.28631 48:0.20238 49:-0.611749 50:-0.224825 51:-0.37588 52:0.53756 53:-0.296208 
0.070371175165392305 0 1:0.719608 2:1 3:1 4:0.594115 5:0.299481 6:-0.8951 7:0.59476 8:-0.0579803 9:0.0103113 10:0.090909 11:0.363565 12:0.562454 13:0.890623 14:-0.649691 15:1 16:0.99189 17:-0.30303 18:0.87879 19:-0.033557 20:0.090909 21:0.101855 22:0.549705 23:-0.98606 24:0.044291 25:-0.245774 26:0.51024 27:0.47368 28:-0.693908 29:-0.423884 30:0.611282 31:-0.133992 32:0.111693 33:0.78198 34:-0.521135 35:0.687466 36:0.580016 37:0.74938 38:-0.224948 39:0.855481 40:-0.746563 41:-0.767106 42:0.21422 43:0.897063 44:-0.986632 45:0.56491 46:0.56485 47:0.137798 48:0.74051 49:-0.709698 50:-0.305554 51:-0.16494 52:0.71868 53:-0.806512 
0.39339506289046244 0 1:0.552014 2:0.70732 3:0.21951 4:-0.841437 5:-0.0919975 6:-0.56035 7:1 8:0.276422 9:0.701286 10:1 11:-0.857105 12:-0.0962931 13:0.237243 14:-0.812175 15:0.691355 16:0.1217 17:-0.02439 18:0.70732 19:0.26154 20:0.70732 21:0.371583 22:-0.0879209 23:-0.7168 24:0.69599 25:-0.998031 26:0.59847 27:-0.42475 28:-0.537657 29:0.429024 30:0.687136 31:-0.545839 32:0.176141 33:-0.22901 34:-0.402486 35:-0.932702 36:0.601358 37:-0.27146 38:-0.897601 39:-0.768615 40:0.129638 41:-0.764472 42:-0.44162 43:0.634514 44:-0.899132 45:-0.26859 46:-0.78286 47:0.826673 48:-0.69254 49:-0.632704 50:-0.00913617 51:0.20963 52:-0.26748 53:0.425643 
1.1507757497430484 0 1:0.0324236 2:1 3:1 4:-0.965999 5:0.889527 6:-0.12605 7:0.83333 8:0.875379 9:1 10:0.95122 11:-0.0662907 12:0.289835 13:0.815308 14:-0.107071 15:1 16:0.96501 17:0.26829 18:0.85366 19:0.31783 20:0.85366 21:-0.440257 22:-0.313536 23:-0.71634 24:-0.58258 25:-0.505138 26:0.081633 27:0.15028 28:-0.252181 29:-0.773638 30:0.426404 31:0.382162 32:-0.862096 33:0.65359 34:0.0590493 35:-0.333103 36:-0.801595 37:0.4675 38:-1 39:0.140189 40:0.837696 41:0.0285282 42:0.062861 43:0.906492 44:-0.972199 45:0.45906 46:-0.83264 47:-0.0694026 48:0.71212 49:-0.828896 50:0.227718 51:0.098901 52:0.455 53:-0.393395 
1.160261806761516 0.69590556104848755 1:-0.18042 2:1 3:1 4:-0.89372 5:-0.376649 6:-0.42971 7:0.71429 8:-0.450719 9:1 10:0.90909 11:-0.263922 12:0.787292 13:0.568689 14:-0.606092 15:0.664464 16:0.85755 17:-0.63636 18:1 19:0.21569 20:1 21:-0.121584 22:-0.332292 23:-0.86905 24:0.072474 25:-0.719049 26:0.076613 27:0.36717 28:0.313754 29:-0.469435 30:0.416933 31:-0.10756 32:-0.382516 33:0.59191 34:-0.0824104 35:-0.930641 36:0.900188 37:0.5899 38:-1 39:-0.0398824 40:0.590564 41:-0.759859 42:0.37903 43:0.772401 44:-0.598919 45:0.46001 46:-0.99279 47:-0.27716 48:0.6 49:-0.829949 50:-0.102886 51:-0.34641 52:0.45414 53:0.0363571 
0.34304538089294134 0 1:0.489616 2:1 3:1 4:-0.716724 5:0.716946 6:-0.54476 7:0.64372 8:0.710419 9:1 10:-0.67442 11:0.0218075 12:0.533982 13:0.92041 14:-0.936814 15:0.754755 16:0.9138 17:-0.25581 18:1 19:-0.15723 20:0.72093 21:0.00642046 22:-0.213806 23:-0.1071 24:0.075 25:-0.616343 26:0.03533 27:-0.0040161 28:-0.63817 29:-0.764718 30:0.751402 31:-0.230427 32:-0.0310848 33:0.61465 34:-0.845953 35:-0.506492 36:-0.240686 37:0.50963 38:-1 39:0.00205302 40:-0.406253 41:0.00135946 42:0.20351 43:0.937941 44:-0.615692 45:0.38304 46:0.34556 47:0.423255 48:0.57168 49:-0.872725 50:-0.601569 51:0.34483 52:0.41736 53:-0.469 
0.5452303033852387 1.4354759626596711 1:0.125452 2:1 3:0.90698 4:-0.522197 5:0.596415 6:0.40257 7:0.66619 8:-0.138521 9:1 10:-0.023256 11:0.0260393 12:0.129285 13:0.0752645 14:-0.264902 15:0.901906 16:0.85203 17:0.67442 18:1 19:-0.50345 20:1 21:-0.28011 22:-0.159055 23:-0.67224 24:0.15645 25:-0.932507 26:0.023673 27:0.77649 28:0.136645 29:-0.616146 30:0.552532 31:0.255291 32:-0.661181 33:0.53463 34:0.333245 35:-0.316703 36:0.500428 37:0.52363 38:-0.957124 39:-0.934382 40:0.0995883 41:-0.310206 42:-0.099924 43:0.826414 44:-0.766808 45:0.46884 46:-0.82454 47:0.527619 48:0.72767 49:-0.937065 50:-0.257271 51:0.068335 52:0.55062 53:-0.091086 
1.0400771569170932 0.53115806089622619 1:0.572134 2:-0.23288 3:1 4:0.677554 5:0.477806 6:-0.92328 7:0.91049 8:0.299709 9:0.0213268 10:0.041096 11:-0.300685 12:0.530747 13:-0.112897 14:-0.912033 15:-0.0112088 16:0.93931 17:-0.56164 18:-0.20548 19:0.071895 20:-0.23288 21:0.665064 22:0.619568 23:-0.95344 24:-0.40601 25:-0.771571 26:0.48148 27:-0.01256 28:0.0102249 29:-0.761868 30:-0.0250341 31:0.672313 32:-0.384079 33:0.90148 34:0.462116 35:-0.172835 36:-0.631493 37:0.69636 38:-0.997214 39:0.793464 40:-0.684633 41:-0.679802 42:0.3383 43:-0.310877 44:-0.975835 45:0.59763 46:0.62747 47:-0.313184 48:0.81869 49:-0.956475 50:0.5182 51:-0.30766 52:0.39151 53:-0.394332 
1.3388117257559833 2 1:-0.700814 2:1 3:1 4:0.00598649 5:0.954366 6:-0.42292 7:0.89832 8:0.965185 9:1 10:0.89655 11:-0.269831 12:-0.633655 13:0.990278 14:-0.189243 15:1 16:0.95625 17:1 18:1 19:0.088757 20:1 21:0.717939 22:-0.00478403 23:0.23199 24:0.31868 25:-0.941671 26:0.31217 27:0.77716 28:-0.911612 29:-0.99895 30:0.631389 31:0.578231 32:-0.581198 33:1 34:-0.747563 35:-0.667907 36:-1 37:0.54971 38:-0.113296 39:0.745336 40:-0.0938023 41:0.0991253 42:0.53747 43:0.967624 44:-0.144517 45:0.6875 46:-0.30425 47:0.487424 48:0.81197 49:-0.557582 50:0.561891 51:-0.088949 52:0.25926 53:-0.865963 
0.62948146780307257 1.7949921832713776 1:0.809454 2:-0.47826 3:1 4:0.861543 5:0.806034 6:-0.59094 7:0.89117 8:-0.745985 9:-0.703991 10:-0.72174 11:0.918835 12:0.567138 13:0.84836 14:-0.995285 15:-0.925697 16:0.99691 17:1 18:-0.2 19:-0.98995 20:-0.2 21:0.566933 22:0.550529 23:0.60009 24:-0.031587 25:-0.512759 26:0.64978 27:0.24153 28:-0.359619 29:0.164102 30:-0.282757 31:0.661198 32:-0.450913 33:0.85778 34:-0.409639 35:-0.98622 36:0.154018 37:0.78427 38:0.530955 39:0.136083 40:-0.884039 41:-0.323005 42:0.2 43:0.937853 44:-0.999789 45:0.39811 46:0.15688 47:0.0791353 48:0.96434 49:-0.796878 50:0.390095 51:-0.53171 52:0.78385 53:0.717769 
0.42927858930032997 0.46534462407557525 1:-0.789124 2:1 3:-0.04 4:-0.490941 5:-0.051633 6:0.5863 7:0.77208 8:-1 9:1 10:0.48 11:0.324889 12:0.335285 13:0.806717 14:-0.609249 15:1 16:0.62675 17:-0.2 18:0.96 19:0.36306 20:0.96 21:-0.945837 22:0.188802 23:-0.91478 24:-0.42857 25:-0.704417 26:0.18035 27:0.2805 28:-0.311796 29:0.0787988 30:-0.111723 31:-0.127102 32:-0.572285 33:0.61209 34:-0.24847 35:0.266181 36:-0.228801 37:0.54498 38:-0.999945 39:0.215107 40:-0.0379069 41:-0.45394 42:-0.046706 43:0.886472 44:0.169425 45:0.50036 46:0.42666 47:0.541044 48:0.58252 49:-0.677435 50:-0.246786 51:-0.2381 52:0.4824 53:0.101767 
0.42806871583408185 1.4907379397461449 1:-0.551381 2:-0.074627 3:0.044776 4:0.583286 5:-0.0888551 6:0.76154 7:0.65876 8:-0.0216608 9:1 10:1 11:-0.384224 12:-0.65581 13:0.96046 14:0.959984 15:-0.164725 16:0.32657 17:0.044776 18:0.044776 19:-0.28671 20:-0.10448 21:-0.422088 22:0.154893 23:-0.86652 24:-0.70551 25:-0.839659 26:-0.014706 27:0.45132 28:0.774078 29:0.650607 30:1 31:-0.735916 32:-0.384738 33:0.62452 34:0.735726 35:0.354723 36:-0.892151 37:0.5239 38:-0.980436 39:-0.522308 40:0.364368 41:-0.685967 42:0.20567 43:-0.20869 44:0.815891 45:0.56707 46:0.81951 47:0.30349 48:0.75169 49:-0.803562 50:-0.512689 51:-0.39605 52:0.55249 53:0.224032 
0.9636907695482575 1.4804163387933429 1:0.179276 2:0.51724 3:-0.31034 4:-0.407122 5:-0.303694 6:-0.37233 7:-0.33333 8:-0.0100854 9:0.507287 10:0.96552 11:0.315349 12:0.550951 13:0.845676 14:0.556231 15:0.927268 16:0.50346 17:-0.27586 18:0.51724 19:0.15528 20:0.51724 21:-0.482624 22:-0.470185 23:-0.22782 24:-0.41523 25:-0.704106 26:0.1836 27:-0.0079576 28:0.623763 29:0.683757 30:1 31:0.0406514 32:-0.760503 33:0.59099 34:0.72964 35:-0.975699 36:0.0761399 37:0.74367 38:-0.991392 39:-0.607178 40:0.394253 41:-0.568932 42:0.4 43:0.251936 44:0.226222 45:0.64218 46:-0.14471 47:-0.277899 48:0.75081 49:-0.854791 50:-0.396662 51:-0.18615 52:0.50649 53:0.63717 
1.356396732281012 2 1:-0.636951 2:-0.074627 3:-0.19403 4:0.518 5:0.8542 6:0.41711 7:0.21824 8:0.951785 9:-0.188181 10:1 11:0.0173019 12:-0.324038 13:0.41012 14:0.256666 15:-0.25916 16:-0.081261 17:0.22388 18:-0.19403 19:0.69565 20:-0.19403 21:-0.387624 22:-0.415588 23:0.86124 24:0.22217 25:-0.946784 26:-0.45777 27:0.06637 28:0.692737 29:0.136851 30:1 31:-0.419187 32:-0.919919 33:0.062053 34:-0.128601 35:-0.761822 36:-0.734527 37:0.13561 38:-0.955223 39:-0.109032 40:0.0641516 41:-0.704164 42:-0.11401 43:-0.774475 44:-0.953579 45:0.64171 46:-0.8853 47:0.462318 48:0.60155 49:-0.787829 50:-0.0359745 51:-0.5908 52:-0.16947 53:0.641432 
1.1845440663886007 0 1:0.911951 2:1 3:1 4:-0.806555 5:0.778273 6:-0.81281 7:0.77143 8:0.783092 9:1 10:1 11:-0.355443 12:0.0523198 13:0.93654 14:-0.738032 15:1 16:0.97702 17:0.32558 18:1 19:0.61458 20:-0.39535 21:-0.402449 22:-0.491536 23:-0.87707 24:-0.26043 25:-0.89847 26:-0.015647 27:0.17999 28:0.211273 29:-0.877829 30:-0.193263 31:-0.931232 32:-0.701606 33:0.69474 34:0.384919 35:-0.96206 36:0.894538 37:0.82963 38:-1 39:-0.48918 40:0.846591 41:-0.659798 42:0.34492 43:0.568233 44:-0.973626 45:0.613 46:0.26059 47:-0.560801 48:0.56995 49:-0.937077 50:-0.340101 51:-0.16667 52:0.62918 53:0.372833 
0.59084627346529228 0.38519193954546932 1:0.875757 2:0.039216 3:1 4:-0.0607585 5:-1 6:-0.94631 7:-1 8:0.233901 9:-0.701031 10:1 11:-0.676083 12:-0.831788 13:0.341864 14:-0.490593 15:-0.0545464 16:0.993 17:-0.88235 18:1 19:-0.31754 20:1 21:0.541235 22:-0.815325 23:-0.99551 24:-0.62097 25:-0.981884 26:0.5043 27:0.37929 28:-1 29:-0.120261 30:0.224477 31:-0.222093 32:-0.949734 33:0.7472 34:-0.11646 35:-0.999675 36:0.0980189 37:0.73981 38:-1 39:0.158251 40:-0.552581 41:-0.990325 42:0.81667 43:0.997852 44:0.363879 45:1 46:-0.99867 47:-0.472878 48:-1 49:-0.970183 50:-0.44956 51:-0.42545 52:0.60667 53:-0.482746 
0.81932964631875571 0 1:0.7277 2:1 3:0.90244 4:-0.448566 5:0.660494 6:0.69079 7:-1 8:0.911585 9:1 10:-0.7561 11:-0.935423 12:-0.206997 13:0.959389 14:-0.973392 15:1 16:0.99324 17:-0.78049 18:0.90244 19:-0.066038 20:1 21:-0.92019 22:-0.338744 23:-0.99491 24:0.14286 25:-1 26:0.56135 27:0.65143 28:0.447593 29:-0.637086 30:0.165684 31:-0.564711 32:-0.807301 33:-1 34:-0.0631784 35:-0.995278 36:0.234321 37:0.80669 38:-1 39:0.224564 40:-0.218239 41:-0.874832 42:0.087912 43:0.98935 44:-0.0189854 45:0.5531 46:-0.83319 47:-0.238975 48:0.68473 49:-0.976177 50:-0.94024 51:-0.090909 52:0.53341 53:-0.844588 
0.87778587464914182 0 1:-0.967411 2:0.85185 3:1 4:-0.956903 5:0.715605 6:0.52441 7:0.69544 8:0.165711 9:0.357389 10:-0.33333 11:0.168396 12:0.297415 13:0.60921 14:0.14905 15:1 16:0.88986 18:0.74074 19:-0.23179 20:0.2963 21:-0.226626 22:-0.547894 23:-0.96106 24:0.55622 25:-0.675734 26:-0.023681 27:-0.31108 28:-0.216836 29:0.498795 30:1 31:0.0673275 32:0.264978 33:0.38008 34:-0.702574 35:0.209668 36:0.329006 37:0.31372 38:-0.9624 39:-0.950402 40:-0.374795 41:0.459951 42:-0.57667 43:0.797877 44:0.0251984 45:0.52237 46:0.78491 47:-0.108142 48:0.4106 49:-0.634073 50:-0.636401 51:0.4324 52:0.33091 53:-0.0317414 
0.88564182049690809 0.43709586476484619 1:0.989488 2:1 3:-0.061728 4:-0.075045 5:0.900085 6:-0.96113 7:0.10699 8:-0.674172 9:-0.108818 10:-0.7284 11:-0.178567 12:0.896158 13:0.32264 14:-0.211011 15:1 16:0.95463 17:-0.061728 18:-0.08642 19:-0.040541 20:-0.08642 21:-0.466634 22:-0.587817 23:0.90657 24:-0.35344 25:-0.195858 26:0.060096 27:0.21284 28:0.536143 29:0.885619 30:1 31:0.654883 32:-0.655247 33:0.74398 34:0.704139 35:-0.96005 36:1 37:0.46997 38:-0.989437 39:0.335338 40:-0.759025 41:-0.0207604 42:0.1293 43:-0.439779 44:-0.989073 45:0.31684 46:-0.98451 47:-0.628794 48:0.20309 49:-0.834737 50:0.797775 51:-0.72046 52:0.30109 53:0.00179979 
0 1.3304723417648749 1:0.0192774 2:0.76 3:0.76 4:-0.827192 5:0.938283 6:0.86519 7:0.6956 8:0.215497 9:1 10:-0.24 11:-0.610066 12:-0.177087 13:0.911179 14:-0.553426 15:1 16:0.80939 17:0.6 18:0.76 19:0.52459 20:0.76 21:0.224265 22:0.263437 23:-0.20377 24:-0.037624 25:-0.926869 26:0.58175 27:0.71441 28:0.437285 29:-0.714137 30:1 31:0.105445 32:-0.570246 33:0.6533 34:-0.0960188 35:-0.398258 36:0.628803 37:0.55201 38:-0.981735 39:0.415821 40:-0.191795 41:0.57275 42:0.58638 43:0.713401 44:0.560171 45:0.86463 46:-0.83368 47:0.29315 48:0.79156 49:-0.596823 50:0.367395 51:0.20439 52:0.66977 53:-0.662416 
0.51310846412278088 0 1:-0.172007 2:0.85366 3:1 4:0.0127718 5:0.85434 6:-0.14756 7:0.69415 8:0.621043 9:0.850643 10:-0.56098 11:-0.464045 12:0.183681 13:0.834382 14:-0.514023 15:0.948559 16:0.92964 17:-0.60976 18:0.95122 19:-0.32353 20:0.85366 21:-0.648516 22:0.403813 23:-0.49857 24:0.41143 25:-0.935424 26:0.092473 27:0.31888 28:-0.054111 29:-0.654807 30:0.947856 31:0.334442 32:0.57491 33:0.54994 34:0.0786227 35:-0.631887 36:0.461863 37:0.71264 38:-0.915985 39:0.225529 40:-0.105309 41:-0.429659 42:1 43:0.941147 44:-0.47016 45:0.4708 46:-0.2202 47:0.499266 48:0.62896 49:-0.265923 50:0.149 51:1 52:0.38262 53:0.544441 
-2 0.82849394673841548 1:-0.236222 2:0.76923 3:0.76923 4:-0.979253 5:0.0186381 6:0.8161 7:0.93706 8:0.921883 9:-0.360819 10:1 11:-0.770322 12:0.477542 13:0.720139 14:0.838399 15:0.756642 16:-0.48799 17:-0.25641 18:0.76923 19:0.55556 20:0.76923 21:-0.0122802 22:-0.421582 23:0.11291 24:0.059269 25:-0.900552 26:0.62386 28:0.498516 29:-0.322463 30:1 31:-0.838917 32:-0.891435 33:0.83878 34:0.767578 35:-0.972622 36:0.811002 37:0.68105 38:-0.972942 39:0.598988 40:0.645413 41:-0.799878 42:0.82912 43:0.77396 44:-0.969417 45:0.85805 46:-0.12527 47:0.0979157 48:0.70501 49:-0.959448 50:0.00753129 51:-0.45764 52:0.59056 53:0.130571 
-2 1.7275814601433339 1:-0.735602 2:0.18919 3:0.94595 4:-0.996574 5:0.724512 6:-0.081085 7:0.92333 8:0.702963 9:0.586232 10:1 11:-0.0989069 12:-0.382276 13:0.819453 14:0.0504256 15:1 16:0.92796 17:-0.43243 18:1 19:-0.93909 20:0.94595 21:-0.563934 22:-0.768329 23:-0.97851 24:-0.40421 25:-0.974405 26:0.43556 27:0.27017 28:-0.106941 29:0.340693 30:0.277722 31:-0.693559 32:-0.506941 33:-1 34:-0.26943 35:0.102879 36:-0.690816 37:0.59468 38:-0.999574 39:0.133727 40:0.00102797 41:-0.0778189 42:0.53963 43:0.995455 44:-0.99998 45:0.63121 46:-0.98966 47:-0.108546 48:1 49:-0.957938 50:-0.678423 51:-0.49231 52:0.63665 53:-0.540065 
-2 1.171523784388097 1:0.441716 2:0.66667 3:1 4:-0.969435 5:0.990123 6:0.62003 7:-1 8:0.806219 9:0.041239 10:-0.90909 11:0.732345 12:-0.159677 13:0.833161 14:0.437242 15:1 16:0.96474 17:0.090909 18:1 19:0.2549 20:1 21:-0.238128 22:0.239339 23:-0.50453 24:1 25:-0.697944 26:0.36025 27:-0.021154 28:-0.306506 29:-0.773348 30:0.0282142 31:0.494552 32:0.364276 33:0.31429 34:-0.680059 35:0.314682 36:-0.760382 37:0.5036 38:-0.752773 39:0.602522 40:-0.561225 41:0.400847 42:0.45565 43:0.994337 44:-0.991282 45:0.32002 46:0.31331 47:0.682772 48:0.72711 49:-0.860574 50:-0.917191 51:0.072282 52:0.61851 53:-0.542392 
-2 2 1:-0.0634837 2:0.41379 3:0.10345 4:0.719489 5:0.441628 6:-0.58877 7:0.73881 8:0.880723 9:-0.16139 10:1 11:0.852496 12:-0.539334 13:-0.292933 14:-0.915378 15:0.527268 16:0.71992 17:-0.41379 18:1 19:0.41333 20:0.44828 21:0.023111 22:0.283892 23:0.78211 24:-0.0061728 25:1 26:-0.33333 27:0.12453 28:0.94616 29:0.947369 30:0.520805 31:0.240245 32:-0.893669 33:0.6321 34:0.437416 35:-0.955307 36:-0.337637 37:0.48493 38:0.108392 39:-0.756106 40:1 41:0.22474 42:-0.030303 43:0.955901 44:-0.998875 45:0.55615 46:-0.85204 47:0.0760031 48:0.51852 49:-0.807683 50:-0.15533 51:-0.0017007 52:0.43758 53:-0.848985 
-2 0.98610664147575844 1:0.432339 2:0.98113 3:-0.26415 4:0.768036 5:0.96037 6:-0.995 7:0.90331 8:0.934532 9:-0.290212 10:-0.32075 11:0.673913 12:0.742869 13:-0.184266 14:0.714487 15:0.0250423 16:0.4088 17:-0.64151 18:1 19:-0.45251 20:0.9434 21:0.452346 22:-0.71303 23:0.79789 24:-0.050879 25:-0.900495 26:0.29032 27:0.49105 28:-0.748415 29:-0.99289 30:-0.916065 31:0.544437 32:-0.883817 33:0.86846 34:-0.648827 35:0.323639 36:0.137007 37:0.67502 38:-0.545593 39:0.766315 40:-0.613231 41:0.585089 42:0.61654 43:0.394206 44:0.660075 45:0.69431 46:1 47:-0.559022 48:0.71337 49:-0.971131 50:0.769563 51:-0.24111 52:0.4122 53:-0.137182 
-2 2 1:0.838389 2:-0.24324 3:0.54054 4:0.898759 5:0.21869 6:-0.98416 7:0.57104 8:-0.338747 9:-0.296458 10:-0.83784 11:-0.388714 12:0.480798 13:0.232887 14:0.732174 15:-0.311054 16:0.63174 17:0.54054 18:-0.2973 19:0.21637 20:-0.24324 21:0.468265 22:0.422396 23:0.87849 24:0.017338 25:-0.95558 26:0.16291 27:0.36761 28:0.409603 29:0.741037 30:-0.386767 31:0.381974 32:-0.837763 33:0.818 34:0.188109 35:-0.933332 36:-0.216846 37:0.76881 38:-0.955551 39:0.0254215 40:-0.31297 41:-0.403143 42:-0.0073659 43:-0.793803 44:-0.802965 45:0.45895 46:-0.79085 47:-0.12092 48:0.61741 49:-0.314564 50:-0.271408 51:0.09146 52:0.5949 53:-0.470133 
-2 0.76215664541022921 1:-0.306791 2:1 3:-0.73913 4:-0.612248 5:0.784878 6:-0.15651 7:0.87063 8:0.952365 9:0.763339 10:-0.33333 11:0.972315 12:-0.837313 13:0.823539 14:-0.554735 15:0.663768 16:0.84987 17:1 18:0.76812 19:-0.74194 20:0.65217 21:-0.401071 22:-0.00164759 23:-0.96629 24:-0.42162 25:-0.0296249 26:-1 27:0.21116 28:-0.172404 29:-0.9926 30:-0.177411 31:-0.142691 32:-0.828997 33:0.64444 34:-0.181809 35:-0.132194 36:0.950698 37:0.90217 38:-0.999192 39:-0.294434 40:0.330928 41:0.119386 42:0.30753 43:0.982275 44:-0.102194 45:0.49792 46:0.028309 47:-0.135628 48:0.875 49:-0.840134 50:0.316957 51:-0.3033 52:0.57198 53:-0.678931 
-2 0.9032611914405525 1:0.923286 2:-0.34426 3:-0.85246 4:0.884794 5:0.144184 6:-0.78551 7:0.47431 8:0.292844 9:-0.388712 10:-0.85246 11:-0.0407434 12:0.265748 13:0.306189 14:0.833497 15:-0.538604 16:0.71973 17:-0.70492 18:-0.34426 19:-0.91111 20:-0.39344 21:-0.0695996 22:0.15469 23:0.94954 24:0.062719 25:-0.773143 26:0.13103 27:0.22344 28:0.452591 29:0.837138 30:1 31:-0.978199 32:-0.955339 33:0.93951 34:0.198086 35:-0.98429 36:1 37:0.89773 38:-0.999825 39:0.22701 40:-0.459204 41:-0.836701 42:0.17949 43:0.531504 44:-0.947924 45:0.42444 46:-0.9994 47:-0.412672 48:-0.2381 49:-1 50:-0.558892 51:-0.7259 52:0.78745 53:-0.89017 
-2 0.87038467931630337 1:-0.0700357 2:1 3:0.61538 4:-0.97224 5:0.952794 6:0.77393 7:-1 8:0.818167 9:1 10:-0.66667 11:-0.168727 12:-0.282573 13:0.75305 14:-0.999429 15:1 16:0.99012 17:0.94872 18:1 19:-0.043478 20:1 21:-0.895505 22:-0.77242 23:-0.93305 24:-0.596 25:-0.589685 26:0.38194 27:0.27884 28:-0.902092 29:-0.98159 30:-0.863835 31:-0.336878 32:-0.101105 33:1 34:-0.73723 35:-0.473376 36:0.412612 37:0.69004 38:-0.998405 39:-0.0845148 40:0.347921 41:-0.437926 42:0.40266 43:1 44:0.513428 45:0.69292 46:-0.28675 47:-0.461336 48:0.88305 49:-0.462793 50:-0.836778 51:-1 52:0.54965 53:-0.52249 
-2 1.7104783328084883 1:0.686798 2:-0.78049 3:0.073171 4:-0.505818 5:-1 6:-0.80252 7:0.9 8:-0.956538 9:-0.169973 10:-0.46341 11:-0.70033 12:0.552984 13:0.933126 14:-0.536893 15:0.0740555 16:0.92432 17:-1 18:0.02439 19:0.58 20:-0.73171 21:-0.487792 22:-0.0409985 23:-0.99586 24:-0.82418 25:-0.97694 26:0.084945 27:0.2 28:0.727416 29:-0.0618426 30:1 31:-0.375889 32:-0.75485 33:0.79015 34:0.48144 35:-0.997786 36:-0.368326 37:0.7567 38:-1 39:0.234515 40:-0.486015 41:-0.887732 42:0.11528 43:0.876647 44:-0.960639 45:0.62125 46:-0.99372 47:-0.0626899 48:1 49:-0.701234 50:-0.429847 51:-0.21334 52:0.56401 53:-0.845556 
-2 0 1:0.875175 2:-0.36634 3:-0.90099 4:-0.312974 5:0.804963 6:-0.48543 7:0.78551 8:0.614088 9:0.575587 10:-0.70297 11:-0.846287 12:0.570938 13:0.916185 14:-0.992429 15:1 16:0.94852 17:-0.9802 18:-0.60396 19:0.67619 20:-1 21:0.465377 22:-0.787584 23:-0.0044807 24:-0.77208 25:-0.999887 26:0.50466 27:-1 28:0.894237 29:0.472225 30:0.555482 31:0.617545 32:-0.705085 33:0.66293 34:0.584494 35:-0.565371 36:0.752938 37:0.74461 38:-1 39:0.486824 40:-0.510487 41:-0.047425 42:0.74474 43:0.716652 44:-0.540787 45:0.71657 46:-0.99036 47:-0.341294 48:1 49:-0.999824 50:0.588783 51:-0.49816 52:0.79083 53:-0.980386 
-2 2 1:-0.544855 2:1 3:0.11864 4:-0.620543 5:0.842711 6:0.26051 7:-1 8:0.808 9:1 10:0.59322 11:-0.734612 12:-0.0748724 13:0.982899 14:-0.559118 15:0.857014 16:0.97586 17:-0.9322 18:1 19:0.31034 20:1 21:0.200918 22:-0.562894 23:-0.8929 24:-0.14335 25:-0.998853 26:0.1396 27:0.24744 28:-0.0211747 29:-0.181712 30:0.601405 31:-0.675282 32:-0.23592 33:0.75223 34:-0.416497 35:0.250633 36:0.612306 37:0.51726 38:-0.999563 39:0.368758 40:0.832651 41:-0.214013 42:0.066854 43:0.972552 44:-0.624199 45:0.64248 46:-0.87532 47:-0.180005 48:0.51227 49:-0.823136 50:-0.490284 51:-0.043892 52:0.45919 53:0.171644 
-2 1.7887052073821796 1:-0.953335 2:1 3:0.16418 4:-0.993779 5:0.675795 6:0.81275 7:0.8 8:0.476918 9:1 10:0.70149 11:0.569027 12:0.384505 13:0.968671 14:-0.247568 15:0.622251 16:0.97099 17:-0.73134 18:0.52239 19:0.5942 20:-0.64179 21:-0.129448 22:-0.0472531 23:-0.96389 24:0.2 25:-0.871076 26:0.39282 27:0.5022 28:-0.5802 29:-0.709437 30:1 31:-0.00721351 32:-0.938465 33:0.78632 34:0.224787 35:-0.931453 36:0.8738 37:0.48819 38:-1 39:-0.368063 40:0.733042 41:-0.0237579 42:0.56833 43:0.804673 44:0.514573 45:0.75874 46:0.55306 47:0.195139 48:0.79158 49:-0.833449 50:-0.954092 52:0.49861 53:-0.970151 
-2 0 1:0.991918 2:-0.076923 3:1 4:-0.961461 5:-0.236684 6:-0.92347 7:0.85883 8:0.610135 9:0.0354613 10:0.45055 11:-0.494126 12:-0.146674 13:-0.352447 14:-0.96875 15:-0.483314 16:0.9732 17:-0.86813 18:1 19:0.31737 20:1 21:0.52184 22:0.0404164 23:-0.97457 24:-0.44414 25:-0.68385 26:0.28583 27:0.11868 28:0.310837 29:-0.384674 30:-0.151192 31:0.435623 32:-0.421427 33:0.81219 34:0.180346 35:-0.753809 36:0.487758 37:0.37313 38:-0.22214 39:-1 40:-0.472389 41:0.271188 42:-0.0065531 43:0.965918 44:-0.970301 45:0.21317 46:0.83449 47:-0.196874 48:0.63194 49:-0.873884 50:0.643824 51:-0.33892 52:-0.80895 53:-0.741049 
-2 2 1:0.906389 2:-0.49153 3:0.27119 4:0.395681 5:-1 6:-0.10451 7:-1 8:0.429413 9:1 10:1 11:-0.773298 12:-0.114525 13:0.987024 14:0.766811 15:-0.0724199 16:0.93517 17:-0.84746 18:-0.84746 19:0.71806 20:-0.94915 21:0.383378 22:0.0772375 23:-0.85152 24:-0.61951 25:-0.935694 26:-0.41026 27:0.46995 28:0.777632 29:0.946489 30:1 31:-0.638572 32:-0.95557 33:-0.3 34:0.536538 35:-1 36:0.845367 37:0.80284 38:-1 39:-0.933249 40:0.783675 41:-0.847132 42:0.54677 43:0.909831 44:0.655646 45:0.87804 46:-1 47:-0.309383 48:0.8 49:-0.96529 50:-1 51:-1 52:0.66699 53:0.741749 
-2 2 1:-0.18782 2:1 3:1 4:-0.332729 5:0.643891 6:0.038482 7:0.97222 8:0.147167 9:0.857593 10:0.34884 11:0.188838 12:0.540659 13:0.0434445 14:-0.320808 15:0.558567 16:1 17:0.16279 18:1 19:-0.59701 20:0.86047 21:-0.348925 22:0.156023 23:-0.59873 24:0.57102 25:0.312281 26:0.39811 27:-0.075075 28:-0.145186 29:-0.739487 30:0.651967 31:-0.339084 32:-0.159477 33:0.54286 34:-0.0567399 35:-0.472624 36:-0.296111 37:0.48063 38:-0.5089 39:0.398342 40:-0.18589 41:-0.786732 42:0.015726 43:0.89396 44:0.490348 45:0.3977 46:0.65708 47:0.668053 48:0.40817 49:-0.964342 50:-0.0387144 51:-0.18579 52:0.65525 53:-0.0318423 
-2 1.3658556531396175 1:-0.254835 2:-0.7561 3:-0.7561 4:0.644966 5:-1 6:-0.7943 7:1 8:-0.998049 9:0.47724 10:1 11:-0.525206 12:-0.439014 13:0.924495 14:-1 15:1 16:-1 17:-1 18:0.17073 19:0.15183 20:-0.26829 21:-0.701118 22:-0.0400714 23:0.3529 24:-0.94444 25:-0.979872 26:0.27281 27:-1 28:0.672283 29:-0.235482 30:1 31:0.12168 32:0.357683 33:0.98246 34:0.743316 35:0.235969 36:0.806964 37:0.70848 38:-0.999749 39:0.695334 40:-0.0224454 41:-0.925189 42:0.52852 43:0.731332 44:-0.920274 45:0.90909 46:-1 47:-0.0455443 48:-1 49:-0.404658 50:-0.911552 51:-0.31615 52:0.59829 53:-0.417797 
-2 2 1:0.69995 2:1 3:1 4:-0.952105 5:0.153071 6:-0.97066 7:0.79111 8:0.965495 9:-0.431517 10:0.064935 11:-0.893997 12:0.870325 13:0.364022 14:-0.572858 15:-0.287369 16:0.98483 17:0.37662 18:1 19:0.13158 20:1 21:0.871084 22:0.573579 23:-0.6416 24:-0.039238 25:-0.939475 26:0.56253 27:0.21905 28:-0.155696 29:-0.95626 30:-0.388264 31:0.792608 32:-0.209303 33:0.59842 34:0.926339 35:-0.98234 36:-0.843877 37:0.69179 38:-0.982686 39:-0.253576 40:-0.282298 41:-0.0196714 42:-0.04127 43:0.924732 44:-0.908021 45:0.43333 46:-0.89037 47:-0.330514 48:0.86813 49:-0.537634 50:0.708789 51:-0.19341 52:0.32424 53:-0.214229 
-2 2 1:-0.0457494 2:1 3:0.85366 4:-0.000697245 5:0.836687 6:-0.22905 7:0.49269 8:-0.122559 9:1 10:0.80488 11:0.283786 12:-0.232213 13:0.85657 14:0.125906 15:0.485592 16:0.71946 17:0.46341 18:1 19:-0.76056 20:1 21:0.143037 22:-0.949819 23:-0.80488 24:0.73636 25:-0.600521 26:-0.078697 27:-0.45871 28:0.417013 29:-0.581806 30:1 31:0.0138065 32:-0.74728 33:0.34078 34:-0.0390137 35:-0.606916 36:0.522153 37:0.34458 38:-1 39:-0.840482 40:-0.364725 41:-0.266881 42:-0.11111 43:0.654549 44:-0.720316 45:0.30254 46:-0.48635 47:0.111477 48:0.67722 49:-0.897099 50:-0.00364581 51:0.17316 52:0.2096 53:0.0876347 
-2 0.13022464202554904 1:0.182699 2:0.67568 3:1 4:-0.926759 5:0.767074 6:-0.29945 7:-1 8:0.758244 9:0.420729 10:-1 11:-0.398652 12:0.536869 13:0.758066 14:0.436318 15:1 16:0.97197 17:-0.43243 18:1 19:-0.30108 20:0.75676 21:-0.822414 22:-0.435188 23:-0.61612 24:-0.58071 25:-0.966345 26:-0.33333 27:0.21172 28:0.348665 29:-0.876209 30:0.682197 31:0.0103208 32:0.0117453 33:-1 34:-0.0288577 35:-0.999939 36:0.676211 37:0.74524 38:-1 39:0.209677 40:0.26325 41:-0.912207 42:0.61905 43:0.960755 44:-0.831619 45:0.58819 46:-0.99422 47:-0.500768 49:-0.456448 50:-1 51:-0.49374 52:0.58297 53:-0.258225 
-2 2 1:0.690603 2:1 3:1 4:-0.99999 5:-1 6:-0.84013 7:0.68803 8:-1 9:0.13317 10:-0.69863 11:-0.543126 12:-1 13:0.950548 14:-0.95556 15:1 16:0.99592 17:-1 18:0.47945 19:-0.12745 20:0.69863 21:0.132741 22:-0.77641 23:0.44038 24:-0.43259 25:-0.638737 26:0.50272 27:0.75362 28:0.188386 29:-0.562946 30:1 31:0.539387 32:-0.665161 33:1 34:-0.215226 35:-0.994283 36:-0.0104978 37:1 38:-0.999126 39:0.114161 40:0.635123 41:-0.47969 42:0.6302 43:0.962609 44:-0.358526 45:0.87143 46:-0.654 47:-0.11244 48:0.77364 49:1 50:-0.875781 51:-0.29561 52:0.79605 53:0.100288 
-2 0 1:0.35952 2:1 3:1 4:-0.87702 5:0.665047 6:-0.080013 7:0.78647 8:0.549561 9:1 10:1 11:-0.11514 12:-0.0110622 13:0.580954 14:-0.421985 15:1 16:0.72779 17:-0.15 18:1 19:0.36486 20:0.9 21:-0.875766 22:-0.585476 23:-0.65771 24:0.35332 25:-0.724247 26:0.21212 27:-0.10348 28:-0.377923 29:-0.426704 30:1 31:-0.601767 32:-0.92031 33:0.55229 34:-0.105924 35:-0.845378 36:0.596956 37:0.52817 38:-0.820741 39:-0.0636717 40:0.0489492 41:-0.641406 42:-0.064887 43:0.854774 44:-0.991573 45:0.51364 46:-0.84813 47:0.579783 48:0.57778 49:-1 50:-0.857314 51:0.28571 52:0.43565 53:0.307905 
-2 1.944811506226886 1:0.356398 2:1 3:-0.25 4:0.504786 5:0.914415 6:0.10741 7:0.70063 8:0.847869 9:1 10:-0.75 11:0.409964 12:-0.609569 13:0.939694 14:-0.198849 15:1 16:0.97101 17:1 18:1 19:-0.89313 20:0.16667 21:-0.702294 22:0.421805 23:0.17076 24:-0.21469 25:0.511811 26:0.91111 27:-0.043535 28:0.676322 29:0.404164 30:1 31:-0.785613 32:-0.0623894 33:1 34:0.523554 35:-0.513275 36:0.466828 37:-1 38:-0.584689 39:-0.698991 40:-0.279351 41:0.24655 42:0.43497 43:0.888355 44:-0.979682 45:0.60305 46:-0.8203 47:0.179467 48:0.70238 49:-0.622144 50:0.321814 51:-0.0028986 52:0.61971 53:-0.339782 
-2 1.216947622845141 1:0.0172012 2:-0.87234 3:-0.42553 4:-0.819438 5:0.755545 6:-0.9278 7:0.85332 8:-0.919481 9:0.0445295 10:-1 11:-0.81048 12:0.852844 13:0.85694 14:-0.540216 15:0.19226 16:0.81583 17:-1 18:-1 19:0.96078 20:-0.95745 21:0.70731 22:-0.607732 23:0.028991 24:-1 25:-0.997861 26:0.53191 27:-0.33333 28:-0.217421 29:0.768638 30:-0.774021 31:0.830322 32:-0.985239 33:0.92923 34:-0.49413 35:0.544421 36:0.403547 37:0.75946 38:-1 39:-0.766326 40:0.707112 41:0.120677 42:0.3072 43:0.706885 44:1 45:0.63077 46:-0.070948 47:-0.229755 48:0.90133 49:-0.470485 50:0.635514 51:-0.53924 52:0.64329 53:0.897748 
-1.6306809581013852 -0.35706429795332906 1:-0.47551 2:0.31507 3:-0.53425 4:0.448746 5:-0.992194 6:0.22991 7:-1 8:-1 9:0.217065 10:0.89041 11:0.631284 12:0.514077 13:0.813386 14:-0.15256 15:0.133247 16:0.93377 17:-0.9726 18:-0.17808 19:-0.93333 20:0.12329 21:0.623376 22:0.52463 23:0.60203 24:-0.047619 25:-0.191977 26:0.26797 27:0.25541 28:0.629821 29:-0.298663 30:1 31:0.336658 32:-0.0522068 33:-0.33333 34:0.748985 35:-1 36:0.384914 37:0.62106 38:-0.999967 39:-0.174105 40:0.188806 41:-0.444336 42:0.075591 43:0.826326 44:0.26962 45:0.76955 46:-0.99892 47:-0.162155 48:-1 49:-0.786986 50:0.161422 51:-0.48979 52:0.57606 53:-0.542392 
-2 -1.0595607835834451 1:0.0524861 2:1 3:1 4:-0.00681216 5:0.6551 6:0.57889 7:-1 8:-1 9:-0.84209 10:1 11:-0.0620364 12:-0.417445 13:0.821616 14:0.386051 15:1 16:0.94931 17:-0.90244 18:1 19:-0.125 20:1 21:0.274192 22:-0.291881 23:0.66741 24:-0.76711 25:-0.874886 26:0.75034 27:0.59348 28:0.475801 29:0.621346 30:1 31:0.259609 32:-0.669227 33:0.76614 34:0.746384 35:-1 36:0.894447 37:0.81689 38:-0.986542 39:-0.0151363 40:0.401963 41:0.315023 42:0.21547 43:0.970508 44:-0.657865 45:0.75022 46:-0.98766 47:-0.0431296 48:1 49:-0.930228 50:-0.695433 51:-0.51098 52:0.69162 53:-7.31036e-05 
-2 -1.8794994843209549 1:0.964188 2:0.7732 3:-0.25773 4:-0.810642 5:-0.401388 6:0.76155 7:0.83335 8:-0.631301 9:1 10:1 11:0.545478 12:-0.304666 13:0.926778 14:-0.396011 15:0.978255 16:0.98159 17:-0.25773 18:-0.13402 19:-0.44706 20:-0.17526 21:0.649651 22:0.413919 23:-0.96051 24:-0.15424 25:-0.972124 26:0.033794 27:0.82645 28:0.263609 29:0.96891 30:1 31:0.735226 32:-0.922044 33:0.54035 34:-0.450299 35:0.859352 36:-0.478854 37:0.40119 38:-0.994735 39:0.1819 40:0.789381 41:-0.579751 42:0.48143 43:0.95977 44:-0.96778 45:0.66883 46:-0.90952 47:-0.191906 48:0.78745 49:-0.605427 50:0.279422 51:0.038947 52:0.57979 53:-0.0430518 
-2 -0 1:-0.87898 2:0.97101 3:0.97101 4:0.328602 5:0.961871 6:0.34686 7:0.87701 8:0.95951 9:-0.804572 10:1 11:0.7463 12:0.665547 13:0.976661 14:-0.329875 15:0.388669 16:0.9576 17:0.94203 18:-0.24638 19:-0.26829 20:0.71014 21:0.794334 22:0.655888 23:0.25175 24:-0.36008 25:-0.227303 26:0.2381 27:0.59762 28:-0.280428 29:0.648756 30:1 31:0.553084 32:0.663146 33:0.79207 34:0.326062 35:-0.937333 36:0.366231 37:0.74054 38:-0.0117485 39:-0.47363 40:0.240833 41:0.381568 42:0.42857 43:0.883825 44:-0.410532 45:0.80767 46:-0.3541 47:-0.337366 48:0.86246 49:-0.709031 50:0.673894 51:-0.19843 52:0.61611 53:0.117523 
-2 -2 1:-0.887634 2:-0.09434 3:1 4:0.393417 5:0.993125 6:-0.813 7:0.6724 8:0.969748 9:0.884456 10:0.4717 11:0.552021 12:-0.415442 13:0.654306 14:-0.898262 15:0.442883 16:0.71285 17:0.54717 18:1 19:0.92806 20:0.88679 21:0.294864 22:-0.250462 23:-0.058365 24:-0.17509 25:-0.375803 26:0.30876 27:0.23668 28:-0.7722 29:-0.0135501 30:0.435266 31:-0.409358 32:-0.885184 33:0.63449 34:-0.441958 35:-0.871995 36:0.113721 37:0.4597 38:0.799079 39:-0.725423 40:0.0564956 41:0.11607 42:0.15152 43:0.963388 44:0.022805 45:0.63708 46:-0.21472 47:0.225525 48:0.92327 49:-0.497234 50:-0.179635 51:-0.18409 52:0.55253 53:0.777775 
-2 -2 1:0.513903 2:1 3:1 4:-0.663189 5:0.631502 6:0.097658 7:-1 8:-0.999269 9:1 10:-0.04 11:0.152212 12:0.371255 13:-1 14:0.175305 15:1 16:0.96172 17:-0.46667 18:0.89333 19:-0.19626 20:0.30667 21:-0.256003 22:0.34657 23:-0.40187 24:-0.12 25:-0.695678 26:-0.076923 27:0.41251 28:-0.70778 29:0.533095 30:1 31:-0.584348 32:-0.467627 33:0.87439 34:0.573643 35:-0.99933 36:1 37:0.74047 38:-1 39:0.16469 40:-0.0490835 41:-0.85692 42:0.31511 43:0.9757 44:0.635659 45:0.58737 46:-0.71733 47:-0.0324541 48:0.72578 49:-0.978729 50:-0.881588 51:-0.39626 52:0.88403 53:-0.663209 
-2 -2 1:0.809896 2:0.15 3:0.725 4:-0.912985 5:0.842311 6:0.78629 7:0.8 8:0.844537 9:0.234538 10:-0.95 11:0.671453 12:-0.30139 13:0.993201 14:-0.98412 15:1 16:0.99703 17:0.225 18:1 19:-0.28049 20:0.325 21:0.818381 22:-0.166159 23:-0.87096 24:0.34545 25:-0.936062 26:0.7549 27:0.71775 28:-0.378922 29:-0.685567 30:1 31:-0.929078 32:-0.779904 33:-1 34:-0.0456441 35:-0.183935 36:-0.765085 37:0.48825 38:-0.972155 39:0.56504 40:0.164082 41:-0.39012 42:0.46283 43:0.995161 44:-0.57384 45:0.91442 46:-0.79055 47:-0.40262 48:0.71861 49:-0.931774 50:-0.858359 51:-1 52:0.67655 53:0.104966 
-2 -1.8517078420276096 1:0.778713 2:0.83871 3:0.22581 4:-0.0293544 5:0.491436 6:0.78227 7:0.80386 8:0.272059 9:0.80246 10:0.93548 11:0.564741 12:0.0132468 13:0.835474 14:-0.111776 15:0.795893 16:0.64986 17:0.3871 18:0.25806 19:-0.27397 20:0.096774 21:0.270737 22:0.320446 23:-0.032899 24:-0.19348 25:-0.186269 26:0.25104 27:0.5362 28:0.723408 29:0.498675 30:1 31:0.771717 32:-0.45355 33:0.71604 34:0.769397 35:-0.9915 36:0.216373 37:0.63722 38:-0.983647 39:-0.436811 40:0.781777 41:-0.147152 42:0.45024 43:-0.186288 44:-0.865255 45:0.73022 46:-0.83593 47:-0.324506 48:0.64558 49:-0.526431 50:0.706699 51:-0.5663 52:0.68991 53:0.00141883 
-2 -0.67698662733104231 1:-0.263861 2:0.41538 3:0.41538 4:0.772935 5:0.975922 6:0.80512 7:-1 8:-1 9:-0.161931 10:0.076923 11:-0.136862 12:0.505572 13:0.682952 14:0.518551 15:0.318605 16:0.99233 17:1 18:1 19:-0.44304 20:0.41538 21:0.46029 22:0.371187 23:-0.82421 24:-0.23049 25:-0.778313 26:0.2092 27:0.33333 28:0.527168 29:-0.908969 30:0.309289 31:-0.825251 32:0.185063 33:1 34:-0.0603874 35:-0.473711 36:-0.0554262 37:0.51913 38:-0.993347 39:0.132246 40:0.261393 41:0.795764 42:0.14286 43:0.827796 44:-0.909326 45:0.39599 46:-1 47:-0.298869 48:-1 49:-0.970757 50:-0.826251 51:-0.28081 52:0.60549 53:-0.830564 
-2 -2 1:-0.0867158 2:1 3:1 4:-0.0993223 5:0.65545 6:-0.84487 7:-1 8:0.851762 9:0.649163 10:-0.53125 11:-0.309655 12:0.765456 13:-1 14:0.147814 15:-0.318183 16:-1 17:0.96875 18:1 19:-0.74766 20:1 21:0.0967578 22:-0.0211368 23:-0.27757 24:-1 25:-0.935368 26:0.069108 27:1 28:-0.736088 29:0.254413 30:-0.336205 31:0.398233 32:-0.5554 33:0.86364 34:-0.432875 35:-0.557785 36:-0.853828 37:0.59175 38:-0.960937 39:-0.674905 40:0.294026 41:-0.32277 42:0.026995 43:0.773254 44:-0.461222 45:0.63735 46:-0.12121 47:-0.298996 48:0.60713 49:-0.149711 50:-0.111914 51:-0.30242 52:0.6498 53:-0.0569765 
-2 -2 1:0.773572 2:0.65385 3:0.15385 4:-0.711866 5:-1 6:-0.83417 7:0.75824 8:-1 9:-0.844958 10:-0.53846 11:-0.529267 12:0.322168 13:0.623688 14:-0.959807 15:-0.784619 16:0.93952 17:0.11538 18:-0.80769 19:-0.50588 20:-0.92308 21:1 22:0.639076 23:-0.39327 24:-0.1171 25:-0.301369 26:-0.03452 28:0.168588 29:-0.558146 30:-0.192301 31:0.0518747 32:-0.510054 33:1 34:-0.139523 35:-0.703318 36:0.879813 37:0.63974 38:-1 39:-0.355756 40:-0.740847 41:-0.411645 42:0.1346 43:0.874573 44:-0.963682 45:0.46585 46:-0.95787 47:-0.537855 48:0.70098 49:-0.336291 50:-0.627353 51:-0.10717 52:0.75676 53:-0.551813 
-2 -1.8229884607586861 1:-0.0538395 2:-0.37931 3:-0.37931 4:0.677414 5:0.307417 6:1 7:0.59747 8:-0.388874 9:0.0145775 10:1 11:0.306508 12:-0.679228 13:0.946493 14:0.152373 15:0.6 16:0.92649 17:-0.62069 18:0.58621 19:-0.82143 20:0.93103 21:-0.236162 22:0.255967 23:-0.98045 24:0.2 25:-0.531257 26:0.028571 27:0.30248 28:0.399063 29:-0.99887 30:1 31:-0.144113 32:-0.261535 33:0.68103 34:0.693349 35:-0.99608 36:-0.0441558 37:0.33487 38:-0.982751 39:-0.675657 40:0.186309 41:-0.562594 42:-0.14286 43:0.87494 44:-0.0120403 45:0.60132 46:-0.99489 47:-0.0952364 48:0.55952 49:-0.683429 50:-0.421802 51:0.028986 52:0.57081 53:-0.117465 
-2 -1.9450258586240823 1:-0.966136 2:-0.22034 3:-0.66102 4:0.474242 5:0.498181 6:-0.94558 7:0.50588 8:0.290382 9:-0.695264 10:-0.52542 11:0.820299 12:-0.425877 13:0.663498 14:-0.980143 15:1 16:0.47649 17:-0.86441 18:-0.38983 19:0.71779 20:1 21:-0.299657 22:0.140086 23:-0.74167 24:-0.38615 25:-0.483367 26:0.49309 27:0.047712 28:-0.102476 29:0.150572 30:0.0216262 31:-0.0417827 32:-0.402662 33:0.5521 34:0.40907 35:-0.0711803 36:-0.400073 37:0.53346 38:-0.999934 39:-0.350898 40:-0.691105 41:0.415085 42:0.60081 43:0.808424 44:0.00835014 45:0.51429 46:-0.99908 47:-0.075214 48:1 49:-0.648613 50:-0.637256 51:-0.19938 52:0.51739 53:0.490746 
-2 -1.9721137701620073 1:-0.860567 2:0.95745 3:1 4:0.0483092 5:0.573448 6:-0.88195 7:0.46825 8:-1 9:1 10:0.19149 11:-0.445299 12:0.428271 13:0.878678 14:-0.481568 15:0.685882 16:0.96312 17:0.74468 18:0.65957 19:1 20:0.57447 21:-0.0231674 22:0.339812 23:-0.35346 24:0.18717 25:-0.720352 26:0.20047 27:0.46844 28:-0.127569 29:-0.405194 30:1 31:0.404308 32:0.0782004 33:0.86667 34:0.346982 35:-0.656828 36:-0.463505 37:0.61546 38:-0.974417 39:0.227347 40:0.0080811 41:-0.655379 42:-0.15676 43:0.903991 44:-0.405671 45:0.62537 46:-0.22252 47:-0.358127 48:0.51228 49:-0.895097 50:-0.670906 51:0.17668 52:0.42605 53:0.0429993 
-2 -1.4508486995966285 1:-0.732479 2:-0.88462 3:0.53846 4:-0.042588 5:-1 6:-0.84443 7:-1 8:0.899927 9:0.489692 10:1 11:0.0806916 12:0.288417 13:0.974858 14:0.732621 15:-0.460146 16:0.82306 17:0.46154 18:-0.23077 19:-0.047619 20:0.15385 21:-0.496851 22:0.222323 23:0.74335 24:-0.088178 25:-0.296836 26:0.032717 27:0.61212 28:0.505512 29:-0.95247 30:0.50663 31:-0.532936 32:-0.416678 33:0.9 34:0.0661207 35:-0.895118 36:0.256116 37:0.77683 38:-0.760103 39:-0.0408405 40:-0.71457 41:0.166422 42:-0.082437 43:0.814823 44:-0.827029 45:0.3749 46:-0.98236 47:-0.0278096 48:1 49:-0.602524 50:0.0342905 51:-0.16217 52:0.49361 53:0.0926654 
-2 -0.60489496122412312 1:0.989589 2:1 3:0.75238 4:-0.961972 5:-0.791633 6:0.21836 7:0.82494 8:0.0467071 9:1 10:1 11:-0.829195 12:0.062175 13:0.949877 14:-0.96983 15:0.196541 16:0.9859 17:0.75238 18:-0.028571 19:0.64103 20:0.75238 21:1 22:0.470389 23:-0.97887 24:-0.78918 25:-0.968767 26:0.57527 27:0.95877 28:0.805849 29:-0.449264 30:1 31:0.503126 32:-0.877688 33:0.80511 34:0.668233 35:-0.96402 36:-0.854029 37:0.38382 38:-0.959582 39:0.247249 40:0.546529 41:0.570178 42:0.73089 43:-0.392751 44:0.819436 45:0.90524 46:-0.96289 47:0.681039 48:0.87088 49:-0.984746 50:-0.756344 51:-0.74326 52:0.46661 53:0.570841 
-0.68663175978671642 -0 1:-0.998323 2:0.824 3:0.808 4:0.953517 5:0.977803 6:0.45891 7:0.93484 8:0.323076 9:0.820372 10:0.824 11:0.385491 12:0.759293 13:-0.0747929 14:0.98464 15:0.8144 16:-0.077357 17:-1 18:0.824 19:0.30682 20:0.824 21:0.703155 22:0.568817 23:0.962 24:-0.84999 25:-0.527929 26:0.91389 27:0.94833 28:1 29:-0.850679 30:0.811862 31:0.838153 32:1 33:0.94257 34:0.8121 35:-0.992221 36:-0.903754 37:0.83774 38:0.939613 39:0.579759 40:0.108548 41:-0.315728 42:0.74689 43:-0.523352 44:0.867003 45:0.89411 46:-0.99168 47:-0.533511 48:0.92019 49:-0.99136 50:-0.0761418 51:-0.71168 52:0.51274 53:0.918855 
-2 -1.5425546343947671 1:-0.558961 2:-0.61798 3:0.14607 4:0.469453 5:0.97332 6:-0.321 7:-1 8:-0.982978 9:-0.490784 10:-0.86517 11:0.607509 12:-0.966197 13:0.664159 14:0.373443 15:-0.445562 16:0.83251 17:-0.50562 18:-0.30337 19:0.38164 20:-0.25843 21:-0.367915 22:-0.0297116 23:-0.37668 24:-0.22709 25:-0.567631 26:0.10526 27:0.071225 28:-0.170516 29:0.740327 30:-0.441295 31:-0.0777175 32:0.184438 33:0.7978 34:-0.0500739 35:-0.999756 36:0.880307 37:0.65344 38:-1 39:-0.163576 40:0.79385 41:-0.891529 42:-0.046154 43:0.941574 44:-0.995249 45:0.43179 46:-0.95942 47:-0.10151 48:0.67836 49:-0.726603 50:-0.928594 51:-0.20837 52:0.71235 53:0.740915 
-2 -1.1663012946239211 1:0.0280311 2:1 3:1 4:0.0249215 5:-1 6:0.22696 7:0.87742 8:-1 9:1 10:0.90164 11:0.125227 12:0.730359 13:0.961021 14:-0.249947 15:1 16:0.94926 17:0.14754 18:1 19:0.24294 20:1 21:-0.101386 22:0.221774 23:0.51565 24:-0.5381 25:-0.840169 26:0.67395 27:0.44615 28:0.475255 29:0.460205 30:1 31:0.431169 32:0.365765 33:0.68552 34:0.675518 35:-0.534357 36:0.764763 37:0.57778 38:-0.98191 39:0.621728 40:-0.229589 41:-0.331119 42:0.37177 43:0.973346 44:-0.0272774 45:0.49345 46:-0.63362 47:-0.0327892 48:0.88766 49:-0.963534 50:-0.379621 51:-0.29376 52:0.64671 53:0.209956 
-2 -0.78192529645300601 1:-0.373004 2:1 3:0.26829 4:0.908777 5:0.996838 6:-0.41269 7:0.82511 8:0.994076 9:1 10:0.63415 11:-0.618263 12:0.890118 13:0.958268 14:0.958468 15:1 16:0.95437 17:0.92683 18:1 19:0.093525 20:1 21:0.950641 22:0.801943 23:1 24:-0.44242 25:-0.885226 26:0.63353 27:0.49279 28:0.68042 29:-0.351584 30:1 31:0.357601 32:-0.229302 33:0.81608 34:0.113554 35:-0.499038 36:0.948775 37:0.78939 38:0.772906 39:0.259769 40:0.96206 41:0.732843 42:0.73888 43:0.929027 44:-0.421871 45:0.67558 46:-0.61492 47:-0.605063 48:0.78627 49:-0.41592 50:0.655924 51:-0.425 52:0.77956 53:1 
-2 -1.3293073333157406 1:-0.833369 2:0.42857 3:0.34694 4:0.799833 5:0.958279 6:-0.92334 7:0.69082 8:0.859517 9:0.416789 10:1 11:0.264298 12:-0.350558 13:0.453895 14:-0.930779 15:0.397401 16:0.24038 17:1 18:0.10204 19:-0.90977 20:0.42857 21:-0.278904 22:0.046671 23:0.90559 24:0.17391 25:-0.671952 26:-0.14286 27:-0.022827 28:0.696372 29:-0.98902 30:0.389162 31:0.382047 32:-0.404603 33:0.55758 34:-0.385681 35:-0.0199853 36:-0.733389 37:0.49091 38:0.725726 39:0.123765 40:0.593144 41:0.642192 42:-0.017544 43:-0.239624 44:-0.335265 45:0.53502 46:-0.96957 47:0.0769436 48:0.71429 49:-0.632212 50:-0.206137 51:0.072546 52:0.40102 53:-0.566475 
-2 -2 1:-0.736154 2:0.50649 3:0.090909 4:-0.984322 5:0.111859 6:0.56596 7:0.76477 8:0.573749 9:0.549337 10:1 11:-0.286418 12:-0.729619 13:0.973367 14:0.0954682 15:-0.150414 16:0.94791 17:-0.84416 18:-0.090909 19:0.075949 20:0.090909 21:-0.0237028 22:-0.908075 23:-0.99871 24:-0.3748 25:-0.985099 26:0.64942 27:0.42421 28:0.706074 29:-0.527645 30:1 31:-0.244866 32:-0.315964 33:0.7293 34:0.582655 35:-0.987276 36:-0.976029 37:0.75058 38:-0.991512 39:0.625902 40:-0.827385 41:0.705338 42:0.052678 43:-0.179551 44:0.586917 45:0.7441 46:-0.99102 47:-0.0389357 48:0.77516 49:-0.903795 50:0.603807 51:-0.34518 52:0.67333 53:-0.0485716 
-1.0145168736434924 -0.96575196897120807 1:-1 2:0.050847 3:-0.42373 4:0.959528 5:0.985529 6:-0.99342 7:0.85378 8:0.969107 9:0.550235 10:-0.57627 11:0.658282 12:0.86406 13:-0.399166 14:1 15:0.553157 16:0.97634 17:-0.033898 18:0.57627 19:0.30178 20:0.57627 21:0.551358 22:0.905541 23:0.99106 24:0.37759 25:-0.970694 26:-0.4642 27:0.85679 28:-0.218653 29:-0.949979 30:0.547048 31:0.81812 32:-0.669507 33:0.88781 34:-0.711495 35:-0.992759 36:-0.593743 37:0.42353 38:0.930525 39:0.655373 40:0.415148 41:0.763431 42:-0.40952 43:-1 44:-0.993251 45:0.8605 46:-0.99947 47:-0.661132 48:0.74035 49:-0.769075 50:0.86177 51:0.41241 52:0.43123 53:-0.756297 
