svm_type c_svc
kernel_type rbf
gamma 0.5
nr_class 2
total_sv 27
rho 0.17221289658866301
label 1 100
nr_sv 14 13
SV
0.050995802237889111 1:-0.372902 2:0.61338 3:0.975962 4:-0.281828 5:-1 6:-0.478081 
8 1:0.208985 2:0.88947 3:0.979845 4:-0.776226 5:0.691 6:-0.245542 
3.4584718328379322 1:0.0770312 2:0.76923 3:0.991262 4:-0.122234 5:0.58706 6:0.0838055 
2.0532404631778207 1:0.62585 2:1 3:0.90239 4:-1 5:-1 6:0.0261376 
1.0121669962764286 1:-0.964859 2:0.3748 3:0.946564 4:-0.149661 5:0.14545 6:-0.689308 
1.9073616829798239 1:-0.0563967 2:0.45414 3:0.952661 4:-0.514431 5:0.25152 6:-0.940374 
5.4587892750530722 1:0.256314 2:0.79383 3:0.993262 4:-0.822306 5:0.70116 6:-1 
6.2956974121430695 1:0.716713 2:0.5619 3:0.966428 4:-0.763589 5:0.71589 6:0.577245 
1.9379725667282846 1:0.0787098 2:0.56803 3:0.949632 4:-0.884223 5:1 6:-0.118697 
1.0451616767780747 1:0.820622 2:0.51249 3:0.974059 4:-0.422714 5:0.53238 6:0.734429 
1.210792798610284 1:-0.126871 2:-1 3:0.82146 4:-1 5:-1 6:-0.761751 
3.1147257633006982 1:0.0420536 2:0.48026 3:0.808955 4:-0.993378 5:0.61669 6:0.261387 
8 1:0.0578706 2:0.81103 3:0.843867 4:0.555654 5:0.5812 6:-0.279013 
1.0195443101069812 1:-0.235503 2:0.51787 3:0.840566 4:-0.844214 5:0.32632 6:0.316841 
-3.0096600768905062 1:0.617266 2:0.85333 3:0.908526 4:-0.79212 5:0.76794 6:-0.292223 
-0.91172452816424121 1:0.75412 2:0.79744 3:-0.575717 4:-0.726119 5:0.52751 6:0.650232 
-8 1:-0.259566 2:0.77388 3:0.852974 4:-0.38861 5:0.47349 6:-0.319776 
-4.7049376591679168 1:0.324522 2:0.57991 3:0.972544 4:0.790685 5:0.57616 6:0.565017 
-2.1983442759043252 1:0.150057 2:-0.33333 3:0.935186 4:-0.69069 5:0.87446 6:-0.376663 
-0.71736652062120354 1:-0.468896 2:-1 3:0.99699 4:-0.961426 5:0.8 6:0.22459 
-8 1:0.516346 2:0.69357 3:0.873109 4:-0.83544 5:0.4945 6:-0.256799 
-0.26153471778751952 1:0.145117 2:-1 3:0.880565 4:-0.349981 5:0.51496 6:0.354842 
-0.069039788821389808 1:0.0134219 2:0.34281 3:-0.732161 4:-0.58584 5:0.42483 6:-0.0214047 
-8 1:0.691957 2:0.78095 3:0.956719 4:-0.875228 5:0.64558 6:0.00896409 
-2.1870759989400157 1:0.46143 2:0.72939 3:0.84109 4:0.962695 5:0.92857 6:-0.611086 
-3.5167419379397802 1:0.434559 2:0.58547 3:0.708433 4:0.367805 5:0.58689 6:-0.791443 
-2.9884950759934643 1:-1 2:0.73375 3:0.985243 4:-0.592793 5:0.75269 6:0.934445 
