svm_type c_svc
kernel_type rbf
gamma 0.5
nr_class 2
total_sv 48
rho -0.020316603709943593
label 100 10000
nr_sv 24 24
SV
0.03125 1:0.3113 2:-0.247963 3:0.0753046 
0.03125 1:0.3714 2:-0.630029 3:-0.011994 
0.03125 1:0.360533 2:-0.380129 3:0.0286413 
0.03125 1:0.129083 2:-0.451669 3:-0.238626 
0.03125 1:0.0263833 2:-0.886554 3:0.353457 
0.03125 1:0.194183 2:-0.84589 3:-0.145973 
0.03125 1:0.310717 2:-1 3:-0.0525152 
0.03125 1:0.233283 2:-0.614592 3:0.128775 
0.03125 1:0.155117 2:-1 3:0.314896 
0.03125 1:0.21215 2:-1 3:-0.246851 
0.03125 1:0.367283 2:1 3:-0.0337864 
0.03125 1:0.575433 2:-0.983734 3:0.101626 
0.03125 1:0.107417 2:-0.800316 3:0.346601 
0.03125 1:0.354867 2:-0.960785 3:-0.0724263 
0.03125 1:0.05215 2:-0.733154 3:0.260115 
0.03125 1:0.03765 2:-0.511704 3:-0.17257 
0.03125 1:-1 2:-1 3:0.189239 
0.03125 1:0.483817 2:-0.832523 3:-0.0551302 
0.03125 1:-0.15035 2:-0.724696 3:-1 
0.03125 1:0.463683 2:-0.200704 3:0.260794 
0.03125 1:0.383783 2:-0.4884 3:0.136724 
0.03125 1:0.218267 2:-0.808656 3:-0.146268 
0.03125 1:0.257433 2:-0.497568 3:0.123655 
0.03125 1:0.44445 2:-1 3:0.0250486 
-0.03125 1:1 2:-1 3:-0.0303841 
-0.03125 1:0.655867 2:-1 3:0.0733374 
-0.03125 1:0.567167 2:-0.999556 3:0.358738 
-0.03125 1:0.294667 2:-0.748917 3:0.35562 
-0.03125 1:0.4595 2:-0.586881 3:0.622396 
-0.03125 1:0.48945 2:-0.946944 3:0.162585 
-0.03125 1:0.4583 2:-1 3:0.272056 
-0.03125 1:0.174033 2:-0.966019 3:-0.0869063 
-0.03125 1:0.584283 2:-0.962589 3:0.492195 
-0.03125 1:0.27145 2:-0.785943 3:0.555731 
-0.03125 1:0.4081 2:-0.775415 3:0.225143 
-0.03125 1:0.722217 2:-0.780177 3:0.0881199 
-0.03125 1:0.769317 2:-0.896787 3:0.137023 
-0.03125 1:0.774933 2:-0.946708 3:0.760569 
-0.03125 1:0.683333 2:-1 3:0.082483 
-0.03125 1:0.359033 2:0.73762 3:-0.00106066 
-0.03125 1:0.466667 2:-0.35505 3:0.00850254 
-0.03125 1:0.31495 2:-0.925 3:0.0998079 
-0.03125 1:0.65435 2:-0.999497 3:0.267374 
-0.03125 1:0.59995 2:-0.990595 3:0.716797 
-0.03125 1:0.779383 2:-0.967794 3:1 
-0.03125 1:0.414267 2:-1 3:-0.186122 
-0.03125 1:0.86975 2:-0.967025 3:0.665478 
-0.03125 1:0.516167 2:-0.95765 3:0.0822989 
