svm_type c_svc
kernel_type rbf
gamma 2
nr_class 2
total_sv 45
rho 0.20653965348491371
label 10 100
nr_sv 22 23
SV
0.41506489106739919 1:0.63355 2:-0.0908026 3:0.206944 4:0.78378 5:-0.233502 6:-0.21429 
0.5 1:0.871403 2:0.54546 3:0.765713 4:0.87811 5:-0.0120279 6:0.12121 
0.5 1:-0.814049 2:0.179322 3:-0.0232167 4:0.78132 5:-1 6:0.62103 
0.5 1:-0.742262 2:-0.269686 3:0.350469 4:0.63539 5:-0.903669 6:0.44202 
0.38389366811731479 1:-0.753828 2:0.18705 3:0.431692 4:0.48604 5:-1 6:0.49333 
0.5 1:-0.768066 2:-0.0333411 3:0.526396 4:0.79027 5:-0.986249 6:0.21795 
0.5 1:1 2:0.0136409 3:-0.0598576 4:0.61505 5:0.000682177 6:0.27784 
0.5 1:0.343926 2:-0.508167 3:0.684306 4:0.83423 5:-0.00405716 6:0.46592 
0.5 1:0.505561 2:-0.110064 3:-0.0736491 4:0.83333 5:-0.419916 6:0.33333 
0.5 1:0.776852 2:0.0447573 3:0.791671 4:0.75791 5:-0.813281 6:0.45652 
0.5 1:0.567171 2:-0.922955 3:0.37151 4:0.85605 5:-0.506337 6:0.70244 
0.5 1:-0.365375 2:0.085358 3:-0.0403714 4:0.55238 5:-0.591591 6:0.16372 
0.5 1:-0.687417 2:-0.435835 3:0.399997 4:0.65405 5:-0.998169 6:0.57675 
0.15573190769237677 1:-0.935261 2:0.6247 3:0.304403 4:0.65884 5:-1 6:0.36762 
0.3925874245311774 1:0.726319 2:-0.344886 3:0.411697 4:1 5:-0.542403 6:0.45336 
0.5 1:-0.847401 2:1 3:-0.0212102 4:0.90043 5:-0.761543 6:1 
0.43530499750936841 1:0.262669 2:0.146332 3:0.414637 4:0.85057 5:-0.0462444 6:0.39587 
0.5 1:0.208986 2:-0.189187 3:0.0663153 4:0.8366 5:-0.15857 6:0.24045 
0.5 1:-0.849182 2:0.539518 3:0.306706 4:0.81462 5:-1 6:0.30303 
0.5 1:-0.97639 2:0.311194 3:0.0111208 4:0.66798 5:-0.631445 6:0.58891 
0.5 1:-0.145018 2:-0.402875 3:0.478875 4:0.5854 5:-0.551917 6:0.69697 
0.5 1:-0.676057 2:0.0242667 3:0.172945 4:0.75758 5:-0.990844 6:0.59259 
-0.5 1:-0.250266 2:-1 3:0.384538 4:0.82126 5:-0.695246 6:0.52577 
-0.15598271651934895 1:-0.302059 2:-0.310784 3:0.17043 4:0.55049 5:-1 6:0.12698 
-0.5 1:-0.623678 2:-0.441514 3:0.116423 4:0.52497 5:-0.973503 6:0.16239 
-0.5 1:0.583538 2:0.618787 3:0.873008 4:0.82052 5:-0.991563 6:-0.66667 
-0.5 1:-0.24666 2:0.0458404 3:1 4:0.60623 5:-0.640923 6:0.84168 
-0.5 1:-0.668325 2:-0.247117 3:-0.170406 4:0.72744 5:-0.654459 6:0.46869 
-0.5 1:-0.32795 2:0.49356 3:0.991493 4:0.71488 5:-0.501921 6:0.9581 
-0.5 1:0.503464 2:-0.150869 3:-0.0732534 4:0.70468 5:-0.999246 6:1 
-0.5 1:-0.551185 2:0.196417 3:0.193138 4:0.73099 5:-1 6:0.70199 
-0.5 1:-0.381405 2:0.824893 3:0.379013 4:1 5:-0.881876 6:0.43871 
-0.5 1:0.136051 2:-0.231573 3:0.0438051 4:0.77431 5:-0.93776 6:0.13333 
-0.5 1:0.105805 2:-0.281541 3:0.442107 4:0.47449 5:-0.553156 6:0.64024 
-0.39601184175703691 1:-0.481516 2:-0.257772 3:-0.852193 4:0.43733 5:-0.921603 6:0.58801 
-0.42836789017738158 1:0.183575 2:0.795826 3:0.621496 4:0.69425 5:-0.889882 6:0.59348 
-0.5 1:-0.268772 2:-0.325332 3:0.223604 4:0.61978 5:-0.590388 6:0.30443 
-0.5 1:0.305969 2:0.327645 3:0.252869 4:0.72518 5:-1 6:0.31814 
-0.5 1:-0.633919 2:-0.0808208 3:-0.00155437 4:0.87309 5:-0.79576 6:0.41982 
-0.5 1:-0.0475792 2:-0.568731 3:-1 4:0.36598 5:-0.943236 6:0.01738 
-0.18252623312430094 1:-0.0190426 2:-0.431649 3:0.110982 4:0.81892 5:-0.873618 6:0.48008 
-0.5 1:0.170068 2:-0.0898367 3:0.648937 4:0.68608 5:1 6:-1 
-0.35244026819962443 1:-0.601686 2:-0.150869 3:-0.270313 4:0.52778 5:-0.882576 6:0.14113 
-0.26725393913994377 1:-0.771161 2:-0.46701 3:-0.146949 4:0.67363 5:-0.493519 6:0.0096154 
-0.5 1:0.850605 2:0.253966 3:0.411189 4:-1 5:-1 6:1 
