svm_type c_svc
kernel_type rbf
gamma 0.5
nr_class 2
total_sv 84
rho -0.90482936540274161
label 1 1000
nr_sv 43 41
SV
2 1:0.832207 2:-0.298985 3:1 4:0.29715 5:0.99997 6:-0.40564 
2 1:-0.134134 2:0.554892 3:0.896889 4:0.32661 5:0.98486 6:-0.17211 
2 1:0.832207 2:-0.298985 3:1 4:0.29715 5:0.99997 6:-0.40564 
2 1:-0.134134 2:0.554892 3:0.896889 4:0.32661 5:0.98486 6:-0.17211 
2 1:0.832207 2:-0.298985 3:1 4:0.29715 5:0.99997 6:-0.40564 
1.5157702847399956 1:-0.545213 2:0.169826 3:1 4:0.45093 5:0.98985 6:0.16483 
2 1:-0.134134 2:0.554892 3:0.896889 4:0.32661 5:0.98486 6:-0.17211 
2 1:0.832207 2:-0.298985 3:1 4:0.29715 5:0.99997 6:-0.40564 
0.58516730106172432 1:0.714408 2:-0.565297 3:0.312595 4:0.021659 5:0.8903 6:-0.30847 
0.80861385709505762 1:-0.765569 2:-0.75762 3:0.274998 4:0.23001 5:0.99226 6:0.28093 
1.3920106556434455 1:-0.571637 2:-0.647511 3:1 4:0.46809 5:0.90788 6:-0.63636 
2 1:-0.545213 2:0.169826 3:1 4:0.45093 5:0.98985 6:0.16483 
0.25287977334624001 1:-0.0880327 2:-0.397998 3:-0.625989 4:0.34199 5:0.92756 6:-0.20125 
2 1:-0.134134 2:0.554892 3:0.896889 4:0.32661 5:0.98486 6:-0.17211 
0.42971899500087191 1:-0.374729 2:-0.616995 3:0.880107 4:-0.13101 5:0.9018 6:-0.17347 
1.8481734660286508 1:-0.0931783 2:0.683591 3:1 4:0.066387 5:0.88099 6:-0.42576 
2 1:0.832207 2:-0.298985 3:1 4:0.29715 5:0.99997 6:-0.40564 
2 1:0.714408 2:-0.565297 3:0.312595 4:0.021659 5:0.8903 6:-0.30847 
2 1:-0.765569 2:-0.75762 3:0.274998 4:0.23001 5:0.99226 6:0.28093 
1.8862822486713349 1:-0.571637 2:-0.647511 3:1 4:0.46809 5:0.90788 6:-0.63636 
0.26883383404288652 1:-0.545213 2:0.169826 3:1 4:0.45093 5:0.98985 6:0.16483 
0.22361977479999515 1:0.446698 2:0.105021 3:-0.825935 4:-0.043137 5:0.85706 6:0.0082174 
2 1:-0.0880327 2:-0.397998 3:-0.625989 4:0.34199 5:0.92756 6:-0.20125 
2 1:-0.134134 2:0.554892 3:0.896889 4:0.32661 5:0.98486 6:-0.17211 
1.3426370696029533 1:0.415583 2:-0.201003 3:1 4:0.91385 5:0.94378 6:-1 
2 1:-0.374729 2:-0.616995 3:0.880107 4:-0.13101 5:0.9018 6:-0.17347 
2 1:-0.0931783 2:0.683591 3:1 4:0.066387 5:0.88099 6:-0.42576 
2 1:0.487928 2:0.652524 3:0.999961 4:0.61603 5:-0.85734 6:0.99746 
2 1:-0.258859 2:0.647601 3:0.978256 4:0.54701 5:-0.7734 6:0.89588 
2 1:-0.424905 2:0.727584 3:0.982432 4:0.77862 5:-0.94413 6:0.96999 
0.67175150213887791 1:0.773622 2:0.778101 3:0.881267 4:-1 5:-1 6:0.97102 
0.39227649424078109 1:0.659357 2:-0.64424 3:0.9474 4:0.91016 5:-0.99567 6:0.99717 
2 1:-0.281759 2:0.487816 3:0.986918 4:0.69697 5:-0.98822 6:0.98243 
2 1:0.159075 2:-0.113596 3:0.815766 4:0.49206 5:-0.93858 6:0.86295 
1.1703382870715553 1:-0.18759 2:-0.58958 3:0.917253 4:0.68792 5:-0.61846 6:0.97305 
0.087612395750116576 1:-0.938775 2:1 3:0.980486 4:-1 5:-0.99169 6:0.93987 
1.2291455873998023 1:-0.527584 2:0.539304 3:0.980602 4:0.51571 5:-0.91143 6:0.96522 
1.0279380808009708 1:-0.636762 2:0.806076 3:0.995412 4:0.65982 5:-0.99237 6:0.97353 
0.018147765201428061 1:-0.199086 2:0.437749 3:0.927538 4:-1 5:-0.99707 6:0.3191 
2 1:-0.110676 2:0.343539 3:0.873431 4:0.5483 5:-0.92258 6:0.75955 
0.12442145353701868 1:-0.718703 2:-0.941409 3:0.967623 4:0.68744 5:-0.9139 6:0.74826 
2 1:0.254381 2:0.878475 3:0.846609 4:0.72167 5:-0.9925 6:0.85224 
2 1:0.262261 2:0.203304 3:0.911157 4:0.57875 5:-0.90136 6:0.96449 
-2 1:0.109415 2:-0.311882 3:1 4:0.37333 5:0.97499 6:-0.28571 
-2 1:0.00657706 2:0.487166 3:1 4:0.50063 5:0.93123 6:0.022692 
-2 1:0.109415 2:-0.311882 3:1 4:0.37333 5:0.97499 6:-0.28571 
-2 1:0.00657706 2:0.487166 3:1 4:0.50063 5:0.93123 6:0.022692 
-0.26880202987655455 1:0.296626 2:0.486205 3:0.880107 4:0.15942 5:0.97177 6:-0.24712 
-2 1:0.109415 2:-0.311882 3:1 4:0.37333 5:0.97499 6:-0.28571 
-2 1:0.00657706 2:0.487166 3:1 4:0.50063 5:0.93123 6:0.022692 
-0.86379825905291352 1:0.32439 2:-0.463733 3:0.32386 4:0.30063 5:0.89295 6:-0.011368 
-2 1:0.296626 2:0.486205 3:0.880107 4:0.15942 5:0.97177 6:-0.24712 
-2 1:0.109415 2:-0.311882 3:1 4:0.37333 5:0.97499 6:-0.28571 
-0.44124144891632527 1:0.00657706 2:0.487166 3:1 4:0.50063 5:0.93123 6:0.022692 
-0.63665800371213199 1:0.972012 2:0.417478 3:1 4:0.30797 5:0.94714 6:-0.3697 
-1.8700013519522107 1:-0.991114 2:-0.749716 3:1 4:0.52704 5:0.23478 6:-0.081065 
-2 1:0.32439 2:-0.463733 3:0.32386 4:0.30063 5:0.89295 6:-0.011368 
-1.1120286991741124 1:0.286461 2:0.236401 3:1 4:0.23856 5:0.92774 6:-0.33333 
-2 1:0.296626 2:0.486205 3:0.880107 4:0.15942 5:0.97177 6:-0.24712 
-2 1:0.109415 2:-0.311882 3:1 4:0.37333 5:0.97499 6:-0.28571 
-0.75444911669600101 1:-0.979212 2:-0.83116 3:0.140734 4:0.27431 5:0.061485 6:-0.034483 
-0.063022171941176458 1:0.865841 2:0.934955 3:1 4:0.7018 5:0.98707 6:-0.55492 
-1.7203688598822071 1:0.972012 2:0.417478 3:1 4:0.30797 5:0.94714 6:-0.3697 
-1.9907036855762084 1:-0.991114 2:-0.749716 3:1 4:0.52704 5:0.23478 6:-0.081065 
-2 1:0.32439 2:-0.463733 3:0.32386 4:0.30063 5:0.89295 6:-0.011368 
-2 1:0.286461 2:0.236401 3:1 4:0.23856 5:0.92774 6:-0.33333 
-2 1:0.296626 2:0.486205 3:0.880107 4:0.15942 5:0.97177 6:-0.24712 
-1.2337330154439137 1:-0.955815 2:0.0567243 3:0.222579 4:0.30382 5:-0.2808 6:-0.34209 
-2 1:-0.46189 2:0.431856 3:0.962532 4:0.51073 5:-0.65244 6:0.9934 
-2 1:-0.0868212 2:0.574913 3:0.967765 4:0.72245 5:-0.57687 6:0.97495 
-2 1:-0.320379 2:-0.800193 3:-0.209645 4:0.58526 5:1 6:0.41344 
-2 1:0.122425 2:0.590431 3:0.911363 4:0.6752 5:-0.88427 6:0.95022 
-1.2243399460821025 1:0.136165 2:0.73817 3:0.454386 4:0.62967 5:-0.9802 6:0.77875 
-2 1:0.0588784 2:0.622758 3:0.952208 4:0.81765 5:-0.99942 6:0.9824 
-0.15514049960523393 1:1 2:0.993426 3:0.992589 4:0.53947 5:-0.90664 6:0.99858 
-2 1:0.61769 2:0.0311066 3:0.776777 4:0.66309 5:-0.91944 6:0.973 
-0.059495783161499213 1:0.607535 2:0.938167 3:0.991893 4:1 5:-0.96834 6:0.96844 
-2 1:0.117967 2:1 3:0.931869 4:0.63557 5:-0.78496 6:0.98636 
-2 1:0.516139 2:0.330742 3:0.708994 4:0.72389 5:-0.99698 6:0.98158 
-0.51328318367008252 1:0.271665 2:-0.336205 3:0.0137138 4:0.57267 5:-0.95284 6:0.24235 
-2 1:-0.558161 2:0.677718 3:0.862024 4:0.39268 5:-0.97946 6:0.96451 
-2 1:0.11946 2:0.950043 3:0.963615 4:0.39286 5:-0.99934 6:0.96349 
-1.1038950569582191 1:-0.197776 2:-0.968173 3:-0.650813 4:0.68578 5:-0.9334 6:-0.1551 
-1.2643777144728143 1:-0.386184 2:0.119649 3:0.930026 4:0.70168 5:-0.98549 6:-1 
