svm_type c_svc
kernel_type rbf
gamma 2
nr_class 2
total_sv 37
rho 0.49338065346922128
label 1 100
nr_sv 17 20
SV
0.24208080235412097 1:0.21743 2:0.633093 3:-0.888993 4:0.618741 5:-0.0772308 
1.1254210291794486 1:-1 2:0.742661 3:1 4:0.976277 5:0.025095 
2.3896891609022042 1:0.54839 2:0.671447 3:-0.347813 4:0.530574 5:-0.430165 
0.93263134129706904 1:0.56802 2:0.97256 3:0.199023 4:0.929089 5:0.705477 
0.94806664148284903 1:0.45029 2:0.803781 3:-1 4:0.842792 5:-1 
0.74980951998797307 1:0.14286 2:0.588441 3:0.385845 4:0.656066 5:0.703468 
6.1477822422615693 1:0.31034 2:0.563978 3:-0.623147 4:0.898202 5:-0.497246 
0.56033648002102332 1:0.50758 2:0.956321 3:-0.422565 4:0.854496 5:-0.190781 
12.33321174301515 1:0.66562 2:0.758804 3:0.49986 4:0.915572 5:0.100847 
1.9616737059735034 1:-0.16935 2:0.987501 3:-0.898743 4:0.983757 5:-0.172505 
5.2555534595760003 1:1 2:0.901156 3:0.289726 4:0.904553 5:-0.341288 
0.021169760619819913 1:0.55592 2:0.600176 3:-0.969402 4:0.935041 5:0.18074 
2.8257942188271032 1:-1 2:0.994829 3:0.549086 4:0.986954 5:0.316972 
3.7750121496122988 1:0.066667 2:0.945254 3:-0.453044 4:0.950756 5:-0.330811 
5.4947025832699143 1:0.6381 2:1 3:-0.22782 4:0.997745 5:-0.501161 
1.8435190526610661 1:1 2:0.711767 3:-0.818942 4:0.629132 5:0.061025 
1.942529494196688 1:0.30435 2:0.455478 3:0.0673596 4:0.404753 5:0.155987 
-2.3510688823319099 1:0.50501 2:0.473281 3:0.637956 4:0.228476 5:0.533782 
-6.9667221463200866 1:0.61839 2:0.945273 3:0.175195 4:0.990836 5:-0.121848 
-7.6265609659198814 1:-0.030303 2:0.65664 3:-0.766005 4:0.820154 5:-0.566968 
-0.15463327327826007 1:0.50522 2:0.0175287 3:-0.522653 4:0.361119 5:-0.546255 
-0.32129753563379648 1:-0.016667 2:-1 3:-0.893325 4:-0.642164 5:-0.275531 
-0.32131347145461053 1:-0.13563 2:-0.795989 3:-0.567321 4:-1 5:-0.376206 
-8.8051072172980192 1:0.69991 2:0.875395 3:0.783631 4:0.989067 5:0.143097 
-0.50288214933334607 1:-1 2:-0.0334392 3:-0.936358 4:-0.58968 5:0.73669 
-1.8273861231520874 1:1 2:0.994218 3:-0.377373 4:1 5:-0.11615 
-0.55873720258769743 1:-0.33333 2:0.828511 3:-0.86361 4:0.714759 5:1 
-2.3320953532247168 1:0.047619 2:0.963649 3:-0.0809759 4:0.974964 5:-0.42091 
-3.9773863047291629 1:1 2:0.669959 3:-0.0833507 4:0.887639 5:-0.396149 
-0.32900417635499613 1:0.50448 2:-0.0226006 3:0.25768 4:-0.339971 5:0.00250638 
-0.37588621714459985 1:-1 2:0.980727 3:-0.905366 4:0.852912 5:0.391541 
-0.086804377337943606 1:0.39282 2:-0.319649 3:-0.0559988 4:0.0847274 5:-0.577516 
-0.55674103944782194 1:0.50571 2:-0.318046 3:0.256177 4:0.246018 5:-0.0148515 
-0.46000390531998936 1:-1 2:0.959833 3:-0.294243 4:0.906723 5:0.490519 
-1.6366986922546694 1:0.55333 2:0.0284435 3:-0.693591 4:0.712161 5:-0.535292 
-6.6966030290155238 1:0.49754 2:0.667631 3:-0.180133 4:0.887853 5:-0.247945 
-2.6620513230986775 1:-1 2:0.997119 3:0.368864 4:0.875535 5:-0.0761878 
