svm_type c_svc
kernel_type rbf
gamma 0.5
nr_class 2
total_sv 47
rho -1.0054354776291325
label 1 1000
nr_sv 22 25
SV
2 1:0.85821 2:-0.289599 3:1 4:0.0110489 5:1 6:-0.40564 
2 1:-0.121845 2:0.57571 3:0.896889 4:0.0582915 5:0.976405 6:-0.17211 
2 1:0.85821 2:-0.289599 3:1 4:0.0110489 5:1 6:-0.40564 
2 1:-0.121845 2:0.57571 3:0.896889 4:0.0582915 5:0.976405 6:-0.17211 
2 1:0.85821 2:-0.289599 3:1 4:0.0110489 5:1 6:-0.40564 
2 1:-0.121845 2:0.57571 3:0.896889 4:0.0582915 5:0.976405 6:-0.17211 
2 1:0.85821 2:-0.289599 3:1 4:0.0110489 5:1 6:-0.40564 
0.83800433630697313 1:-0.565557 2:-0.642792 3:1 4:0.285171 5:0.856196 6:-0.63636 
1.7317288384824541 1:-0.538759 2:0.185489 3:1 4:0.257653 5:0.984197 6:0.16483 
2 1:-0.121845 2:0.57571 3:0.896889 4:0.0582915 5:0.976405 6:-0.17211 
1.4768640321858215 1:-0.0803084 2:0.706132 3:1 4:-0.359007 5:0.814206 6:-0.42576 
2 1:0.85821 2:-0.289599 3:1 4:0.0110489 5:1 6:-0.40564 
1.5961865696686721 1:0.738739 2:-0.559477 3:0.312595 4:-0.430733 5:0.828744 6:-0.30847 
0.66603814554214191 1:-0.762242 2:-0.754375 3:0.274998 4:-0.096618 5:0.98796 6:0.28093 
1.9472853699858852 1:-0.565557 2:-0.642792 3:1 4:0.285171 5:0.856196 6:-0.63636 
1.6061103143226194 1:-0.538759 2:0.185489 3:1 4:0.257653 5:0.984197 6:0.16483 
0.28139958164827028 1:0.46723 2:0.119816 3:-0.825935 4:-0.534641 5:0.776837 6:0.0082174 
1.2306158036975885 1:-0.0750897 2:-0.389938 3:-0.625989 4:0.0829551 5:0.886927 6:-0.20125 
2 1:-0.121845 2:0.57571 3:0.896889 4:0.0582915 5:0.976405 6:-0.17211 
1.0891855479938306 1:0.435673 2:-0.190305 3:1 4:1 5:0.912256 6:-1 
1.276756277895674 1:-0.365855 2:-0.611867 3:0.880107 4:-0.675556 5:0.846702 6:-0.17347 
2 1:-0.0803084 2:0.706132 3:1 4:-0.359007 5:0.814206 6:-0.42576 
-2 1:0.125161 2:-0.302669 3:1 4:0.133213 5:0.960992 6:-0.28571 
-2 1:0.125161 2:-0.302669 3:1 4:0.133213 5:0.960992 6:-0.28571 
-1.0170056563622947 1:0.0208628 2:0.507077 3:1 4:0.337353 5:0.892658 6:0.022692 
-1.9658710581771361 1:0.315028 2:0.506104 3:0.880107 4:-0.209817 5:0.955964 6:-0.24712 
-2 1:0.125161 2:-0.302669 3:1 4:0.133213 5:0.960992 6:-0.28571 
-2 1:0.0208628 2:0.507077 3:1 4:0.337353 5:0.892658 6:0.022692 
-2 1:0.315028 2:0.506104 3:0.880107 4:-0.209817 5:0.955964 6:-0.24712 
-2 1:0.125161 2:-0.302669 3:1 4:0.133213 5:0.960992 6:-0.28571 
-2 1:0.0208628 2:0.507077 3:1 4:0.337353 5:0.892658 6:0.022692 
-1.7369243065684763 1:0.343186 2:-0.456553 3:0.32386 4:0.0166295 5:0.832882 6:-0.011368 
-2 1:0.315028 2:0.506104 3:0.880107 4:-0.209817 5:0.955964 6:-0.24712 
-2 1:0.125161 2:-0.302669 3:1 4:0.133213 5:0.960992 6:-0.28571 
-0.62103027512460152 1:-0.978917 2:-0.828899 3:0.140734 4:-0.0255777 5:-0.465501 6:-0.034483 
-0.88215480944627844 1:0.795395 2:0.864123 3:1 4:-1 5:0.823512 6:0.26921 
-1.2552674461630606 1:0.0208628 2:0.507077 3:1 4:0.337353 5:0.892658 6:0.022692 
-0.044592840994039332 1:0.250153 2:0.52184 3:1 4:-0.0706714 5:0.339007 6:-0.38095 
-0.092957751939967859 1:0.999094 2:0.858901 3:1 4:0.566702 5:0.991068 6:1 
-0.53526639302595569 1:0.981647 2:0.837487 3:1 4:0.647477 5:0.342333 6:-0.5846 
-0.21975908976637057 1:0.892321 2:0.960862 3:1 4:0.659953 5:0.979856 6:-0.55492 
-1.8353682508467108 1:1 2:0.436457 3:1 4:0.0284001 5:0.917503 6:-0.3697 
-1.8748697282981992 1:-0.990988 2:-0.746365 3:1 4:0.379705 5:-0.194891 6:-0.081065 
-1.9984047469294257 1:0.343186 2:-0.456553 3:0.32386 4:0.0166295 5:0.832882 6:-0.011368 
-0.32818162102728382 1:0.304719 2:0.252956 3:1 4:-0.082907 5:0.887208 6:-0.33333 
-2 1:0.315028 2:0.506104 3:0.880107 4:-0.209817 5:0.955964 6:-0.24712 
-1.3325208430601301 1:-0.955188 2:0.0708728 3:0.222579 4:0.0217451 5:-1 6:-0.34209 
