svm_type c_svc
kernel_type rbf
gamma 0.5
nr_class 2
total_sv 29
rho 0.53815196227695294
label 1000 10000
nr_sv 13 16
SV
2.8411602861214349 1:-0.892857 2:0.66346 3:1 4:-0.012658 5:1 6:0.638872 
1.3508916331618135 1:-0.435451 2:0.73913 3:-0.57333 4:0.18115 5:-0.798741 6:0.734606 
1.0205617865329342 1:-0.861086 2:0.61443 3:-0.94444 4:-1 5:0.711737 6:0.823473 
1.3420096468307332 1:-0.477829 2:-1 3:-0.35 4:-0.53172 5:-0.937113 6:0.925705 
0.55970408400348948 1:-0.746034 2:-1 3:-1 4:-1 5:-1 6:1 
1.6120945455227427 1:0.972937 2:0.70321 3:-0.73034 4:0.11261 5:0.813436 6:0.674474 
0.7143355684324072 1:-0.561646 2:0.57331 3:1 4:0.21212 5:1 6:0.791152 
2.4250769361856506 1:0.04 2:0.89524 3:-0.54545 4:-0.51449 5:1 6:0.909208 
0.10160709338598957 1:0.093168 2:0.85103 3:-0.63636 4:-0.33913 5:1 6:0.449066 
6.7034283996542516 1:-0.181657 2:0.33478 3:0.68 4:-0.052778 5:0.875472 6:0.331315 
2.1835290867616068 1:-0.26392 2:1 3:1 4:-0.083461 5:0.184639 6:0.750482 
0.36804190652375923 1:-0.91072 2:1 3:0.90698 5:0.469062 6:0.591736 
8 1:-0.192263 2:0.97895 3:1 4:-0.51337 5:1 6:0.540951 
-0.29742347063265018 1:0.422217 2:-1 3:0.23288 4:-0.63861 5:0.203931 6:0.810478 
-1.1219642800329059 1:-0.912091 2:-1 3:1 4:-0.6 5:1 6:0.679226 
-1.5909633062694808 1:-0.158491 2:1 3:0.24211 4:-0.91485 5:0.388285 6:0.708088 
-6.7042447867723549 1:-0.0588229 2:0.83335 3:0.62887 4:-0.80065 5:1 6:0.373656 
-0.54833852701425401 1:-1 2:-1 3:0.57333 4:1 5:0.391191 6:0.787041 
-8 1:-0.70696 2:0.7342 3:1 4:0.29285 5:1 6:0.571117 
-0.90509434185944626 1:-0.874754 2:0.80386 3:0.22581 4:0.1075 5:0.765669 6:-1 
-0.54934408732625961 1:0.735989 2:-1 3:0.35385 5:0.329466 6:0.64394 
-0.12888702644058647 1:-0.230971 2:-1 3:1 4:-1 5:-0.297172 6:0.743059 
-0.52779340847714618 1:0.0621851 2:0.75824 3:0.19231 4:-0.71429 5:-0.357039 6:0.784886 
-3.7818586705506312 1:0.551017 2:0.59747 3:0.72414 4:-0.20911 5:1 6:0.248198 
-2.2031706426719242 1:-0.242766 2:0.50588 3:1 4:-0.13235 5:-0.723702 6:0.670857 
-0.098300446193611266 1:0.352766 2:-1 3:0.53846 4:-0.30303 5:0.481131 6:0.864259 
-0.67970904702446489 1:0.391943 2:0.82494 3:-0.37143 4:-0.97956 5:1 6:0.839613 
-0.7401287535464115 1:0.974023 2:0.93484 3:-0.552 4:-0.95251 5:0.817358 6:0.968078 
-1.3452201783046891 1:0.0976594 2:0.87742 3:1 4:-1 5:1 6:0.77905 
