svm_type c_svc
kernel_type rbf
gamma 0.5
nr_class 3
total_sv 50
rho 0.57817126155420251 1.3180446407017088 -0.67369358153831338
label 1 100 10000
nr_sv 15 20 15
SV
0 14.997406505215105 1:-0.120158 2:-0.372902 3:0.49368 4:-0.787422 5:0.961932 
32 0 1:-0.067479 2:0.208985 3:0.340305 4:-0.996507 5:0.924146 
32 0 1:0.335696 2:0.62585 3:0.323945 4:-0.862153 5:0.897456 
17.099259857554266 20.104894761959027 1:0.255552 2:0.766989 3:-0.105394 4:-0.871304 5:0.865585 
12.697295682187534 0 1:-0.630782 2:-0.964859 3:0.124094 4:-0.94474 5:0.892822 
11.142738232050982 0 1:-0.422232 2:-0.233839 3:-0.0136822 4:-0.597052 5:0.95856 
32 0 1:-0.360487 2:-0.0563967 3:0.0307691 4:-0.870811 5:0.854321 
23.109419374860945 32 1:0.313401 2:0.256314 3:0.651707 4:-0.997801 5:0.941476 
32 32 1:-0.00793017 2:0.716713 3:0.208018 4:-0.542616 5:0.683702 
32 29.810055227715768 1:-0.258079 2:0.0787098 3:0.455002 4:-0.660868 5:0.993426 
5.8512947320188218 1.0048033312074327 1:-0.0778783 2:-0.0113612 3:-1 4:-0.995625 5:0.837632 
11.825854318072112 3.9368901036572521 1:-0.435007 2:0.820622 3:0.109811 4:-0.00410014 5:0.98495 
32 18.331996524679916 1:-0.862064 2:0.717764 3:0.456799 4:-0.984344 5:0.559194 
0 15.64624896572875 1:0.168378 2:0.0420536 3:0.175042 4:-0.669446 5:0.384507 
0 32 1:0.322668 2:-0.00208119 3:0.345192 4:-0.708111 5:0.7488 
-5.0377504331776173 17.204508248194742 1:-0.199634 2:0.559921 3:0.566438 4:-0.592299 5:0.282189 
-27.55425471531132 20.897170304695727 1:-0.095162 2:0.617266 3:0.31369 4:-0.836212 5:0.965699 
-32 0 1:-0.114203 2:0.697566 3:0.358687 4:-0.587672 5:0.850421 
-0 0.50217785075895904 1:-0.51556 2:0.75775 3:0.0863093 4:-0.99117 5:0.973064 
-0.97474295920083098 9.8614479756843991 1:-0.676286 2:0.75412 3:-0.182525 4:-0.969283 5:0.417395 
-5.1334564022395863 0 1:-0.382984 2:0.415644 3:0.10366 4:-0.864535 5:0.162164 
-0 3.1415003586299148 1:-0.324919 2:-0.259566 3:0.149642 4:-0.770094 5:-0.479813 
-30.714251192807023 0 1:-0.468557 2:0.324522 3:0.196886 4:-0.924502 5:0.995856 
-3.89817038204722 2.1295292196718063 1:-0.366381 2:0.469209 3:0.252459 4:1 5:0.932849 
-10.779565699665111 32 1:-0.0489608 2:0.150057 3:0.911224 4:-0.5912 5:0.995272 
-32 24.860220123591908 1:0.260258 2:0.354873 3:-0.0584606 4:-0.914412 5:0.921528 
-32 32 1:0.3864 2:0.535943 3:0.586317 4:-0.830199 5:0.939517 
-32 4.5610649580196005 1:-0.593503 2:-0.468896 3:-0.150017 4:-0.809549 5:0.992447 
-9.9346708597413027 0 1:-0.742894 2:0.145117 3:0.421735 4:-0.257003 5:0.983311 
-0 8.5844743123888367 1:0.103484 2:0.717109 3:0.483639 4:-0.832971 5:-0.938532 
-5.2720847083519446 0 1:-1 2:0.0134219 3:0.155679 4:-0.862576 5:0.359492 
-2.4235617327879675 32 1:0.0693381 2:0.691957 3:0.448009 4:-0.921273 5:0.631318 
-0 22.215529045148081 1:-0.0736954 2:0.859803 3:0.817218 4:-0.957693 5:0.944132 
-32 6.9941469572325614 1:-0.287331 2:0.434559 3:0.232816 4:-0.999794 5:0.579726 
-12.003353111414732 9.2635169287413071 1:0.0317207 2:-1 3:0.980249 4:-0.9006 5:0.991335 
-0.2701191526378221 -6.9173232919128065 1:0.400227 2:1 3:0.758576 4:-0.83383 5:0.924938 
-32 -32 1:-0.229321 2:0.759169 3:-0.0954703 4:-0.76927 5:0.979318 
-32 -27.246990527561721 1:0.0985026 2:0.307436 3:0.742344 4:-0.987505 5:0.886286 
-3.0463512484567197 -0 1:-0.438206 2:-0.518761 3:-0.0199003 4:-0.0595323 5:0.893199 
-0 -20.36686125568599 1:0.275435 2:1 3:0.825698 4:-0.982706 5:0.985515 
-29.410632680743035 -15.437185029453113 1:-0.298718 2:-0.0928209 3:0.450062 4:-0.61958 5:0.553713 
-32 -20.730189666977822 1:-0.0206097 2:0.169572 3:0.589215 4:-0.87648 5:0.659384 
-32 -14.524824156634924 1:0.515868 2:0.117195 3:0.340861 4:-0.434776 5:0.985214 
-2.2725736456417009 -0.82019141044968824 1:0.59819 2:-0.817988 3:0.822811 4:-0.94805 5:0.986306 
-20.760664306018857 -18.682288122116017 1:-0.116149 2:0.950133 3:-0.0412871 4:-0.87356 5:0.687431 
-4.0183809492221556 -24.058218928501443 1:0.0704565 2:0.82967 3:0.40253 4:-0.865623 5:-0.0614787 
-0 -10.811151117056038 1:-0.186678 2:-0.132957 3:0.567208 4:-0.22087 5:0.852267 
-12.053573437442953 -0 1:0.397554 2:-0.118764 3:0.393377 4:-0.455689 5:0.780727 
-0 -2.6200627764082878 1:0.615474 2:0.497049 3:0.980795 4:-0.99551 5:-1 
-0 -32 1:0.156904 2:0.380079 3:0.820544 4:-0.972696 5:0.966434 
