svm_type c_svc
kernel_type rbf
gamma 0.03125
nr_class 4
total_sv 119
rho -2.8239415114052147 -1.217929130443274 1.5601117503414816 0.29035641791316658 2.7566686921335508 2.102205278850438
label 1 10 1000 10000
nr_sv 31 30 29 29
SV
32 32 26.348797084387641 1:-0.95252 2:-0.4359 3:-0.99758 4:-0.95036 5:0.50174 6:-0.84727 7:0.73794 
32 0 0 1:-0.99495 2:-0.087179 3:0.35505 4:-0.93444 5:0.84794 6:-0.63694 7:0.73495 
0 20.526812105980181 32 1:0.13534 2:0.92821 3:0.010702 4:-0.99117 5:0.99493 6:-0.98755 7:0.92497 
32 32 32 1:-0.11555 2:-0.22051 3:-0.90863 4:-0.9278 5:0.49549 6:-0.81873 7:0.61804 
0 8.334020303240214 32 1:0.89618 2:0.58974 3:-0.13298 4:-0.73411 5:0.85132 6:-0.62951 7:0.72128 
32 32 32 1:0.066899 2:0.64103 3:-1 4:-0.97507 5:0.75948 6:0.0088678 7:0.80882 
32 25.367775389907585 32 1:-0.99987 2:-0.25128 3:-0.89125 4:-0.46078 5:0.78037 6:0.86052 7:0.61918 
0 32 11.160767686375154 1:-0.22381 2:0.89744 3:-0.40529 4:-0.9868 5:0.91053 6:-0.98351 7:0.87221 
32 32 32 1:-0.97098 2:-0.66154 3:-0.94777 4:-0.83211 5:0.66319 6:-0.95213 7:0.55119 
0 32 32 1:0.51463 2:0.35385 3:-0.32837 4:-0.98854 5:0.6337 6:-0.79312 7:0.81967 
32 32 32 1:-0.98 2:-0.32308 3:-0.91749 4:-0.64912 5:0.72424 6:-0.56067 7:0.81082 
32 32 32 1:-0.99083 2:-0.45641 3:-0.87262 4:-0.73395 5:0.66161 6:-0.814 7:0.46298 
32 16.00447822069734 32 1:0.072918 2:-0.13846 3:-0.76132 4:-0.92069 5:0.6432 6:-0.11993 7:0.67146 
32 11.410340476178238 0 1:-0.97491 2:-0.50769 3:-0.67297 4:-0.79978 5:0.33611 6:-0.46271 7:0.62365 
0 12.541666040329909 32 1:0.27015 2:0.70256 3:-0.53247 4:-0.98253 5:0.84511 6:0.2431 7:0.6817 
32 32 32 1:-0.98855 2:-0.54872 3:-0.81411 4:-0.96611 5:0.91898 6:-0.55956 7:0.84251 
5.2012739670531705 32 32 1:0.18772 2:0.46667 3:-0.49272 4:-0.95447 5:0.68869 6:-0.77516 7:0.76443 
32 32 32 1:-0.49784 2:-0.29231 3:-0.90273 4:-0.86893 5:0.63215 6:-0.58462 7:0.84239 
32 1.0968684646194111 32 1:-1 2:0.33333 3:0.34525 4:-0.44939 5:0.82313 6:-0.97495 7:0.84415 
0 0 32 1:0.62825 2:0.72308 3:0.057963 4:-0.99897 5:0.87282 6:-0.87923 7:0.61455 
32 32 32 1:-0.58805 2:-0.076923 3:-0.70253 4:-0.9965 5:0.67708 6:-0.33803 7:0.68805 
32 32 32 1:-0.029284 2:0.35385 3:-0.72744 4:-0.9254 5:0.68176 6:-0.47307 7:0.7065 
0 32 5.8309004929387216 1:0.035962 2:0.74359 3:-0.56706 4:-0.94037 5:0.79046 6:-0.71504 7:0.55839 
32 32 32 1:-0.60578 2:-0.6 3:-0.85537 4:-0.68371 5:0.82379 6:-0.32661 7:0.6462 
32 32 32 1:0.65782 2:0.58974 3:-0.90353 4:-0.34796 5:0.64925 6:-0.67579 7:0.71626 
32 32 32 1:-0.97659 2:-0.66154 3:-0.8204 4:-0.95748 5:0.80874 6:-0.69233 7:0.70121 
32 31.722771642771235 0 1:-0.51478 2:-0.035897 3:-0.48804 4:-0.9942 5:0.4739 6:-0.94094 7:0.53155 
32 32 32 1:0.16846 2:0.097436 3:-0.87473 4:-0.98131 5:0.66105 6:-0.55222 7:0.60767 
32 0 25.871860188426311 1:-0.10446 2:0.11795 3:0.076185 4:-0.96079 5:0.73694 6:-0.26515 7:0.78299 
32 32 32 1:-0.43086 2:0.64103 3:-0.97138 4:-0.26849 5:0.7496 6:-0.62026 7:0.76473 
32 32 0 1:-0.99934 2:0.44615 3:-0.34834 4:-0.94951 5:0.88545 6:-0.30936 7:0.78717 
-32 32 32 1:0.51105 2:0.72308 3:-0.652 4:-0.84282 5:0.69801 6:-0.78098 7:0.81072 
-32 32 32 1:-0.9999 2:-0.35385 3:-0.8565 4:-0.97031 5:0.88492 6:-0.71501 7:0.84048 
-32 32 32 1:-0.6527 2:-0.18974 3:-0.92937 4:-0.97505 5:0.68245 6:-0.46277 7:0.73887 
-12.466427563374411 0 18.801464344835995 1:-0.99996 2:-1 3:-0.037334 4:-0.92211 5:0.48642 6:0.50708 7:0.7376 
-32 32 32 1:-0.87442 2:-0.74359 3:-0.63798 4:-0.99911 5:0.71775 6:-0.8868 7:0.88098 
-21.254703789306852 32 24.351973632061469 1:-0.99588 2:0.0051282 3:-0.9634 4:-0.50535 5:0.86313 6:-0.90335 7:0.59876 
-32 32 32 1:-0.676 2:-0.10769 3:-0.91017 4:-0.98088 5:0.6896 6:-0.22232 7:0.67121 
-0 0 21.261158109281943 1:-0.50191 2:-0.37436 3:-0.9936 4:-0.55557 5:0.63793 6:-0.084184 7:0.73178 
-13.815046671867979 32 32 1:-0.066819 2:-0.0051282 3:-0.92485 4:-0.31386 5:0.59377 6:-0.44279 7:0.56501 
-32 32 0 1:-0.66951 2:0.025641 3:-0.84476 4:-0.81594 5:0.5333 6:-0.88964 7:0.58567 
-32 32 32 1:0.24425 2:0.11795 3:-0.6834 4:-0.85954 5:0.56043 6:-0.31825 7:0.67712 
-0 32 0 1:-0.58696 2:-0.21026 3:-0.90187 4:-0.5946 5:0.47177 6:-0.98925 7:0.54942 
-0 14.389755727791034 16.493150925420736 1:-0.99915 2:0.25128 3:-0.61683 4:0.58991 5:0.72947 6:-0.14615 7:0.73103 
-32 0 32 1:-0.80177 2:0.16923 3:-0.85392 4:-0.93337 5:0.59757 6:0.14763 7:0.54406 
-32 32 32 1:-0.83875 2:0.025641 3:-0.81369 4:-0.81714 5:0.62243 6:-0.3622 7:0.74244 
-32 32 32 1:0.82848 2:0.68205 3:-0.93703 4:-0.96006 5:0.7186 6:-0.13094 7:0.59635 
-32 0 19.828088413908137 1:-0.74381 2:-0.29231 3:0.016823 4:-0.92332 5:0.49751 6:-0.5465 7:0.55207 
-32 32 0 1:-0.84368 2:0.0051282 3:-0.71573 4:-0.6961 5:0.63158 6:-0.63237 7:0.67207 
-32 32 6.7606957303056019 1:-0.98661 2:-0.51795 3:-0.7874 4:-0.82125 5:0.78656 6:-0.81714 7:0.83676 
-32 32 32 1:-0.21327 2:-0.11795 3:-0.87869 4:-1 5:0.53821 6:-0.66461 7:0.65319 
-32 32 0 1:-0.93113 2:-0.13846 3:-0.68013 4:-0.78651 5:0.6459 6:-0.38083 7:0.71821 
-0 19.690004759364751 32 1:-0.99959 2:-0.47692 3:-0.94668 4:-0.54569 5:0.85166 6:-0.53419 7:0.88352 
-32 32 32 1:-0.39591 2:-0.13846 3:-0.80574 4:-0.60924 5:0.6406 6:-0.067834 7:0.58774 
-0 11.66860969843424 6.9633381657310931 1:-0.70786 2:-0.23077 3:0.070537 4:-0.055037 5:0.55183 6:-0.72145 7:0.6144 
-27.06948308432726 32 0 1:-0.46968 2:-0.34359 3:-0.64387 4:-0.62092 5:0.59783 6:-0.87216 7:0.56482 
-32 0 0 1:-0.97768 2:-0.17949 3:-0.78535 4:-0.77159 5:0.72074 6:-0.46407 7:0.68873 
-32 31.416847740729803 32 1:-0.79938 2:-0.14872 3:-0.61127 4:-0.95031 5:0.6841 6:-0.18903 7:0.71451 
-32 0.69458836402569146 32 1:-0.52415 2:-0.44615 3:0.121 4:-0.5644 5:0.66708 6:-0.52025 7:0.68805 
-32 32 0 1:-0.26356 2:-0.42564 3:-0.98239 4:-0.85378 5:0.60175 6:-0.73569 7:0.64276 
-26.595612858176679 32 32 1:-0.99999 2:0.26154 3:-0.32988 4:0.45179 5:0.95316 6:-0.96537 7:0.78798 
-32 -32 32 1:-0.49113 2:0.0051282 3:-0.76721 4:-0.1557 5:0.67624 6:-0.71167 7:0.685 
-32 -32 32 1:0.35824 2:0.18974 3:-0.84443 4:-0.97519 5:0.86394 6:-0.81159 7:0.67117 
-3.2261350351261413 -32 0 1:-0.40328 2:0.25128 3:-0.99638 4:-0.68767 5:0.56359 6:-0.81976 7:0.72381 
-32 -32 24.026807773995117 1:-0.96101 2:-0.35385 3:-0.93897 4:-0.57323 5:0.69895 6:-0.61231 7:0.6815 
-32 -0 32 1:0.74928 2:0.67179 3:-0.4867 4:-0.94662 5:0.89757 6:-0.87988 7:0.67053 
-32 -32 32 1:-0.45661 2:-0.16923 3:-0.62069 4:-0.99512 5:0.50902 6:-0.24132 7:0.78807 
-32 -32 32 1:0.66883 2:0.27179 3:-0.94539 4:-0.89721 5:0.53819 6:0.17242 7:0.79204 
-27.424397394438699 -32 32 1:0.094031 2:0.27179 3:-0.99667 4:-0.56225 5:0.4964 6:-0.69695 7:0.71322 
-32 -32 32 1:0.54355 2:0.45641 3:-0.24535 4:-0.86782 5:0.83035 6:-0.17199 7:0.87486 
-32 -32 0 1:-0.92311 2:-0.18974 3:-0.95575 4:-0.99074 5:0.72233 6:-0.93283 7:0.57403 
-32 -32 0 1:-0.89447 2:0.05641 3:-0.93535 4:-0.85477 5:0.79648 6:-1 7:0.85523 
-32 -13.859806290345526 32 1:-0.34126 2:0.67179 3:-0.90325 4:-0.97238 5:0.72048 6:-0.94396 7:0.84888 
-32 -32 32 1:-0.14531 2:0.046154 3:-0.71486 4:-0.69629 5:0.65449 6:-0.80197 7:0.75503 
-0.3542002141592735 -0 32 1:0.61485 2:0.33333 3:-0.8584 4:-0.48371 5:0.84504 6:-0.95678 7:0.66793 
-32 -32 32 1:-0.99832 2:-0.55897 3:-0.74564 4:-0.78992 5:0.54087 6:-0.10142 7:0.6194 
-32 -32 32 1:-0.99998 2:-0.44615 3:-0.70716 4:-0.82271 5:0.54283 6:-0.30389 7:0.81493 
-32 -0 32 1:0.22884 2:0.73333 3:-0.86917 4:-0.91796 5:0.87237 6:-0.32599 7:0.93212 
-32 -32 32 1:-0.99649 2:-0.40513 3:-0.24069 4:-0.979 5:0.87478 6:-0.30527 7:0.80182 
-32 -32 32 1:-1 2:0.015385 3:-0.84167 4:-0.98593 5:1 6:-0.75574 7:0.76054 
-32 -0 32 1:0.54705 2:0.87692 3:-0.94551 4:-0.99112 5:0.9468 6:-0.50802 7:0.58019 
-0 -32 32 1:-0.92917 2:-0.41538 3:-0.65391 4:0.35443 5:0.52718 6:-0.82753 7:0.86286 
-0 -0 32 1:0.23002 2:1 3:-0.95635 4:-0.98723 5:0.98038 6:-0.97999 7:1 
-32 -32 0 1:-0.9958 2:-0.13846 3:-0.91975 4:-0.53614 5:0.63472 6:-0.59965 7:0.82032 
-32 -32 0 1:-0.92161 2:-0.0051282 3:-0.97356 4:-0.79258 5:0.8078 6:-0.90101 7:0.7579 
-32 -0 32 1:0.0032555 2:0.64103 3:-0.9118 4:-0.88689 5:0.6329 6:-0.99135 7:0.71273 
-32 -32 32 1:-0.22991 2:0.05641 3:-0.88033 4:-0.75357 5:0.45281 6:-0.69845 7:0.55632 
-32 -32 32 1:-0.99854 2:-0.67179 3:-0.26569 4:-0.67482 5:0.81398 6:-0.85798 7:0.73631 
-0 -32 32 1:-0.0044457 2:-0.025641 3:-0.93287 4:-0.22391 5:0.62496 6:-0.94283 7:0.71539 
-32 -32 32 1:-0.75317 2:0.05641 3:-0.87582 4:-0.81341 5:0.62752 6:-0.060035 7:0.44748 
-0 -0 -32 1:0.42123 2:0.62051 3:-0.96637 4:-0.3348 5:0.80866 6:-0.72076 7:0.73251 
-32 -0 -32 1:0.87433 2:0.39487 3:-0.946 4:-0.83214 5:0.80079 6:-0.80662 7:0.60976 
-32 -32 -32 1:-0.95614 2:0.26154 3:-0.86201 4:-0.99989 5:0.75222 6:-0.39298 7:0.64907 
-32 -32 -32 1:-0.45715 2:0.4359 3:-0.96709 4:-0.93647 5:0.92197 6:0.19191 7:0.8453 
-32 -22.680466544807018 -32 1:0.28187 2:0.39487 3:-0.66684 4:-0.63202 5:0.76828 6:-0.3071 7:0.82805 
-32 -32 -32 1:-0.99158 2:-0.28205 3:-0.30185 4:-0.85866 5:0.7785 6:-0.72039 7:0.68043 
-0 -0 -20.583280614061934 1:0.84307 2:0.79487 3:-0.89913 4:-0.85438 5:0.97818 6:-0.88662 7:0.72268 
-32 -32 -32 1:-0.47511 2:0.2 3:-0.5787 4:-0.48123 5:0.88218 6:-0.41049 7:0.64729 
-32 -32 -10.951922213162794 1:-0.72023 2:-0.12821 3:-0.024479 4:-0.68477 5:0.72387 6:-0.52333 7:0.70091 
-32 -0 -32 1:0.57999 2:0.40513 3:-0.73248 4:-0.95564 5:0.70834 6:-0.73054 7:0.77611 
-0 -9.3680060041551183 -3.5810701857033811 1:0.48031 2:0.82564 3:-0.65656 4:1 5:0.62373 6:-0.72145 7:0.6863 
-32 -0 -32 1:0.47674 2:0.97949 3:-0.61872 4:-0.92568 5:0.84941 6:-0.80482 7:0.80729 
-32 -32 -21.747922619626447 1:-0.99883 2:-0.51795 3:-0.82283 4:-0.94896 5:0.93486 6:0.96817 7:0.88688 
-5.2123254521278257 -32 -32 1:0.40088 2:0.24103 3:-0.9395 4:-0.12222 5:0.52277 6:0.34729 7:0.85115 
-32 -32 -32 1:-0.79548 2:-0.61026 3:-0.62404 4:-0.41133 5:0.49658 6:-0.54425 7:0.70571 
-32 -32 -32 1:-0.98284 2:-0.65128 3:-0.87579 4:-0.33316 5:0.63104 6:-0.66496 7:0.46459 
-32 -32 -32 1:0.02451 2:-0.17949 3:-0.74976 4:-0.22765 5:0.66968 6:-0.82599 7:0.65736 
-32 -32 -32 1:-0.44389 2:-0.14872 3:-0.81854 4:-0.97369 5:0.73009 6:-0.7853 7:0.61366 
-32 -32 -32 1:-0.99895 2:-0.55897 3:-0.57452 4:-0.96447 5:0.88184 6:-0.89897 7:0.79125 
-32 -0 -31.162612141440576 1:0.41092 2:0.67179 3:-0.56057 4:-0.97494 5:0.91197 6:-0.82921 7:0.97725 
-32 -0 -0 1:0.85408 2:0.75385 3:-0.63244 4:-0.99121 5:0.70646 6:-0.80517 7:0.76782 
-32 -32 -32 1:-0.99929 2:0.05641 3:0.041119 4:-0.57955 5:0.83797 6:-0.73058 7:0.83523 
-32 -32 -32 1:-0.39292 2:0.25128 3:-0.9038 4:-0.98168 5:0.73982 6:-0.769 7:0.73515 
-32 -32 -32 1:0.45131 2:0.31282 3:-0.8105 4:-0.87978 5:0.74335 6:-0.75817 7:0.7936 
-32 -32 -32 1:-0.19526 2:0.33333 3:-0.95922 4:-0.9582 5:0.82981 6:-0.94056 7:0.78703 
-32 -18.411396772582837 -32 1:0.63725 2:0.46667 3:-0.7226 4:-0.84586 5:0.68741 6:-0.82471 7:0.58268 
-32 -32 -32 1:-0.97428 2:-0.71282 3:-0.60345 4:-0.8662 5:0.45812 6:-0.69503 7:0.82707 
-32 -0 -0 1:0.60665 2:0.16923 3:-0.10096 4:-0.74993 5:0.94302 6:-0.6624 7:0.70006 
-32 -32 -0 1:-0.99881 2:-0.53846 3:-0.82063 4:-0.95407 5:0.93404 6:1 7:0.87982 
