svm_type c_svc
kernel_type rbf
gamma 0.5
nr_class 3
total_sv 166
rho -1.3369971605038262 -0.71459677884107098 -0.12027349993203022
label 1 1000 10000
nr_sv 78 39 49
SV
0.78149548631823662 0 1:-0.14034 2:0.55513 3:0.92 4:0.32661 5:0.98486 6:-0.17211 
8 0 1:-0.14034 2:0.55513 3:0.92 4:0.32661 5:0.98486 6:-0.17211 
8 0 1:-0.14034 2:0.55513 3:0.92 4:0.32661 5:0.98486 6:-0.17211 
6.9800267634578823 0 1:0.81124 2:-0.29829 3:1 4:0.29715 5:0.99997 6:-0.40564 
0 3.7870348443544368 1:0.43162 2:0.1055 3:-0.41667 4:-0.043137 5:0.85706 6:0.0082174 
8 0 1:-0.14034 2:0.55513 3:0.92 4:0.32661 5:0.98486 6:-0.17211 
0 6.1358092765355288 1:-0.29768 2:0.72767 3:0.37931 4:0.18611 5:0.92879 6:-0.12522 
7.8192754852909658 0 1:0.81124 2:-0.29829 3:1 4:0.29715 5:0.99997 6:-0.40564 
6.4071606655217268 0 1:-0.76213 2:-0.75668 3:0.4375 4:0.23001 5:0.99226 6:0.28093 
5.3651103116167391 0 1:-0.57116 2:-0.64663 3:1 4:0.46809 5:0.90788 6:-0.63636 
0.59403406477714893 0 1:-0.54514 2:0.17027 3:1 4:0.45093 5:0.98985 6:0.16483 
0 8 1:0.43162 2:0.1055 3:-0.41667 4:-0.043137 5:0.85706 6:0.0082174 
2.6911124542960572 0 1:-0.094943 2:-0.39725 3:-0.26154 4:0.34199 5:0.92756 6:-0.20125 
0 0.69293341415748977 1:-0.92235 2:-0.94197 3:0.18033 4:0.31276 5:0.97152 6:-0.5272 
8 0 1:-0.14034 2:0.55513 3:0.92 4:0.32661 5:0.98486 6:-0.17211 
0.72615746583545804 0 1:0.40098 2:-0.20036 3:1 4:0.91385 5:0.94378 6:-1 
0 1.0465717507189614 1:-0.97598 2:-0.99893 3:-0.55172 4:0.09808 5:0.97488 6:-0.22444 
8 0.020649751542923742 1:0.47222 2:0.65271 3:0.99997 4:0.61603 5:-0.85734 6:0.99746 
8 0 1:-0.26316 2:0.64779 3:0.98313 4:0.54701 5:-0.7734 6:0.89588 
8 0 1:-0.42667 2:0.72773 3:0.98637 4:0.77862 5:-0.94413 6:0.96999 
0.15277005543337158 0.16669991395317613 1:0.75355 2:0.77822 3:0.90788 4:-1 5:-1 6:0.97102 
2.1062881452724573 0 1:0.64103 2:-0.64336 3:0.95919 4:0.91016 5:-0.99567 6:0.99717 
6.6461867806176986 0 1:-0.28571 2:0.48809 3:0.98985 4:0.69697 5:-0.98822 6:0.98243 
3.1731680655116707 0 1:0.14839 2:-0.113 3:0.85706 4:0.49206 5:-0.93858 6:0.86295 
0.45802241599986426 0.02383059141944455 1:-0.93269 2:1 3:0.98486 4:-1 5:-0.99169 6:0.93987 
3.2111343356221802 0 1:-0.52778 2:0.53955 3:0.98495 4:0.51571 5:-0.91143 6:0.96522 
8 0 1:-0.11724 2:0.34389 3:0.9018 4:0.5483 5:-0.92258 6:0.75955 
0 0.66008323550513737 1:-0.71598 2:-0.94037 3:0.97488 4:0.68744 5:-0.9139 6:0.74826 
8 0.11809061689079808 1:0.24224 2:0.87854 3:0.88099 4:0.72167 5:-0.9925 6:0.85224 
8 0 1:0.25 2:0.20373 3:0.93107 4:0.57875 5:-0.90136 6:0.96449 
0 8 1:0.39683 2:0.56866 3:-0.65361 4:0.69767 5:0.69469 6:0.67665 
0.68992977986862158 0 1:0.2534 2:0.59747 3:-0.44239 4:-0.44211 5:-1 6:0.31125 
0 3.9539578078860922 1:0.32507 2:0.60549 3:-0.84392 4:0.60465 5:0.61966 6:0.29638 
0.63067218305872907 0 1:0.2381 2:0.6919 3:-0.98577 4:0.36493 5:-1 6:1 
0 2.2090004716088387 1:0.051208 2:0.57364 3:-0.89802 4:-0.46429 5:0.54545 6:0.34197 
0 8 1:-0.077635 2:0.47735 3:-0.88229 4:0.2129 5:0.55445 6:-0.23489 
1.4684711127504759 0 1:0.36066 2:0.44444 3:-0.60294 4:0.8882 5:0.68596 6:0.51152 
0 8 1:0.36234 2:0.67788 3:-0.99137 4:-0.51765 5:0.84714 6:0.73575 
0 2.3363464802523239 1:0.18401 2:0.58081 3:-0.97179 4:-0.72043 5:1 6:0.21018 
0 0.64235530023196863 1:0.25988 2:0.60214 3:-0.81154 4:0.79882 5:0.80952 6:-0.10825 
0 8 1:0.25797 2:0.63723 3:-0.86191 4:-0.57764 5:0.47222 6:0.17161 
0 8 1:0.20567 2:0.48706 3:-0.76884 4:0.27941 5:0.64756 6:0.88579 
0 8 1:-0.28889 2:-0.53865 3:-0.77106 4:-0.97424 
0 8 1:-0.41538 2:-0.27796 3:-0.89905 4:-0.99823 
0 8 1:-1 2:0.2381 3:-0.996 4:-0.90092 
0 8 1:-0.38462 2:-0.75345 3:-0.95952 4:-0.93547 
0 8 1:-0.52556 2:-0.72008 3:-0.9046 4:-0.90372 
0 1.5280719602280233 1:0.81587 2:0.30794 3:-0.62637 4:-0.74495 
0 8 1:0.035503 2:0.24898 3:-0.45376 4:-0.57272 
0 2.7948313810783918 1:-0.38095 2:0.1619 3:-0.84581 4:-0.8561 
0 8 1:-0.59406 2:-0.071429 3:-0.94142 4:-0.96724 
0 8 1:-0.45462 2:-1 3:-0.81837 4:-1 
0 8 1:-0.16126 2:-0.13584 3:-0.55464 4:-0.97673 
0 8 1:-0.2605 2:-0.4607 3:-0.43217 4:-0.99985 
0 0.89631752715890523 1:-0.28889 2:-0.77106 3:-0.97424 4:-0.81646 
0 8 1:-1 2:-0.996 3:-0.90092 4:-0.97847 
0 8 1:-0.52556 2:-0.9046 3:-0.90372 4:-0.97469 
0 0.99192340143673219 1:0.054545 2:-0.97773 3:-0.97522 4:-0.38372 
0 3.1885436264363576 1:0.035503 2:-0.45376 3:-0.57272 4:-0.84074 
0 8 1:-0.38095 2:-0.84581 3:-0.8561 4:-0.97739 
0 8 1:-0.59406 2:-0.94142 3:-0.96724 4:-0.99741 
0 8 1:-0.45462 2:-0.81837 3:-1 4:-0.84723 
0 8 1:-0.25146 2:-0.97457 3:0.95684 
0 8 1:-0.28889 2:-0.96869 3:0.95932 
0 8 1:-0.47059 2:-0.78512 3:0.96442 
0 8 1:-0.41538 2:-0.97762 3:0.9779 
4.1206663135412249 8 1:-1 2:-0.94985 3:0.94651 
0 8 1:-0.38462 2:-0.98558 3:0.89978 
0 8 1:-0.52556 2:-0.72509 3:0.99669 
4.9361970416493941 0 1:0.035503 2:-0.35444 3:0.99577 
0 0.31658946515177172 1:-0.38095 2:-0.72386 3:0.97906 
0 6.9746835980575534 1:-0.59406 2:0.010703 3:-1 
0.35772427427795123 8 1:-0.45462 2:-0.91046 3:-1 
0 4.7222901235900183 1:-0.19333 2:-0.94065 3:0.93598 
0 8 1:-0.19999 2:-0.88656 3:0.80538 
0 0.068990657602536379 1:1 2:-0.97567 3:0.92628 
0 8 1:-0.16126 2:-0.99043 3:0.51724 
2.6311404781371626 8 1:-0.2605 2:-0.88219 3:0.42678 
-1.163134578709333 0 1:0.099489 2:-0.31118 3:1 4:0.37333 5:0.97499 6:-0.28571 
-0 3.5648627009253469 1:-0.97251 2:-0.83018 3:0.33333 4:0.27431 5:0.061485 6:-0.034483 
-1.4007816487016866 0 1:0.28384 2:0.48648 3:0.90698 4:0.15942 5:0.97177 6:-0.24712 
-8 0 1:0.099489 2:-0.31118 3:1 4:0.37333 5:0.97499 6:-0.28571 
-0 8 1:-0.97251 2:-0.83018 3:0.33333 4:0.27431 5:0.061485 6:-0.034483 
-7.4415829468354922 0 1:-0.0017784 2:0.48744 3:1 4:0.50063 5:0.93123 6:0.022692 
-8 0 1:0.28384 2:0.48648 3:0.90698 4:0.15942 5:0.97177 6:-0.24712 
-7.955097492388453 0 1:0.099489 2:-0.31118 3:1 4:0.37333 5:0.97499 6:-0.28571 
-5.4099368782449631 8 1:-0.97251 2:-0.83018 3:0.33333 4:0.27431 5:0.061485 6:-0.034483 
-0 7.8402964383585276 1:0.75025 2:0.83958 3:1 4:-0.33333 5:0.88695 6:0.26921 
-6.8885568567666162 0 1:-0.0017784 2:0.48744 3:1 4:0.50063 5:0.93123 6:0.022692 
-1.9096331652326475 0 1:0.22085 2:0.502 3:1 4:0.24619 5:0.57668 6:-0.38095 
-0 0.40533460662464038 1:0.94803 2:0.83443 3:1 4:0.64365 5:0.99425 6:1 
-0 0.2731362547497021 1:0.93109 2:0.81331 3:1 4:0.69402 5:0.57881 6:-0.5846 
-0.53954615118412286 0 1:0.84436 2:0.93499 3:1 4:0.7018 5:0.98707 6:-0.55492 
-0.13820961200253326 0 1:0.94891 2:0.41779 3:1 4:0.30797 5:0.94714 6:-0.3697 
-6.0638799935720931 0 1:-0.98423 2:-0.74878 3:1 4:0.52704 5:0.23478 6:-0.081065 
-2.4614766728770916 0.79707980359979547 1:0.31118 2:-0.46295 3:0.47541 4:0.30063 5:0.89295 6:-0.011368 
-8 0 1:0.28384 2:0.48648 3:0.90698 4:0.15942 5:0.97177 6:-0.24712 
-2.0268355005936693 0 1:-0.94947 2:0.057229 3:0.39683 4:0.30382 5:-0.2808 6:-0.34209 
-0 3.7425083865224495 1:0.29915 2:0.16647 3:0.54545 4:0.27645 5:0.94571 6:-0.14241 
-8 0 1:-0.46309 2:0.43216 3:0.97093 4:0.51073 5:-0.65244 6:0.9934 
-8 0 1:-0.09375 2:0.57514 3:0.97499 4:0.72245 5:-0.57687 6:0.97495 
-4.9313872655771593 0 1:-0.32374 2:-0.79923 3:0.061485 4:0.58526 5:1 6:0.41344 
-1.6377595872582651 0 1:0.50602 2:0.64888 3:0.88695 4:0.76157 5:-0.97284 6:0.30543 
-8 0 1:0.1123 2:0.59065 3:0.93123 4:0.6752 5:-0.88427 6:0.95022 
-1.8907584767161267 0 1:0.12583 2:0.73831 3:0.57668 4:0.62967 5:-0.9802 6:0.77875 
-8 0 1:0.049724 2:0.62296 3:0.96292 4:0.81765 5:-0.99942 6:0.9824 
-8 0 1:0.6 2:0.031625 3:0.82681 4:0.66309 5:-0.91944 6:0.973 
-0 1.5071004414547404 1:0.34247 2:0.29449 3:0.92425 4:0.4902 5:0.2071 6:0.93688 
-0.61370351348180741 0 1:0.59 2:0.9382 3:0.99371 4:1 5:-0.96834 6:0.96844 
-0 0.76463523894265328 1:0.90338 2:0.94542 3:0.57881 4:0.84891 5:-0.95373 6:0.57368 
-0.16538783649057742 0 1:0.10791 2:1 3:0.94714 4:0.63557 5:-0.78496 6:0.98636 
-3.8876168012832553 0 1:0.5 2:0.3311 3:0.77422 4:0.72389 5:-0.99698 6:0.98158 
-3.2933108244721239 0.34984526420403456 1:0.25926 2:-0.33549 3:0.23478 4:0.57267 5:-0.95284 6:0.24235 
-8 0.35429694358634767 1:-0.55789 2:0.67789 3:0.89295 4:0.39268 5:-0.97946 6:0.96451 
-8 0 1:0.10938 2:0.95007 3:0.97177 4:0.39286 5:-0.99934 6:0.96349 
-0.3329284242432527 1.696181918729589 1:-0.20301 2:-0.96712 3:-0.2808 4:0.68578 5:-0.9334 6:-0.1551 
-1.7952194522237421 0.31955161771737128 1:-0.38854 2:0.12012 3:0.94571 4:0.70168 5:-0.98549 6:-1 
-4.3497442414641512 -0 1:0.33684 2:0.52667 3:-0.52632 4:-0.077778 5:0.633 6:0.78633 
-4.3162506555571865 -0 1:-0.15412 2:0.84575 3:-0.20545 4:0.058824 5:0.54483 6:0.055384 
-0.27627965397443566 -8 1:0.62937 2:0.65432 3:0.83731 4:-0.40244 5:0.83027 6:0.58963 
-6.0327482938341532 -0 1:0.4436 2:0.69862 3:-0.69765 4:-0.56835 5:0.65012 6:0.2432 
-4.6898942415492604 -0 1:0.51796 2:0.62947 3:-0.75863 4:0.3271 5:0.72906 6:0.92827 
-8 -0 1:-0.08345 2:0.41818 3:-0.74994 4:0.41026 5:0.58333 6:-0.60651 
-3.4773388496280071 -0 1:0.48617 2:0.74437 3:-0.98178 5:0.7619 6:0.040447 
-0 -0.10516273807150905 1:0.25392 2:1 3:-0.78592 4:-0.60748 5:0.65718 6:-0.81679 
-0 -0.25435279812858086 1:0.70462 2:0.8525 3:-0.91988 4:0.71707 5:0.86113 6:0.77965 
-8 -0 1:-0.10345 2:0.63062 3:-0.383 4:-0.52381 5:0.59913 6:-0.090602 
-2.8035385364072751 -0 1:0.31159 2:0.56319 3:-0.67817 4:-0.33742 5:0.81567 6:-0.35931 
-4.9651664274492973 -5.4679045798322594 1:0.46559 2:0.54695 3:0.18637 4:0.31169 5:0.54177 6:-0.19329 
-8 -0 1:0.30303 2:0.66273 3:-0.65321 4:-0.047619 5:0.59552 6:0.44175 
-7.5859094172287991 -0 1:0.38562 2:0.58366 3:-0.70884 4:-0.42995 5:0.86838 6:0.77807 
-8 -0 1:0.7025 2:0.6502 3:-0.84465 4:0.66102 5:0.85714 6:0.72713 
-0 -8 1:-1 2:-1 3:-0.24355 4:0.12075 
-8 -0 1:0.17949 2:-0.48476 3:-0.99761 4:-0.90282 
-8 -0 1:-0.72657 2:-0.72768 3:-0.90836 4:-0.95696 
-8 -0 1:-0.65319 2:-0.89884 3:-0.71642 4:-0.95066 
-8 -0 1:-0.47826 2:-1 3:-0.83497 4:-0.6343 
-8 -0 1:-0.060524 2:-0.91217 3:-0.06406 4:-0.93823 
-8 -0 1:-0.25275 2:-0.2 3:-0.60307 4:-0.43012 
-5.7073721329901845 -0 1:-0.94119 2:-0.96129 3:-0.98619 4:-0.91662 
-8 -0 1:-0.61393 2:-0.39307 3:-0.84653 4:-0.92622 
-8 -0 1:-0.48331 2:-0.19295 3:-0.97568 4:-0.76883 
-8 -0.47466887377119515 1:0.17949 2:-0.99761 3:-0.90282 4:0.51836 
-8 -0 1:-0.40921 2:-0.24443 3:-0.84515 4:-0.57893 
-3.9757690823031329 -0 1:-0.75401 2:-0.37359 3:-0.9977 4:-0.85725 
-8 -0 1:-0.52464 2:-0.28282 3:-0.95185 4:-0.9502 
-8 -0 1:-0.72657 2:-0.90836 3:-0.95696 4:-0.96249 
-8 -0 1:-0.65319 2:-0.71642 3:-0.95066 4:-0.98369 
-8 -0 1:-0.47826 2:-0.83497 3:-0.6343 4:-0.8579 
-8 -0 1:-0.060524 2:-0.06406 3:-0.93823 4:-0.7248 
-8 -0 1:-0.25275 2:-0.60307 3:-0.43012 4:-0.96207 
-8 -0 1:-0.76108 2:-0.20014 3:-0.9742 4:-0.97639 
-0 -8 1:-1 2:-0.94998 3:0.88099 
-0 -0.20780246957887633 1:-1 2:-0.93734 3:0.97271 
-0 -6.1700656045621534 1:-0.61393 2:-0.83162 3:0.27147 
-8 -0 1:-0.48331 2:-0.83253 3:0.91648 
-8 -0.076866179036692031 1:0.17949 2:-0.95829 3:0.95499 
-8 -0 1:-0.75401 2:-1 3:0.96877 
-8 -0 1:-0.52464 2:-0.99968 3:0.97377 
-8 -0 1:-0.72657 2:-0.95774 3:0.99904 
-8 -0 1:-0.47826 2:-0.93284 3:0.80686 
-8 -0.85800637243393263 1:-0.5 2:-0.7981 3:0.38243 
-8 -0 1:-0.49766 2:-0.96974 3:0.82509 
-8 -0 1:-0.060524 2:-0.93323 3:0.9103 
-8 -0 1:-0.25275 2:-0.97432 3:0.97833 
-3.0955936634115351 -0 1:-0.78137 2:-0.99578 3:0.95867 
