svm_type c_svc
kernel_type rbf
gamma 0.5
nr_class 3
total_sv 136
rho -1.141347952794296 -0.77909155993051282 -0.34944178701186468
label 1 1000 10000
nr_sv 69 32 35
SV
0.47136778627998821 0 1:-0.14034 2:0.55513 3:0.92 4:0.32661 5:0.98486 6:-0.17211 
8 0 1:-0.14034 2:0.55513 3:0.92 4:0.32661 5:0.98486 6:-0.17211 
0 0.00090891572358188218 1:-0.39669 2:-0.88179 3:1 4:-0.052678 5:0.9358 6:-0.53118 
8 0 1:-0.14034 2:0.55513 3:0.92 4:0.32661 5:0.98486 6:-0.17211 
0 0.0020202912316895786 1:-0.97598 2:-0.99893 3:-0.55172 4:0.09808 5:0.97488 6:-0.22444 
7.0601157279281139 0 1:0.81124 2:-0.29829 3:1 4:0.29715 5:0.99997 6:-0.40564 
0 3.3938078475625741 1:0.43162 2:0.1055 3:-0.41667 4:-0.043137 5:0.85706 6:0.0082174 
8 0 1:-0.14034 2:0.55513 3:0.92 4:0.32661 5:0.98486 6:-0.17211 
0 6.1860248486594775 1:-0.29768 2:0.72767 3:0.37931 4:0.18611 5:0.92879 6:-0.12522 
7.0988824459977469 0 1:0.81124 2:-0.29829 3:1 4:0.29715 5:0.99997 6:-0.40564 
5.510433902208927 0 1:-0.76213 2:-0.75668 3:0.4375 4:0.23001 5:0.99226 6:0.28093 
3.6492744477496974 0 1:-0.57116 2:-0.64663 3:1 4:0.46809 5:0.90788 6:-0.63636 
0 0.033073779955307539 1:0.93363 2:-0.16765 3:0.9802 4:0.22626 5:0.95919 6:-0.63292 
0.052503521358848747 0 1:-0.54514 2:0.17027 3:1 4:0.45093 5:0.98985 6:0.16483 
0 7.8947583531480312 1:0.43162 2:0.1055 3:-0.41667 4:-0.043137 5:0.85706 6:0.0082174 
0 0.256597685375203 1:-0.39669 2:-0.88179 3:1 4:-0.052678 5:0.9358 6:-0.53118 
2.1844489568366758 0 1:-0.094943 2:-0.39725 3:-0.26154 4:0.34199 5:0.92756 6:-0.20125 
8 0 1:-0.14034 2:0.55513 3:0.92 4:0.32661 5:0.98486 6:-0.17211 
0.54145462149543311 0 1:0.40098 2:-0.20036 3:1 4:0.91385 5:0.94378 6:-1 
2.3032051199183488 0 1:-0.37726 2:-0.61613 3:0.90698 4:-0.13101 5:0.9018 6:-0.17347 
0 2.8389278255845234 1:-0.97598 2:-0.99893 3:-0.55172 4:0.09808 5:0.97488 6:-0.22444 
8 0.21551474732311032 1:0.47222 2:0.65271 3:0.99997 4:0.61603 5:-0.85734 6:0.99746 
8 0 1:-0.26316 2:0.64779 3:0.98313 4:0.54701 5:-0.7734 6:0.89588 
0 0.58708601686416972 1:-0.011628 2:-0.98953 3:0.8903 4:0.55866 5:-0.76299 6:0.87235 
8 0 1:-0.42667 2:0.72773 3:0.98637 4:0.77862 5:-0.94413 6:0.96999 
0.38369171828070314 0.18311547426937305 1:0.75355 2:0.77822 3:0.90788 4:-1 5:-1 6:0.97102 
1.7036565652115598 0 1:0.64103 2:-0.64336 3:0.95919 4:0.91016 5:-0.99567 6:0.99717 
4.2739252193150268 0 1:-0.28571 2:0.48809 3:0.98985 4:0.69697 5:-0.98822 6:0.98243 
6.58497556963699 0 1:0.14839 2:-0.113 3:0.85706 4:0.49206 5:-0.93858 6:0.86295 
0 0.46966632619510257 1:-0.47541 2:-0.87756 3:0.98677 4:0.25368 5:-0.9848 6:0.99763 
0 0.005913578869646597 1:-0.35404 2:0.34556 3:0.97368 4:-0.4 5:-0.99991 6:0.94423 
0.64093209296030096 0 1:-0.93269 2:1 3:0.98486 4:-1 5:-0.99169 6:0.93987 
4.6523610728969702 0 1:-0.52778 2:0.53955 3:0.98495 4:0.51571 5:-0.91143 6:0.96522 
8 0 1:-0.11724 2:0.34389 3:0.9018 4:0.5483 5:-0.92258 6:0.75955 
8 0.036953215278130176 1:0.24224 2:0.87854 3:0.88099 4:0.72167 5:-0.9925 6:0.85224 
8 0 1:0.25 2:0.20373 3:0.93107 4:0.57875 5:-0.90136 6:0.96449 
0 8 1:0.39683 2:0.56866 3:-0.65361 4:0.69767 5:0.69469 6:0.67665 
0.87432036100832744 0 1:0.2534 2:0.59747 3:-0.44239 4:-0.44211 5:-1 6:0.31125 
0 5.7271797579303021 1:0.32507 2:0.60549 3:-0.84392 4:0.60465 5:0.61966 6:0.29638 
0.65723985995919831 0 1:0.2381 2:0.6919 3:-0.98577 4:0.36493 5:-1 6:1 
0 4.5281280092490697 1:0.051208 2:0.57364 3:-0.89802 4:-0.46429 5:0.54545 6:0.34197 
0 8 1:-0.077635 2:0.47735 3:-0.88229 4:0.2129 5:0.55445 6:-0.23489 
0 0.087767217677710174 1:-0.036066 2:0.40366 3:-0.88013 4:-0.28655 5:-1 6:0.4384 
1.5706119488699706 0 1:0.36066 2:0.44444 3:-0.60294 4:0.8882 5:0.68596 6:0.51152 
0 0.22009385011163904 1:0.037851 2:0.62298 3:-0.92958 4:-0.11111 5:0.57898 6:0.80996 
0 8 1:0.36234 2:0.67788 3:-0.99137 4:-0.51765 5:0.84714 6:0.73575 
0 1.4132486953815842 1:0.18401 2:0.58081 3:-0.97179 4:-0.72043 5:1 6:0.21018 
0 0.58638106553972968 1:0.25988 2:0.60214 3:-0.81154 4:0.79882 5:0.80952 6:-0.10825 
0 8 1:0.25797 2:0.63723 3:-0.86191 4:-0.57764 5:0.47222 6:0.17161 
0 8 1:0.20567 2:0.48706 3:-0.76884 4:0.27941 5:0.64756 6:0.88579 
0 8 1:-0.28889 2:-0.53865 3:-0.77106 4:-0.97424 
0 8 1:-0.41538 2:-0.27796 3:-0.89905 4:-0.99823 
0 8 1:-1 2:0.2381 3:-0.996 4:-0.90092 
0 6.9381562378270276 1:-0.38462 2:-0.75345 3:-0.95952 4:-0.93547 
0 8 1:-0.52556 2:-0.72008 3:-0.9046 4:-0.90372 
0 1.0882450998472957 1:0.81587 2:0.30794 3:-0.62637 4:-0.74495 
0 8 1:0.035503 2:0.24898 3:-0.45376 4:-0.57272 
0 2.5386274526752426 1:-0.38095 2:0.1619 3:-0.84581 4:-0.8561 
0 8 1:-0.59406 2:-0.071429 3:-0.94142 4:-0.96724 
0 8 1:-0.45462 2:-1 3:-0.81837 4:-1 
0 4.9163870325984531 1:-0.16126 2:-0.13584 3:-0.55464 4:-0.97673 
0 8 1:-0.2605 2:-0.4607 3:-0.43217 4:-0.99985 
0 8 1:-1 2:-0.996 3:-0.90092 4:-0.97847 
0 8 1:-0.52556 2:-0.9046 3:-0.90372 4:-0.97469 
0.12462700048131639 5.9491470404271558 1:0.054545 2:-0.97773 3:-0.97522 4:-0.38372 
0 1.5895300392155878 1:0.035503 2:-0.45376 3:-0.57272 4:-0.84074 
0 8 1:-0.38095 2:-0.84581 3:-0.8561 4:-0.97739 
0 8 1:-0.59406 2:-0.94142 3:-0.96724 4:-0.99741 
0 8 1:-0.45462 2:-0.81837 3:-1 4:-0.84723 
-2.4426056294193628 0 1:0.28384 2:0.48648 3:0.90698 4:0.15942 5:0.97177 6:-0.24712 
-8 0 1:0.099489 2:-0.31118 3:1 4:0.37333 5:0.97499 6:-0.28571 
-6.2464968452451846 0 1:-0.0017784 2:0.48744 3:1 4:0.50063 5:0.93123 6:0.022692 
-8 0 1:0.28384 2:0.48648 3:0.90698 4:0.15942 5:0.97177 6:-0.24712 
-7.7101470859312116 0 1:0.099489 2:-0.31118 3:1 4:0.37333 5:0.97499 6:-0.28571 
-1.0518361696901517 4.4698390867966911 1:-0.97251 2:-0.83018 3:0.33333 4:0.27431 5:0.061485 6:-0.034483 
-0 7.618508458466307 1:0.75025 2:0.83958 3:1 4:-0.33333 5:0.88695 6:0.26921 
-8 0 1:-0.0017784 2:0.48744 3:1 4:0.50063 5:0.93123 6:0.022692 
-0 0.49635414330908828 1:0.94803 2:0.83443 3:1 4:0.64365 5:0.99425 6:1 
-0 0.095702395677486896 1:0.93109 2:0.81331 3:1 4:0.69402 5:0.57881 6:-0.5846 
-0.77351004263539991 0 1:0.84436 2:0.93499 3:1 4:0.7018 5:0.98707 6:-0.55492 
-0.034473895386839419 0 1:0.94891 2:0.41779 3:1 4:0.30797 5:0.94714 6:-0.3697 
-2.7260751707841733 0 1:-0.98423 2:-0.74878 3:1 4:0.52704 5:0.23478 6:-0.081065 
-8 0 1:0.28384 2:0.48648 3:0.90698 4:0.15942 5:0.97177 6:-0.24712 
-2.3509521009387639 0.21410459124188982 1:-0.94947 2:0.057229 3:0.39683 4:0.30382 5:-0.2808 6:-0.34209 
-0 3.747875734202041 1:0.29915 2:0.16647 3:0.54545 4:0.27645 5:0.94571 6:-0.14241 
-8 0 1:-0.46309 2:0.43216 3:0.97093 4:0.51073 5:-0.65244 6:0.9934 
-8 0 1:-0.09375 2:0.57514 3:0.97499 4:0.72245 5:-0.57687 6:0.97495 
-5.5881627174450497 0.60226169346091973 1:-0.32374 2:-0.79923 3:0.061485 4:0.58526 5:1 6:0.41344 
-1.3003210161278256 0 1:0.50602 2:0.64888 3:0.88695 4:0.76157 5:-0.97284 6:0.30543 
-8 0 1:0.1123 2:0.59065 3:0.93123 4:0.6752 5:-0.88427 6:0.95022 
-2.2023958054922934 0 1:0.12583 2:0.73831 3:0.57668 4:0.62967 5:-0.9802 6:0.77875 
-8 0 1:0.049724 2:0.62296 3:0.96292 4:0.81765 5:-0.99942 6:0.9824 
-8 0 1:0.6 2:0.031625 3:0.82681 4:0.66309 5:-0.91944 6:0.973 
-0 1.1607049519459887 1:0.34247 2:0.29449 3:0.92425 4:0.4902 5:0.2071 6:0.93688 
-0 0.7527432670555444 1:0.90338 2:0.94542 3:0.57881 4:0.84891 5:-0.95373 6:0.57368 
-5.6664034904800449 0 1:0.5 2:0.3311 3:0.77422 4:0.72389 5:-0.99698 6:0.98158 
-2.4931987933851607 0 1:0.25926 2:-0.33549 3:0.23478 4:0.57267 5:-0.95284 6:0.24235 
-8 0.18759667385293641 1:-0.55789 2:0.67789 3:0.89295 4:0.39268 5:-0.97946 6:0.96451 
-8 0 1:0.10938 2:0.95007 3:0.97177 4:0.39286 5:-0.99934 6:0.96349 
-0.42645749154676799 1.7785004084325262 1:-0.20301 2:-0.96712 3:-0.2808 4:0.68578 5:-0.9334 6:-0.1551 
-1.3249916838859144 0.069462224356059948 1:-0.38854 2:0.12012 3:0.94571 4:0.70168 5:-0.98549 6:-1 
-4.9847328422497998 -0 1:0.33684 2:0.52667 3:-0.52632 4:-0.077778 5:0.633 6:0.78633 
-4.2098139593050217 -0 1:-0.15412 2:0.84575 3:-0.20545 4:0.058824 5:0.54483 6:0.055384 
-0 -8 1:0.62937 2:0.65432 3:0.83731 4:-0.40244 5:0.83027 6:0.58963 
-7.1042155588759091 -0 1:0.4436 2:0.69862 3:-0.69765 4:-0.56835 5:0.65012 6:0.2432 
-5.6951187599067072 -0 1:0.51796 2:0.62947 3:-0.75863 4:0.3271 5:0.72906 6:0.92827 
-8 -0 1:-0.08345 2:0.41818 3:-0.74994 4:0.41026 5:0.58333 6:-0.60651 
-3.144572257380029 -0 1:0.48617 2:0.74437 3:-0.98178 5:0.7619 6:0.040447 
-0 -0.3549747242271824 1:0.25392 2:1 3:-0.78592 4:-0.60748 5:0.65718 6:-0.81679 
-0 -0.45301003157522235 1:0.70462 2:0.8525 3:-0.91988 4:0.71707 5:0.86113 6:0.77965 
-1.0689552153508366 -0 1:0.54823 2:0.7373 3:-0.92129 4:0.44048 5:0.73333 6:-0.22335 
-8 -0 1:-0.10345 2:0.63062 3:-0.383 4:-0.52381 5:0.59913 6:-0.090602 
-2.5318591584170234 -0 1:0.31159 2:0.56319 3:-0.67817 4:-0.33742 5:0.81567 6:-0.35931 
-4.0843515665097812 -4.985281843810343 1:0.46559 2:0.54695 3:0.18637 4:0.31169 5:0.54177 6:-0.19329 
-8 -0 1:0.30303 2:0.66273 3:-0.65321 4:-0.047619 5:0.59552 6:0.44175 
-7.2704927270546484 -0 1:0.38562 2:0.58366 3:-0.70884 4:-0.42995 5:0.86838 6:0.77807 
-8 -0 1:0.7025 2:0.6502 3:-0.84465 4:0.66102 5:0.85714 6:0.72713 
-0 -5.154599732362148 1:-1 2:-1 3:-0.24355 4:0.12075 
-8 -0 1:0.17949 2:-0.48476 3:-0.99761 4:-0.90282 
-8 -0 1:-0.72657 2:-0.72768 3:-0.90836 4:-0.95696 
-8 -0 1:-0.65319 2:-0.89884 3:-0.71642 4:-0.95066 
-8 -0 1:-0.47826 2:-1 3:-0.83497 4:-0.6343 
-6.9809657377965557 -0.21490281032696448 1:-0.060524 2:-0.91217 3:-0.06406 4:-0.93823 
-0 -0.92187934059698107 1:-1 2:-0.24355 3:0.12075 4:-0.92217 
-8 -0 1:-0.61393 2:-0.39307 3:-0.84653 4:-0.92622 
-8 -0 1:-0.48331 2:-0.19295 3:-0.97568 4:-0.76883 
-4.7843814350946845 -1.1090051458986385 1:0.17949 2:-0.99761 3:-0.90282 4:0.51836 
-8 -0 1:-0.40921 2:-0.24443 3:-0.84515 4:-0.57893 
-8 -0 1:-0.52464 2:-0.28282 3:-0.95185 4:-0.9502 
-8 -0 1:-0.72657 2:-0.90836 3:-0.95696 4:-0.96249 
-8 -0 1:-0.65319 2:-0.71642 3:-0.95066 4:-0.98369 
-8 -0 1:-0.47826 2:-0.83497 3:-0.6343 4:-0.8579 
-8 -0 1:-0.060524 2:-0.06406 3:-0.93823 4:-0.7248 
-8 -0 1:-0.25275 2:-0.60307 3:-0.43012 4:-0.96207 
-8 -0 1:-0.76108 2:-0.20014 3:-0.9742 4:-0.97639 
-5.8278011865797215 -0 1:-0.94119 2:-0.98619 3:-0.91662 4:-0.98279 
