svm_type c_svc
kernel_type rbf
gamma 0.125
nr_class 2
total_sv 26
rho -4.7945810638445652
label 1000 10000
nr_sv 14 12
SV
32 1:-0.26549 2:0.58621 3:-0.314243 
32 1:-1 2:-0.47222 3:-1 
32 1:-0.25926 2:0.7546 3:-0.94319 
32 1:-0.36 2:1 3:-0.923657 
32 1:-0.15385 2:0.85047 3:-1 
7.6468166282994368 1:-0.28205 2:-0.23636 3:0.296986 
8.8253029487951071 1:-0.48093 2:-0.68595 3:-0.781121 
2.587612616130869 1:0.028916 2:-0.052632 3:-0.394063 
32 1:-0.6836 2:1 3:-0.744867 
22.10937920760944 1:-0.21338 2:1 3:-0.647099 
32 1:-0.37778 2:1 3:-0.692353 
14.316445060691846 1:0.018315 2:0.35714 3:-0.97428 
32 1:-0.37815 2:0.90698 3:-0.957584 
32 1:-0.2 3:-1 
-32 1:-0.48331 2:1 3:-0.880449 
-32 1:0.17949 2:0.022222 3:-0.407997 
-32 1:-0.40921 2:0.77419 3:-0.929742 
-32 1:-0.52464 2:1 3:-0.721985 
-17.570955500000096 1:-0.72657 2:1 3:-0.939509 
-32 1:-0.47826 2:0.80769 3:-1 
-32 1:-0.5 2:0.10345 3:-0.634699 
-32 1:-0.49766 2:0.89831 3:-0.530386 
-32 1:-0.060524 2:0.74468 3:-1 
-32 1:-0.25275 2:0.53846 3:-0.903945 
-32 1:-0.76108 2:-0.085714 3:-0.948431 
-5.9146009615266175 1:-1 2:-0.25843 3:-0.940506 
