svm_type c_svc
kernel_type rbf
gamma 2
nr_class 2
total_sv 35
rho 0.26442280711154265
label 1 1000
nr_sv 16 19
SV
0.93561904386886952 1:-0.882673 2:-0.730676 3:-0.94622 4:0.275386 5:-0.327435 
0.090928511687972738 1:-0.644307 2:-0.423734 3:-0.981798 4:0.137003 5:-0.981119 
0.75417379688339214 1:-0.865077 2:0.941555 3:-0.818202 4:0.242538 5:0.0449473 
0.64939845112557604 1:-0.980547 2:1 3:-0.823339 4:0.870719 5:0.612587 
0.34176109886125139 1:-0.375953 2:-0.449018 3:-0.532017 4:-0.595399 5:0.160595 
0.16023163240666635 1:-0.62954 2:-0.682552 3:-1 4:-0.0576328 5:0.306226 
0.92611895058086857 1:-0.632336 2:-0.607254 3:-0.215999 4:-0.452467 5:-0.356613 
1.0247127918572814 1:-0.702566 2:0.11908 3:-0.735963 4:-0.360721 5:-0.529351 
2.6942569599202462 1:-0.360369 2:-0.539093 3:-1 4:-0.123045 5:0.548008 
0.97232201661021822 1:-0.539437 2:0.819739 3:-0.989523 4:-0.321465 5:0.238313 
0.60418591954139322 1:-0.784546 2:0.839442 3:-0.917559 4:0.702648 5:0.710327 
1.8563561499432026 1:-0.962453 2:-1 3:-0.982917 4:0.524941 5:0.181658 
3.1751364916199081 1:-0.5317 2:-0.317992 3:-0.957303 4:-0.246575 5:0.150947 
0.46414396748904169 1:-0.557597 2:-0.144434 3:-0.897486 4:-0.625601 5:-1 
1.0804834007122095 1:-0.743949 2:0.758553 3:-0.999725 4:-0.0877203 5:0.944387 
1.2538417559004882 1:-0.30569 2:-0.547278 3:-0.911192 4:0.0145391 5:-0.711726 
-0.71686458803949893 1:-0.391505 2:0.655218 3:-0.0469157 4:-0.222084 5:0.00321212 
-3.6579402617250008 1:-0.310841 2:-0.202916 3:-0.81389 4:-0.0649642 5:0.00156689 
-0.61991665625551529 1:-0.558801 2:0.2091 3:-0.836312 4:0.129919 5:0.581987 
-2.3042942555457109 1:-0.798572 2:-0.397091 3:-0.812954 4:0.197711 5:0.233914 
-0.30754095579689622 1:-0.033645 2:0.252083 3:-0.253558 4:-0.0101022 5:-0.497219 
-0.24121895208757654 1:-0.816422 2:-0.539192 3:0.0514698 4:0.298142 5:0.307457 
-0.62982127209872851 1:-0.884309 2:0.485278 3:1 4:0.464671 5:0.266729 
-0.38594192158459273 1:-0.836472 2:0.1692 3:-0.977927 4:0.880202 5:0.315314 
-0.51261222419542707 1:-0.598702 2:-0.234077 3:0.591012 4:0.461319 5:-0.0943357 
-0.63537008389524374 1:-0.247751 2:-1 3:-0.715798 4:0.655041 5:0.469854 
-0.97662600496118579 1:-0.0916949 2:0.167951 3:-0.894936 4:-0.0187666 5:0.837793 
-0.4646412193314356 1:-0.881657 2:-0.133335 3:-0.987303 4:1 5:0.893832 
-0.84782190794621504 1:-0.294394 2:-0.678428 3:-0.920697 4:0.444276 5:-0.00866826 
-0.52122952381272625 1:0.940734 2:-0.505019 3:-0.812293 4:0.39745 5:-0.506094 
-1.8194791756987871 1:-0.61547 2:-0.911727 3:-0.944697 4:-0.0544717 5:1 
-0.38078548459398903 1:1 2:-0.0379017 3:-0.993266 4:-0.0495016 5:-0.327872 
-0.64665024407098837 1:0.74281 2:0.268202 3:-0.261081 4:-0.665991 5:0.422915 
-0.54546018849360212 1:0.508002 2:0.508611 3:-0.996092 4:0.65885 5:-0.295918 
-0.76945601887546633 1:0.187097 2:0.952925 3:-0.992862 4:-1 5:-0.625346 
