svm_type c_svc
kernel_type rbf
gamma 2
nr_class 2
total_sv 35
rho -0.71765316191587725
label 100 1000
nr_sv 18 17
SV
0.5 1:0.75209 2:0.57969 3:0.950877 
0.5 1:0.8092 2:-0.066667 3:0.937019 
0.5 1:0.47475 2:0.16639 3:0.983178 
0.5 1:0.75261 2:0.028571 3:0.676463 
0.44065594590614593 1:0.45 2:0.81945 3:-0.203703 
0.5 1:0.43121 2:0.88353 3:0.035645 
0.43898399794593385 1:0.84996 2:-0.1103 3:0.982958 
0.21236591552596998 1:-1 2:0.89192 3:0.259645 
0.077546861473507325 1:1 2:-1 3:0.89913 
0.5 1:-0.16667 2:0.33818 3:0.957826 
0.39726340008060479 1:0.26032 2:0.039344 3:0.996035 
0.5 1:1 2:0.55445 3:0.999299 
0.5 1:0.69641 2:0.014634 3:-0.0416387 
0.5 1:-1 2:0.39402 3:0.958757 
0.16446363098102862 1:0.75241 2:0.28447 3:-1 
0.5 1:-1 2:0.15873 3:0.975218 
0.30665895158273243 1:-1 2:-1 3:0.98466 
0.5 1:0.74877 2:0.087912 3:0.993762 
-0.5 1:0.93407 2:0.27322 3:0.964885 
-0.5 1:0.41138 2:0.54555 3:0.970492 
-0.5 1:0.38719 2:0.30776 3:0.632876 
-0.5 1:-1 2:0.22741 3:0.95338 
-0.5 1:0.96552 2:0.60962 3:0.35649 
-0.5 1:0.61905 2:0.49322 3:0.995224 
-0.19263375802371999 1:0.91597 2:0.5678 3:0.969481 
-0.02006900716847838 1:0.67207 2:0.49873 3:0.97702 
-0.41909864115543005 1:0.62222 2:1 3:0.998208 
-0.5 1:0.56942 2:0.59629 3:0.417749 
-0.40613729714829455 1:0.73793 2:0.58155 3:0.373992 
-0.5 1:1 2:0.24538 3:0.975058 
-0.5 1:0.83333 2:0.28788 3:0.445965 
-0.5 1:-1 2:0.073495 3:0.971463 
-0.5 1:0.8 2:0.22898 3:0.96863 
-0.5 1:0.73689 2:0.43904 3:0.984029 
-0.5 1:0.33333 2:1 3:0.833205 
