svm_type c_svc
kernel_type rbf
gamma 0.125
nr_class 2
total_sv 33
rho -7.5137349726365361
label 10 1000
nr_sv 16 17
SV
32 1:-0.814049 2:0.555115 3:-0.681017 
22.583951416669315 1:-0.742262 2:-0.03426 3:-0.998852 
32 1:-0.753828 2:0.469029 3:-1 
32 1:0.343926 2:-0.0527485 3:-0.528532 
32 1:0.505561 2:-0.0531586 3:-0.964586 
32 1:0.776852 2:0.708696 3:-0.843185 
32 1:0.567171 2:0.787571 3:-0.98918 
32 1:-0.365375 2:-0.115015 3:-0.891151 
32 1:-0.687417 2:0.174239 3:-0.980332 
26.45201188411356 1:0.726319 2:0.05227 3:-0.877106 
31.473969092554476 1:-0.847401 2:-0.0277327 3:-0.381901 
18.496836039028306 1:0.262669 2:0.288895 3:0.812133 
22.755503317989263 1:0.208986 2:-0.598995 3:0.701249 
32 1:-0.849182 2:0.493874 3:-0.309102 
32 1:-0.145018 2:-0.256258 3:-0.988846 
32 1:-0.676057 2:0.318764 3:-0.0656413 
-32 1:-0.550892 2:-0.0457427 3:-0.890149 
-32 1:-0.263733 2:-0.0265707 3:-0.327852 
-32 1:-0.565738 2:0.382055 3:-0.158777 
-32 1:-0.58559 2:0.278506 3:-0.997141 
-32 1:-0.335118 2:0.055004 3:-0.946452 
-32 1:0.346261 2:0.013106 3:-0.117019 
-32 1:-0.856795 2:0.765255 3:-1 
-32 1:0.469298 2:0.999385 3:-0.817413 
-9.7698729165535401 1:-0.683866 2:0.804453 3:-0.954246 
-14.746842074537721 1:0.274561 2:0.954309 3:-0.999238 
-32 1:-0.0353613 2:-0.0147805 3:-0.932898 
-32 1:0.32328 2:-0.188763 3:-0.914899 
-1.2455567592636643 1:0.176875 2:0.876151 3:0.0779975 
-32 1:-0.593008 2:0.41705 3:-0.994428 
-32 1:0.147257 2:-0.477197 3:0.339747 
-32 1:0.772497 2:0.0317995 3:-0.688488 
-32 1:-0.791373 2:0.13299 3:-0.00218178 
