svm_type c_svc
kernel_type rbf
gamma 0.5
nr_class 2
total_sv 31
rho -0.059246366947633231
label 10 10000
nr_sv 15 16
SV
2 1:-0.940584 2:1 3:-0.850236 4:0.677049 5:-0.603253 6:0.958743 7:0.340665 
0.82145762611453288 1:0.268373 2:0.12621 3:0.102986 4:-0.84211 5:-0.812479 6:0.562575 7:-0.851597 
1.4522992199823728 1:0.238496 2:-0.25333 3:-1 4:-1 5:0.589115 6:0.914182 7:-0.571429 
1.5796457928006249 1:0.31096 2:0.027027 3:-0.572439 4:-1 5:-1 6:1 7:-0.158299 
0.17496364983754506 1:1 2:-0.30986 3:0.733374 4:-0.282278 5:-0.610956 6:1 7:1 
0.052379538484154567 1:0.726646 2:1 3:-0.608378 4:0.684219 5:-0.61247 6:0.37813 7:1 
1.052946908251696 1:0.947297 2:1 3:0.0553872 4:-0.729459 5:-0.744828 6:-0.287271 7:1 
0.41804496406317199 1:0.452005 2:0.61702 3:-0.305826 4:0.244688 5:-0.590805 6:0.452223 7:0.270519 
1.3264887779500649 1:0.786706 2:-0.97436 3:-0.996502 4:-1 5:-0.535902 6:0.00979184 7:-0.730761 
0.79743849591029115 1:-0.536485 2:1 3:1 4:0.925 5:-0.178202 6:1 7:-0.495958 
1.715070919815729 1:0.277497 2:-0.81579 3:-0.689422 4:-0.250433 5:-0.552494 6:0.294265 7:1 
0.96702011605513727 1:0.653293 2:0.62791 3:-0.322515 4:0.302633 5:-0.284574 6:0.650742 7:1 
0.67000232419569494 1:0.809501 2:-1 3:-0.823271 4:0.600005 5:-0.988984 6:0.128411 7:-0.00446249 
2 1:-0.657759 2:-0.050847 3:-0.242284 4:0.369377 5:-0.657243 6:0.30909 7:1 
0.31052029557407068 1:0.628076 2:-0.81176 3:-0.630747 4:0.588937 5:-0.464078 6:1 7:-0.890757 
-1.0929572929502718 1:-0.177548 2:-0.47945 3:-0.59573 4:-0.453774 5:0.731344 6:0.559153 7:1 
-0.84019902644917155 1:-0.31471 2:1 3:-0.340342 4:-0.568884 5:-0.261819 6:1 7:-0.524297 
-0.5410409113461504 1:-0.669979 2:0.4717 3:-0.928961 4:-0.508299 5:-0.906308 6:0.190393 7:1 
-1.5285910048842308 1:0.520341 2:0.78667 3:-0.904084 4:-1 5:-0.175175 6:1 7:-0.142855 
-0.55773124672395158 1:0.593316 2:0.55556 3:-0.494865 4:-0.350108 5:-0.631612 6:-0.573334 7:-0.380951 
-1.9294834115259356 1:-0.750995 2:0.83871 3:-0.485158 4:-0.113813 5:-0.368641 6:1 7:0.82719 
-1.5010056877843658 1:-0.743597 2:-0.875 3:-0.86649 4:-0.134168 5:-0.600322 6:1 7:1 
-1.9048511975322791 1:0.809215 2:-0.19355 3:-0.955574 4:-0.524589 5:-0.976686 6:-0.436068 7:-0.451612 
-0.10720455405339561 1:-1 2:0.58974 3:-0.803464 4:-0.931555 5:-0.53886 6:-0.668689 7:1 
-1.0283614937981087 1:-0.0418537 2:-0.57692 3:-0.992395 4:-0.386363 5:-0.610315 6:-0.691602 7:0.0521945 
-0.95640493685990535 1:-0.592856 2:0.42373 3:-0.954218 4:-0.0571426 5:-0.902231 6:-1 7:1 
-1.0125207677073074 1:0.316365 2:0.48936 3:-0.965701 4:-0.292928 5:-0.135596 6:1 7:1 
-0.85424835560412693 1:-0.968969 2:1 3:-0.985114 4:-0.855925 5:-0.9223 6:1 7:-1 
-0.22100132396797145 1:-0.998661 2:0.824 3:-0.989141 4:-0.960415 5:1 6:0.8112 7:1 
-1.1557075669523649 1:-0.769744 2:-0.68539 3:-0.975096 4:1 5:-0.0098096 6:1 7:1 
-0.10696985089554931 1:0.658934 2:1 3:-0.972723 4:-0.807145 5:-0.220835 6:1 7:1 
